unlabeled -0.00610753521890647,-0.0520869041310514,-0.03643394437190432,-0.048399335696994665,0.13302134882435915,-0.020147183788153732,-0.026542810290970883,0.08790625376394627,0.07044792195895891,0.05527511433966296,0.0773237006016272,0.11110720516155323,-0.0017861659602462316,-0.1255309754426814,0.02613948249349593,0.009065272400389478,-0.04342495952813688,0.014923128506573357,0.04728538273254003,-0.004282957087472147,0.10384730480700402,0.06480133279430952,-0.09134414308528041,0.04156196922551447,-0.0288283344766623,-0.013002519947168804,-0.07820718053895329,-0.03591538006086509,0.027368671971514838,-0.09337998815824924,-0.12368719122565304,-0.0019014024738105049,0.024948705186665105,-0.00418692665950192,-0.12234276523406985,-0.012368719122565304,0.02016638987374778,-0.13265643319807227,-0.030883385635225167,-0.03948771198135755,-0.023853958307804516,0.018994818652511004,-0.03026879089621571,0.038777086814377866,0.0036107440916805546,-0.09074875443186499,0.02565933035364479,-0.10820708623685237,0.04816886266986613,-0.08752213205206535,-0.004071690145937647,0.06708685698000094,0.05813682109317574,-0.012637604320881941,-0.012695222577664079,-0.013885999884494899,0.08464121921295853,-0.02617789466468402,0.025774566867209067,-0.06113297044584684,5.7618256782136505e-05,-0.05784872980926506,0.03067211869369067,-0.044961446375660526,-0.026369955520624478,0.026062658151119744,0.029961493526710983,-0.06320722769000375,0.06637623181302126,-0.009218921085141841,0.02514076604260556,0.1352684608388625,-0.07488452773118343,-0.10830311666482258,0.09468600197864432,0.02007035944577755,-0.12334148168496022,0.008815593287666887,0.05708048638550324,0.10955151222843555,0.06430197456886434,0.012368719122565304,0.04300242564506788,0.028463418850375434,-0.014923128506573357,0.029827050927552664,-0.14873192684028838,0.07008300633267205,0.023008890541666514,-0.04219577005011797,-0.11335431717605654,0.008834799373260932,0.011177941815734484,-0.012579986064099805,-0.023969194821368785,-0.035492846177796085,0.06966047244960304,-0.01427012159637581,0.08571676000622508,-0.018879582138946728,-0.02965419615720626,0.0036875684340567363,-0.12451305290619699,-0.023911576564586652,0.06401388328495365,0.08212522200013857,0.0463442845384318,0.019878298589837095,0.008431471575785976,0.04221497613571201,-0.03537760966423182,0.017112622264294542,-0.10211875710353993,-0.03699092085413164,-0.09750929656096903,0.026504398119782797,0.03791281296264582,-0.0025736154696020977,0.042714334361157194,0.04615222368249135,-0.0777462344846962,-0.09599201579903943,0.0077976707511824735,0.010774614018259526,-0.022740005343349877,-0.018092132629590866,-0.04227259439249415,-0.00781687683677652,0.03432127495655931,0.06967967853519709,-0.015172807619295948,-0.02394998873577474,0.010063988851279845,-0.07603689286682615,-0.1446410306087567,0.05692683770075087,0.09685628965077146,-0.01884116996775864,-0.00649165693078738,-0.12226594089169368,0.01225348260900103,0.02627392509265425,0.019455764706768096,0.0416579996534847,-0.0474006192461043,0.021741288892459507,-0.003975659717967419,-0.01801530828721468,0.005435322223114877,0.016536439696473178,0.07530706161425242,0.060230284422926696,-0.07862971442202228,0.0572341350702556,-0.013040932118356897,0.030230378725027623,-0.01759277440414568,-0.04695887927744125,0.03366826804636177,-0.007624815980836064,0.06562719447485349,0.03633791394393409,-0.004129308402719783,-0.024391728704437787,-0.03606902874561745,-0.02429569827646756,0.028328976251217115,0.042311006563682245,-0.006779748214698062,-0.09835436432710702,0.012023009581872485,-0.008700356774102613,0.09259253864889336,-0.026965344174039885,0.029442929215671754,0.04457732466377961,0.03247749073953095,-0.013540290343802079,0.043463371699324974,0.03879629289997192,0.00478231531291733,-0.10217637536032208,0.07083204367083981,0.07121616538272073,-0.08279743499593016,0.01647882143969104,0.003169004123017508,-0.04937884606229099,-0.05120342419372531,0.0026696458975723246,-0.0027272641543544616,0.09994846943141279,-0.06397547111376557,0.019955122932213278,-0.02091542721191555,0.15397518820746278,-0.03215098728443217,0.08097285686449583,0.09107525788696377,0.020147183788153732,-0.003975659717967419,0.031747659486957215,-0.050800096396250355,0.06074884873396593,0.08400741838835503,0.07993572824241739,-0.0916322343691911,0.05971172011188747,-0.026850107660475613,-0.009046066314795433,0.013885999884494899,0.15303409001335455,0.12270768086035672,-0.004436605772224511,-0.07430834516336206,0.08984606840894487,0.06051837570683738,-0.023757927879834287,0.02297047837047842,-0.03798963730502201,-0.04121625968482165,-0.0010947468788605936,-0.003399477150146054,0.01123556007251662,0.07657466326345942,-0.06747097869188186,-0.00823941071984552,-0.021952555833994008,-0.05241340758615017,0.019532589049144275,0.0452495376595712,0.05884744626015542,-0.04027516149071342,-0.003111385866235371,0.03291923070819399,-0.06962206027841494,0.03528157923626159,0.054967816970158234,-0.06758621520544612,-0.01613311189899822,-0.016094699727810132,0.027080580687604158,-0.1317729532607462,0.060844879161936156,0.05884744626015542,-0.0663570257274272,0.07457723036167868,-0.044711767262937935,-0.031824483829333394,-0.01861069694063009,0.030230378725027623,-0.071331401896285,-0.058981888859313734,-0.027560732827455293,0.08304711410865276,-0.049801379945359985,-0.042637510018781015,-0.08410344881632525,-0.09218921085141842,0.029289280530919393,0.06637623181302126,-0.005224055281580376,0.058578561061838785,-0.09040304489117218,0.04670920016471866,-0.03480142709641045,0.008431471575785976,0.13715065722707892,-0.0339371532446784,-0.020492893328846552,0.010121607108061979,0.01657485186766127,0.024967911272259155,0.062074068639955064,-0.006568481273163562,0.020012741188995414,0.04069769537378242,-0.0008642738517320476,-0.002900118924700871,-0.10325191615358861,-0.07747734928637956,0.08573596609181913,-0.050569623369121804,-0.04970534951738976,0.008892417630043068,0.026158688579089973,0.0024199667848497333,0.0948012384922086,0.07000618199029586,-0.04380908124001779,-0.03822011033215055,-0.06633781964183316,-0.013463466001425896,0.026754077232505388,-0.041235465770415695,-0.0006338008246035016,-0.007029427327420654,-0.03362985587517368,0.037759164277893456,0.07759258579994384
person -0.01882041837517399,-0.055859255211164555,-0.025157259578936275,-0.09216935530872244,0.016095576657556204,-0.11279577342696868,-0.0881137769383146,0.008871577685267201,0.045847046109220135,-0.014986629446897807,-0.021418523268716527,0.053039360875490334,-0.05652462353755959,-0.03098715348639758,0.002122841803260366,-0.003073367983824709,-0.024016628162259065,-0.03029010095398373,-0.05383146602596062,0.02040462867611456,0.0003168420601881143,-0.030892100868341144,-0.016539155541819568,-0.11022935273944497,3.168420601881143e-05,0.014479682150596822,0.03624673168552028,0.016539155541819568,0.0067804200880256455,0.03897157340313806,-0.1031004063852124,0.013972734854295841,-0.007097262148213761,-0.060231675641760525,0.0382428366647054,-0.024270101810409558,-0.008364630388966218,-0.08462851427624533,-0.04147462567862416,0.005386315023197944,0.009822103865831544,-0.004720946696802903,-0.015461892537179979,0.0859275667230166,0.010899366870471132,-0.008174525152853348,-0.05744346551210512,0.020056102409907635,0.004372420430595977,-0.0482550457666498,0.017838207988590836,-0.0881771453503522,0.1280675607280358,0.003928841546332617,0.10436777462596486,-0.022685891509468984,-0.10161124870232825,-0.06435062242420601,0.05801378122044373,-0.06840620079461388,0.03922504705128855,0.010804314252414697,0.07632725229931674,-0.1929251304485428,0.1006290383157451,-0.005766525495423681,0.032254521727150036,-0.0044991572546712235,-0.006463578027837532,-0.0659348327251466,-0.02350968086595808,-0.049395677183327026,-0.0252206279909739,0.11548893093856766,-0.020911575972415546,0.03608831065542622,-0.12464566647800418,-0.04004883640777765,0.018788734169155177,-0.01948578670156903,0.06732893778997429,-0.06305156997743475,-0.06501599075060105,0.048857045681007225,-0.10931051076489942,-0.05886925478295164,-0.007223998972289006,-0.008459683007022652,0.03019504833592729,-0.01682431339598887,-0.02167199691686702,0.07607377865116624,0.06682199049367331,0.06922999015110297,0.047716414264330015,-0.0012356840347336458,0.05471862379448734,0.07914714663499095,0.05345125555373488,0.06561799066495848,-0.007223998972289006,-0.00465757828476528,0.09742893350784515,-0.06064357032000507,0.02968810103962631,-0.016190629275612642,0.022844312539563042,-0.05307104508150915,-0.04087262576426674,0.08044619908176223,0.003516946868088069,-0.05028283495185374,0.02011947082194526,-0.05538399212088238,-0.047716414264330015,-0.13342219154521492,-0.025790943699312504,0.0288326274771184,0.05893262319498926,-0.01704610283812055,0.043629151687903336,-0.04917388774119534,-0.033268416319752,-0.0504412559819478,-0.014479682150596822,0.03364862679197774,0.1042410378018896,0.08500872474847106,-0.1313627181539922,-0.06267135950520901,0.03013167992388967,-0.027311785588215454,-0.05120167692639927,-0.002122841803260366,0.052849255639377465,0.00133073665279008,-0.032317890139187656,-0.010455787986207773,0.016000524039499774,-0.17467502778170743,-0.004847683520878149,-0.07588367341505338,0.05360967658382894,0.007540841032477121,-0.06352683306771692,0.03314167949567676,-0.03808441563461134,-0.0241116807803155,0.05940788628527143,-0.1111798789200093,0.02829399597479861,-0.0759153576210722,0.022971049363638286,0.08798704011423934,-0.04191820456288752,0.048888729887026035,0.0329832584655827,0.008744840861191955,0.047748098470348825,0.011374629960753304,0.2574658581088617,0.04093599417630437,0.029371258979438198,0.031082206104454016,0.013275682321881989,0.02347799665993927,-0.037577468338310355,-0.03219115331511241,0.0698636742714792,0.028547469622949097,-0.05018778233379731,0.11482356261217262,0.04448462525041125,-0.024048312368277876,-0.035296205504955935,-0.026392943613669922,0.004150630988464297,0.09403872346383232,-0.029086101125268896,-0.0429637833615083,-0.0008871577685267201,-0.08754346122997599,-0.024396838634484802,0.04942736138934583,0.03406052147022229,-0.001172315622696023,0.040682520528153875,0.01859862893304231,0.0232878914238264,0.12201587737844281,-0.004530841460690035,0.03916167863925093,-0.03428231091235397,0.006146735967649418,0.011184524724640434,0.03073367983824709,-0.07090925307009999,-0.04483315151661817,-0.017109471250158173,-0.09993198578333126,-0.04419946739624195,-0.0008554735625079087,0.03691210001191532,0.09587640741292339,-0.034472416148466835,-0.015366839919123545,-0.0037070521042009376,-0.01238852455335527,0.0006970525324138515,0.06229114903298327,0.01660252395385719,0.19802628761757143,-0.0028832627477118405,0.10484303771624703,0.07170135822057026,-0.04318557280363998,0.07024388474370494,-0.05040957177592898,0.013339050733919612,-0.002724841717617783,-0.09847451230646594,0.0759153576210722,0.023889891338183818,-0.04996599289166563,0.08431167221605722,-0.009346840775549372,-0.03184262704890549,0.12150893008214184,-0.0363101000975579,-0.016729260777932436,0.012325156141317645,-0.013402419145957235,-0.053039360875490334,-0.010962735282508754,-0.0754084103247712,-0.0207848391483403,0.09188419745455315,-0.11710482544552704,-0.07784809418821968,-0.005132841375047451,-0.05066304542407947,-0.053736413407904186,0.011216208930659246,0.03349020576188368,-0.20157491869167832,-0.00243968386344848,0.05262746619724579,0.005386315023197944,0.04033399426194695,-0.014257892708465144,0.0028198943356742175,0.06149904388251298,-0.09166240801242147,0.017204523868214607,0.04587873031523895,-0.002281262833354423,-0.0018693681551098743,0.034155574088278726,0.039605257523514285,0.011596419402884984,-0.0018376839490910628,0.0038654731342949947,0.04847683520878149,0.02943462739147582,0.0032951574259563886,0.0044991572546712235,-0.04597378293329539,-0.08054125169981866,0.09169409221844027,-0.044738098898561736,0.012293471935298835,0.04312220439160236,-0.053926518644017055,-0.042551888683263754,0.053926518644017055,0.07949567290119788,0.018250102666835383,-0.0011406314166772114,0.07277862122520985,0.02680483829191447,-0.06080199135009913,-0.013402419145957235,0.017077787044139363,-0.020372944470095748,-0.018725365757117557,0.012039998287148343,0.0360249422433886,0.009410209187586996,0.022685891509468984,0.06729725358395548,0.023066101981694724,-0.008111156740815726,0.09885472277869166,0.010170630132038469,-0.012198419317242401,0.026329575201632295,0.08500872474847106,0.07911546242897215,0.00025347364815049144,0.01261031399548695
bicycle 0.04640337692133773,-0.07222179716328504,-0.04413554271089641,-0.11419853615462675,0.008875081958169388,-0.005211657464379567,0.007915613638367291,-0.027889999568792748,0.043285104881980924,0.039098334031935404,0.008678827074573505,0.07895988150007703,-0.028042642256033985,0.0031400781375341322,-0.025556747063819465,-0.023594198227860633,-0.03925097671917665,-0.011840711310284958,0.05830950652615465,-0.17002214748856687,-0.0144574430915634,-0.04677408059035218,-0.014239382109790196,-0.011535425935802472,0.029372814244850526,-0.04910733309532546,-0.05717558942093399,0.01857879564707695,0.004688311108123878,-0.01679069559653668,-0.0007414073380288922,0.05584541743211745,-0.03946903770094985,-0.038684018166566324,0.06033747365664544,-0.13035685490402113,0.006650859944082711,0.03724481568686318,0.05582361133394013,0.018513377352544987,-0.05815686383891341,-0.04160603532232725,0.0038814854755630243,0.0039250976719176645,-0.04143158653690869,0.03912014013011273,0.018818662727027473,-0.07435879478466244,0.06033747365664544,-0.041976738991341696,0.016594440712940795,0.004492056224527995,0.09428956851873325,-0.08938319642883616,-0.03809525351577867,0.07359558134845623,0.03323249362223624,-0.11378422028925766,0.0658544164955075,-0.013476168673583984,0.04854037454271513,-0.13059672198397165,-0.01929839688692852,-0.10412411879670473,-0.0371575912941539,-0.06849295437496325,0.06461146889940024,-0.001853518345072231,0.035652970519918795,0.007850195343835329,0.008024644129253893,0.07710636315500481,0.08517461948061333,-0.034933369280067225,-0.02642899099091228,-0.0022678342104413174,-0.05283617588364724,0.0005233463562556886,0.03482433878918062,-0.09084420500671664,0.05739365040270719,0.026603439776330843,-0.11230140561319987,0.058876465078764983,-0.03220760700790218,0.01334533208452006,0.010030805161567367,-0.13844691732780698,0.003685230591967141,0.05189851366202246,-0.09967567476853138,0.03547852173450023,0.02283098479165442,0.010248866143340571,0.0553656832722164,0.05911633215871551,0.0628669810452146,-0.025273267787514302,0.0027257622721650453,-0.008787857565460107,-0.06633415065540854,0.13517600260120893,-0.009943580768858085,0.06308504202698781,-0.028108060550565944,0.025578553161996784,-0.06581080429915286,-0.08362638651002359,0.0028784049594062877,0.03301443264046303,-0.005102626973492965,-0.04753729402655839,-0.03774635594494155,-0.05283617588364724,-0.1074168396214801,0.045007786637989225,0.07263611302865412,0.015678584589493342,0.08473849751706693,-0.0530106246690658,0.003183690333888773,0.06046831024570936,0.05377383810527202,0.020672181072099702,0.0580478333480268,0.13269010740899442,0.0786109839292399,0.02106469083929147,-0.0017008756578309882,0.061231523681915576,-0.09243605017366102,-0.0008068256325608535,0.024291993369534883,-0.014479249189740721,-0.023681422620569915,-0.010728600303241619,-0.02468450313672665,-0.012189608881122083,0.017662939523629493,-0.05353397102532149,0.025513134867464825,0.023114464067959584,0.07900349369643167,-0.035652970519918795,-0.07804402537662958,-0.10159461140813557,-0.05972690290768047,0.028980304477658758,0.019472845672347083,0.004492056224527995,-0.03853137547932508,0.044549858576265505,-0.11520161667078348,0.007566716067530166,-0.004971790384429043,0.0022896403086186384,0.010336090536049851,-0.013716035753534507,0.062234604198072314,0.04882385381902029,0.10896507259206985,0.06395728595408062,-0.03048492525189387,0.01493717725146445,0.0764521802096852,-0.018360734665303746,0.07189470569062523,-0.02091204815205023,-0.0651130091574786,0.06823128119683541,-0.08517461948061333,0.08048630837248945,-0.03157523016075989,0.004644698911769237,0.005037208678961003,0.0625398895725548,-0.01862240784343159,0.020017998126780095,0.022024159159093566,0.043677614649172684,-0.029787130110219617,-0.0917818672283414,-0.12071855950964552,0.025927450732833913,0.12634453283939417,0.026995949543522607,-0.030375894761007268,0.046534213510401656,0.007108788005806437,0.1793769636066373,-0.014871758956932487,0.07287598010860465,-0.06995396295284372,0.05431899055970502,-0.013607005262647905,0.0019407427377815122,0.02461908484219469,0.048911078211729575,-0.03257831067691662,-0.06506939696112396,-0.039948771860850905,-0.06206015541265376,0.10061333699015615,0.012843791826441693,0.03412654364750637,-0.03222941310607949,-0.04055934260981588,0.04511681712887583,-0.07298501059949125,0.03430099243292493,0.02237305672993069,0.13430375867411612,0.02586203243830195,-0.06932158610570144,-0.02119552742835539,-0.01508981993870569,-0.02854418251411235,0.003837873279208384,-0.09732061616538078,0.032360249695143416,-0.056281539395663854,0.11960644850260219,-0.024422829958598808,-0.01197154789934888,-0.01375964794988915,-0.03307985093499499,0.027366653212537055,-0.06988854465831176,0.0326655350696259,0.035391297341790945,-0.006301962373245584,0.023179882362491546,0.07115329835259634,0.06602886528092607,-0.0011339171052206587,-0.11116748850797921,0.029656293521155695,0.02542591047475554,-0.033712227782137276,0.07414073380288924,-0.12619189015215293,0.07747706682401925,0.08044269617613482,0.07551451798806041,-0.004164964751868189,-0.0742279581955985,0.09496555756223019,-0.0721781849669304,0.04518223542340779,-0.028086254452388628,-0.13382402451421507,0.037964416926714754,0.09522723074035802,-0.03246928018603002,0.0217406798827884,-0.1060212493381316,0.05881104678423302,-0.06171125784181662,-0.010030805161567367,-0.05715378332275667,0.04782077330286355,-0.03757190715952299,0.04987054653153167,0.07780415829667905,-0.007762970951126049,-0.005320687955266168,-0.007021563613097157,-0.06445882621215898,0.010161641750631289,-0.09391886484971881,-0.08421515116081124,-0.00013083658906392216,0.022700148202590496,0.10198712117532734,-0.01212419058659012,0.0542971844615277,-0.06565816161191161,0.0011775293015752995,-0.07121871664712831,0.0551476222904432,-0.006432798962309506,-0.016005676062153147,0.04409193051454177,0.06437160181944972,0.04489875614710263,-0.04221660607129222,0.06201654321629911,0.09958845037582209,0.02989616060110622,-0.01975632494865225,-0.018862274923382112,-0.07510020212269132,0.10885604210118324,-0.01696514438195524,-0.024379217762244165,0.12342251568363324,-0.023310718951555467,-0.03423557413839297,-0.023834065307811157,-0.012734761335555091
car 0.03240445646544019,-0.07607061208678942,0.06405091394923265,-0.06624369671757072,-0.031105029639758378,-0.032025456974616326,0.04082365944017026,-0.00116406986467329,0.0508942173392043,-0.025095180570979998,0.031105029639758378,0.11369984724715855,0.0052518500871306575,0.030617744580127698,0.019247759855411842,-0.10693199919673245,-0.008635774112343708,-0.08023960648585189,0.005143564518323839,-0.0834069593734513,-0.01938311681642036,-0.07328225869001385,-0.011424127509119265,0.05774327956623552,-0.02070961503430388,0.05901563499971563,0.009637415623806773,0.05000086139654806,0.054954926169459975,0.01708204847927549,-0.061695702827684364,-0.08302795988262744,-0.02910174661683225,-0.04813293533463046,0.024851538041164658,-0.07571868398816725,-0.03635687972688904,0.03527402403882086,0.06605419697215878,-0.029751460029673153,-0.06838233670150536,-0.07555625563495703,0.03386631164433222,0.013562767493053914,-0.024120610451718635,0.12412233324481477,-0.02176539933017035,-0.013508624708650505,-0.03478673897919018,-0.005495492616945996,0.026042679298039648,-0.05795985070384916,0.09304437499725808,0.05644385274055371,0.05135443100663328,-0.013995909768281184,0.06340120053639174,-0.12306654894894828,0.03088845850214474,-0.010151772075639156,0.01943725960082377,-0.1054430726256387,-2.7071392201704418e-05,-0.115215845210454,-0.050271575318565104,-0.08787373908673254,0.06654148203178946,0.00839213158252837,-0.039578375398891856,0.020032830229261268,-0.009204273348579503,0.06524205520610764,0.10260057644445975,0.055767067935511096,-0.06088356106163323,-0.0067407766582244,-0.06074820410062471,-0.03990323210531231,0.03689830757092312,-0.043151799169516836,0.061858131180894595,-0.13708953010943117,0.09816086812338021,0.053330642637357706,-0.03153817191498565,0.036465165295695844,0.006388848559602242,-0.0034922095940198698,-0.02130518566274138,0.031484029130582236,-0.03933473286907652,0.05005500418095147,0.03446188227276972,-0.0006226420206392016,0.08481467176793994,0.09188030513258479,0.05825763601806791,-0.02125104287833797,0.07628718322440305,-0.009935200938025522,0.08329867380464448,0.022415112743011258,-0.031781814444800986,0.04653572319472989,-0.033351955192499845,-0.05831177880247132,0.016513549243039695,0.02433718158933227,0.020926186171917514,0.07428390020147692,0.02225268438980103,-0.05411571301120713,-0.05606485324972985,-0.008554559935738597,-0.09637415623806772,0.0410402305777839,0.060531632963011076,-0.0036546379472300965,0.005305992871534066,0.05571292515110769,-0.019220688463210137,-0.013075482433423234,0.03199838558241462,0.03210667115122144,-0.01605333557561072,-0.0017867118853124916,-0.07672032549963032,0.005414278440340883,-0.02525760892419022,-0.013968838376079479,-0.03887451920164754,-0.06012556207998551,-0.027802319791150436,-0.01280476851140619,0.011072199410497106,0.024418395765937385,-0.016026264183409016,-0.01759640493110787,-0.061695702827684364,-0.06267027294694573,-0.07279497363038318,-0.05598363907312474,-0.0034922095940198698,-0.007444632855468715,0.025474180061803856,0.016459406458636285,-0.0429081566397015,-0.027206749162712943,0.053763784912584975,0.0060639918531817895,0.008067274876107916,0.012155055098565284,-0.048511934825454316,0.062101773710709934,-0.005766206538963041,0.046644008763536714,0.01391469559167607,-0.021548828192556716,0.0931255891738632,-0.057986922096050865,0.16383606560471511,0.03841430553421857,-0.0019762116307244226,-0.0007038561972443148,-0.01708204847927549,-0.18037668623995654,0.03581545188285495,-0.12325604869436022,-0.09645537041467284,0.08381303025647688,-0.07856118016934623,0.040850730832371965,0.019274831247613547,-0.01673012038065333,-0.05232900112589464,0.05657920970156223,-0.09964979469447395,0.06851769366251388,-0.08435445810051097,-0.031105029639758378,0.005603778185752814,-0.007038561972443148,-0.0417170153828265,-0.014753908749928907,0.06145206029786903,0.00931255891738632,0.01275062572700278,0.04220430044245719,-0.007769489561889168,0.020357686935681723,-0.008960630818764161,0.13638567391218687,-0.06686633873820991,-0.043557870052542406,-0.04772686445160489,-0.029426603323252705,0.026611178534275443,-0.004493851105482933,-0.0220631846443891,0.05912392056852245,-0.07487947082991442,0.0398490893209089,-0.010422485997656201,-0.014239552298096524,0.03971373235990038,0.016324049497627762,-0.06510669824509913,0.07395904349505647,-0.06093770384603664,0.034813810371391876,0.09095987779772685,0.17168676934320942,-0.05319528567634918,-0.053357714029559404,-0.008716988288948822,0.041581658421817984,-0.027342106123721465,0.08689916896747119,-0.06583762583454514,0.032593956210852114,-0.03346024076130666,0.09323387474267002,0.05657920970156223,0.021359328447144783,0.03909109033926118,0.10189672024721542,-0.046021366742897515,0.08771131073352231,-0.005116493126122135,0.015836764437997086,0.0034922095940198698,0.05000086139654806,0.05712063754559632,0.009908129545823817,-0.002734210612372146,-0.15482129200154757,-0.018164904167343666,-0.17363590958173214,0.011261699155909037,0.0655939833047298,0.028100105105369186,0.12030526694437443,0.04810586394242875,0.018949974541193095,-0.014131266729289707,0.06461941318546845,0.06979004909599398,0.015701407476988564,0.06429455647904798,0.06088356106163323,-0.13589838885255617,0.006821990834829514,-0.017677619107712983,-0.04250208575667594,0.023985253490710113,0.042664514109886156,0.05465714085524122,-0.028776889910411798,-0.07617889765559623,0.007065633364644853,0.11445784622880628,-0.11231920624487163,0.015728478869190265,0.0025447108669602154,-0.05416985579561054,0.02628632182785499,0.020872043387514107,-0.0037629235160369138,0.0018408546697159002,-0.03605909441267029,-0.014753908749928907,0.007309275894460193,-0.005766206538963041,0.07084583339186046,-0.09109523475873538,0.09299023221285468,-0.0863577411234371,0.041581658421817984,-0.04453244017180377,-0.07923796497438884,0.0025176394747585106,-0.004683350850894864,0.013968838376079479,0.10249229087565292,0.04897214849288329,-0.016134549752215833,0.10086800734355066,0.058717849685496884,-0.05227485834149123,-0.07531261310514169,0.10343978960271258,-0.06015263347218722,0.05319528567634918,-0.033433169369104954,0.007038561972443148,0.15490250617815268,-0.003627566555028392,-0.00839213158252837,-0.03040117344251406,-0.014726837357727202
motorcycle -0.08669345309046067,-0.05265128704203932,0.0005144348351601123,-0.12290519213933988,-0.03050822239819101,-0.1264838692534972,-0.004674646980367977,0.030754256449789328,0.03871681302878933,0.02985958717125,0.030575322594081456,0.10315536781558426,-0.043190159421485956,0.040796919101393256,-0.046589902679935395,-0.017446050931516854,-0.02730977972741292,-0.07242347809775843,0.025430974242480336,-0.1528766129704073,-0.03999171675070786,-0.0522934193306236,-0.010422897094983147,0.046612269411898874,0.13795800275076406,-0.01876568811736236,-0.0913009998749382,0.043145425957558985,0.0650200898178455,-0.02055502667444101,0.0019459056808230335,-0.05025804672194663,-0.018094686158457864,-0.04032721773016011,0.06551215792104213,-0.04782007293792696,0.004473346392696629,0.08101230317173595,0.002818208227398876,0.03162655899636517,-0.11773847705577527,-0.048647642020575844,0.043615127328792136,0.024513938231977526,0.03473553473928932,0.06387938648770787,0.043055959029705056,0.025923042345676967,0.004898314300002809,-0.05589446317674438,0.05605103030048876,0.008476991414160112,0.09295613804023596,0.023015367190424157,-0.06014414224980617,0.007470488475803371,0.06428198766305056,-0.10362506918681741,0.12391169507769664,0.015589612178547752,0.06486352269410112,-0.10129892906261517,-0.005345648939272472,-0.03936544825573034,-0.06009940878587921,-0.027690014170792133,0.06014414224980617,0.02525204038677247,0.06888953444752809,0.019078822364851124,0.020644493602294943,0.12664043637724157,0.03486973513107022,-0.002303773392238764,0.031134490893168536,-0.015768546034255617,-0.05645363147583146,-0.04647806902011798,0.0437940611845,-0.027086112407778088,0.06573582524067696,0.012033301796353932,0.016953982828320224,-0.014471275580373593,-0.005703516650688202,0.015925113158,0.008499358146123594,-0.09322453882379775,0.019526157004120786,0.07468251802607022,-0.09711635018544382,0.03654724002833146,0.03187259304796348,-0.05406039115573876,-0.0012749037219185392,0.042273123410983146,0.0740562495310927,-0.023753469345219103,0.005211448547491573,0.06115064518816291,-0.074302283582691,0.014001574209140449,-0.020711593798185393,0.07962556578999999,-0.04898314300002809,0.025833575417823034,0.01970509085982865,-0.02849521652147753,-0.022389098695446627,0.0699184041178483,-0.011339933105485955,-0.06540032426122472,-0.022523299087227527,-0.10534730754800561,-0.10680114512563202,0.01301743800274719,0.05699043304295506,0.12983887904801966,0.01919065602466854,0.03182785958403652,0.010579464218727528,0.03813527799773877,0.06083751094067416,0.030351655274446627,0.06877770078771067,0.07508511920141292,0.10047135997996628,0.008991426249320224,-0.004562813320550562,0.07859669611967977,-0.12769167277952526,-0.020420826282660114,-0.01066893114658146,0.02572174175800562,-0.007649422331511236,0.0432572596173764,-0.03985751635892697,0.013755540157542134,-0.04111005334888202,-0.04869237548450281,0.015567245446584268,0.0798715998415983,0.026079609469421346,-0.0479095398657809,0.06965000333428652,0.021002361313710673,-0.041512654524224715,-0.016596115116904495,0.026840078356179773,0.000603901763014045,-0.03654724002833146,-0.024715238819648877,-0.03482500166714326,-0.00760468886758427,0.028405749593623596,0.041781055307786516,0.03947728191554775,0.019078822364851124,0.09297850477219943,-0.0476411390822191,0.10373690284663482,0.0488265758762837,-0.03305802984202809,0.033348797357553375,0.005927183970323034,-0.021852297128323032,0.012972704538820224,0.0049877812278567414,-0.043972995040207866,0.08242140728543539,-0.014091041136994381,0.1089707181260899,0.025900675613713484,0.005703516650688202,0.0035786771141573036,0.006710019589044943,0.004495713124660112,0.03518286937855899,-0.05987574146624438,0.11599387196262358,-0.007761255991328652,-0.05795220251738483,-0.08919852707037078,-0.0881025572041601,0.04493476451463764,0.00896905951735674,0.0056587831867612355,0.06106117826030899,-0.024961272871247192,0.10574990872334832,0.057303567290443815,0.011608333889047752,-0.0646174886425028,0.053613056516469096,-0.060188875713733145,0.014940976951606741,0.041423187596370786,0.009080893177174157,-0.09340347267950562,-0.02059976013836798,-0.057437767682224715,-0.02695191201599719,0.05504452736213202,-0.020219525694988763,-0.00802965677489045,0.06850930000414888,-0.07049993914889888,-0.031089757429241575,-0.08239904055347191,0.043972995040207866,-0.0412666204726264,0.14149194640099438,-0.010758398074435392,-0.03533943650230337,-0.04026011753426966,-0.00668765285708146,0.031134490893168536,0.0005368015671235954,-0.08584351727584831,-0.04699250385527809,-0.015276477931058989,0.1274903721918539,-0.042206023215092696,-0.09259827032882022,0.0297253867794691,0.014381808652519661,-0.027712380902755615,0.020085325303207866,0.019391956612339886,0.07526405305712079,0.007582322135620786,0.023015367190424157,0.06649629412743539,0.05381435710414045,0.04131135393655337,-0.10993248760051966,-0.06674232817903371,-0.07264714541739326,-0.024491571500014044,-0.05571552932103651,-0.06942633601465169,0.10539204101193259,0.03489210186303371,0.06141904597172472,-0.019906391447499998,0.004943047763929775,0.08881829262699158,-0.07486145188177809,0.17186596840740448,0.07852959592378933,-0.1940313997832163,0.022478565623300563,0.07696392468634551,-0.0160593135497809,0.05117508273244944,-0.029837220439286515,0.07729942566579776,-0.08132543741922471,-0.02701901221188764,-0.012771403951148876,0.0760468886758427,0.01872095465343539,0.04433086275162359,0.09756368482471348,-0.02558754136622472,-0.013845007085396066,-0.04480056412285674,-0.023149567582205054,-0.012927971074893258,-0.014940976951606741,-0.0056587831867612355,0.020331359354806178,0.004674646980367977,0.047439838494547755,0.02744398011919382,0.09309033843201686,-0.0715288088192191,0.02956881965572472,-0.04573996686532303,-0.04480056412285674,-0.01892225524110674,0.017177650147955054,-0.021718096736542136,-0.008007290042926966,0.05555896219729214,-0.035272336306412924,0.08239904055347191,0.08689475367813203,-0.0034892101863033707,-0.010780764806398876,0.03070952298586236,-0.059003438919668534,0.14323655149414605,-0.02907675155252809,-0.013263472054345506,0.1352516281831826,-0.09179306797813483,-0.030485855666227527,-0.04976597861875,0.020152425499098313
airplane 0.10904587030639354,-0.06657158046792633,0.0645447055551681,-0.07715637167899717,0.004571728969888039,-0.01981833248030283,-0.031799415297940455,-0.00013512499418388293,0.019998499139214677,-0.08952030864682246,-0.020403874121766325,0.10089332899063261,0.033691165216514815,-0.020043540803942637,0.024097290629459124,-0.010314541222703064,-0.038600706671862564,-0.07413858014222377,0.05109976863387173,-0.0020493957451222246,0.023691915646907476,-0.033465956892875015,0.033083102742687345,0.12636439039429453,-0.044140831433401764,0.019300353335931282,-0.03803768586276305,-0.007184145524109776,0.08976803780282624,-0.04058253991989284,-0.007364312183021621,0.02159747823705729,0.054635539315016676,0.001103520785835044,0.11183845351952712,0.05663989339541094,-0.06668418462974623,-0.0062833122295505575,-0.022791082352348255,0.03337587356341909,-0.03062833201501347,-0.057225435036874425,-0.024637790606194657,0.009976728737243357,0.004323999813884254,-0.018557165867919924,0.0843855588678349,0.006125666403002693,-0.012183770308913447,-0.058013664169613746,0.1301253693990793,-6.756249709194146e-05,0.1097890577744049,-0.008805645454316374,0.09938443322224591,-0.02425493645600699,0.03222731111285609,-0.11215374517262285,0.007679603836117347,0.011350499511446168,0.066954434618114,-0.080804746521962,0.02107949909268574,-0.10413632885104579,0.033083102742687345,-0.12312139053388134,0.0018016665891184393,-0.034366790187434236,0.015742061822422364,0.022385707369796608,0.014616020204223338,0.05314916437899396,0.022250582375612726,0.03501989432598966,-0.02695743633968465,-0.026326853033493195,-0.03932137330750994,-0.0540274768411892,0.038240373354038876,-0.021777644895969134,0.05706778921032657,0.02065160327777011,-0.01191352032054568,-0.0788454341062957,0.02625929053640125,0.030831019506289293,0.011125291187806363,-0.03364612355178685,-0.006756249709194147,0.07240447605019729,-0.028691540431711147,0.045672248034152436,0.028398769610979396,-0.042744539826834974,0.0007657083003753366,0.029907665379366094,0.06260791397186577,-0.05127993529278358,0.05274378939644231,0.0978980582862232,-0.0029502290396814443,-0.01657533261988964,-0.06938668451342389,0.006103145570638713,-0.05427520599719298,0.12906689027797222,-0.04956835203312106,0.06501764303481168,0.039343894139873915,-0.04450116475122545,0.002116958242214166,-0.06357630976351693,0.029885144547002116,-0.0756024342458825,-0.09798814161567912,0.02986262371463813,0.046167706346160006,-0.049005331224021544,0.010359582887431025,0.018579686700283905,-0.006148187235366674,-0.018669770029739827,0.02979506121754619,0.08328203808199985,-0.043893102277397976,-0.034929810996533736,0.06735980960066565,0.002837624877861542,-0.02186772822542506,0.044163352265765746,-0.0555363726095759,-0.03574056096163704,-0.05927483078199665,0.033060581910323364,-0.02002101997157866,0.0018917499185743612,0.020448915786494288,-0.0626754764689577,0.08445312136492684,-0.07467908011895931,-0.011575707835085974,0.08051197570123025,-0.08805645454316373,-0.004864499790619786,0.1478717853018959,-0.14248930636690457,-0.05823887249325355,-0.05078447698077601,0.030763457009197352,0.03864574833659053,-0.01592222848133421,-0.14212897304908087,-0.049906164518580765,0.12053149481202359,-0.06551310134681924,0.09922678739569804,0.048937768726929606,0.023218978167263885,0.045627206369424474,0.002860145710225522,0.11881991155236106,0.045559643872332536,-0.02882666542589503,0.04125816489081226,0.06657158046792633,0.0604909557296516,-0.010404624552158986,-0.05909466412308481,0.05326176854081386,0.019435478330115163,-0.007139103859381816,0.059500039105636456,0.06970197616651962,0.05790106000779384,0.01610239514024605,0.04170858153809187,-0.04355528979193827,-0.056392164239407155,-0.024390061450190872,-0.027024998836776587,0.011598228667449952,-0.02249831153161651,-0.015066436851502949,0.04222656068246342,0.02195781155488098,0.040605060752256825,-0.002522333224765815,0.003828541501876684,0.008873207951408313,-0.009346145431051904,0.06630133047955857,0.08675024626605285,-0.036461227597284415,-0.06544553884972731,0.04033481076388906,0.05839651831980141,-0.017115832596625174,0.042586894000287104,0.042992268982838755,0.014773666030771203,-0.04330756063593449,0.1278057236655893,0.22104196965246853,0.009323624598687923,0.08695293375732868,-0.04873508123565379,-0.009143457939776079,-0.09756024580076349,-0.07265220520620107,0.02711508216623251,-0.0285113737727993,0.1487050560993632,0.05855416414634928,-0.07490428844259911,0.07981382989794686,-0.0512574144604196,-0.013535020250752275,-0.09055626693556555,-0.023556790652723595,-0.048172060426554274,0.0390286024867782,0.09668193333856825,-0.06067112238856344,-0.013557541083116255,0.03011035287064192,0.015471811834054596,0.0429472273181108,0.05269874773171435,-0.056482247568863074,-0.036979206741655966,0.03490729016416976,0.08530891299475811,0.050964643639687855,-0.04738383129381495,0.0182418742148242,-0.09461001676108204,-0.012318895303097328,-0.14652053536005707,0.08825914203443955,-0.015471811834054596,-0.04601006051961214,0.10920351613294141,0.04760903961745476,0.02429997812073495,-0.017498686746812844,0.006958937200469972,0.047406352126178934,-0.10269499557975105,0.0358982067881849,0.03641618593255646,0.0707604552876267,0.04351024812721031,0.054748143476836576,-0.036956685909291985,0.03396141520488258,-0.05015389367458455,0.05977028909400423,-0.024817957265106504,-0.017633811740996725,0.020741686607226032,0.06954433033997176,-0.048284664588374174,0.008535395465948607,-4.504166472796099e-05,0.057765935013609965,-0.005630208090995123,0.04657308132871166,-0.005630208090995123,-0.0012386457800189269,-0.03423166519325035,0.09089407942102527,-0.002432249895309893,0.029186998743718714,0.06395916391370458,-0.09659185000911233,0.02328654066435583,-0.06274303896604966,0.03749718588602752,-0.06368891392533683,-0.06765258042139739,0.004414083143340176,0.0006305833061914538,-0.009909166240151415,0.124675327966996,0.017543728411540803,-0.029750019552818228,0.023894603138183302,-0.010967645361258499,-0.011530666170358013,-0.011710832829269855,-0.023083853173080003,0.002522333224765815,0.1028526414062989,-0.05398243517646124,-0.034209144360886366,0.09947451655170182,-0.10420389134813773,0.025223332247658152,-0.022588394861072433,0.1549208058318218
bus 0.005099593371716771,-0.12059849189870742,-0.04938795382518494,-0.018951191584082594,0.05990873654701503,-0.046585474584872125,0.02044431576949516,-0.04015355501694106,0.013920511636307942,-0.03856854626627233,0.07075111524724169,0.051937750511043324,0.025360140010699615,-0.07447244014011609,-0.02809370582707032,0.009464110221384277,-0.019663296964817816,-0.06951067361628355,0.05749676670904089,0.003996978588642874,0.03218256898096935,-0.019801123812702055,-0.02090373859577595,-0.06356114801594732,-0.02565876484778213,0.06760406888721827,0.01633248147428209,0.007258880655236485,0.01162339750490399,-0.00420371886046923,-0.07458729584668627,-0.08060573487096463,0.037764556320280945,0.03879825767941273,0.060138447960155425,0.0336067797424398,0.007006198100782049,0.024510207782080157,0.036501143548008784,-0.049273098118614744,-0.1695499940389256,-0.06082758219957661,-0.08111109997987351,-0.0102910713086897,-0.03420402941660483,-0.0005742785328509877,-0.0111639746786232,-0.04964063637963937,-0.01826205734466141,0.029977339414821558,0.08062870601227867,-0.021822584248337534,0.05839264122028842,-0.03310141463353093,-0.057841333828751486,-0.1010500506404598,0.11995529994191431,-0.14219136473390456,0.09457218878990066,0.0649394164947897,0.11235185216696722,-0.08230559932820355,-0.0015620376093546863,-0.11524621597253622,-0.033423010611927484,-0.08526887655771465,0.02839233066415283,0.06659333866940054,0.04176153490892382,-0.00011485570657019754,0.016585164028736523,-0.05738191100247069,0.07608042003209885,-0.025727678271724248,0.022006353378849847,-0.0038361805994445975,-0.04853802159656548,0.004571257121493862,-0.00326190206659361,-0.04610308061727729,0.004088863153899032,-0.02281034332484123,0.04608010947596325,0.050628395456143074,0.010635638428400292,0.07915855296818014,0.006914313535525891,-0.016631106311364604,-0.0033767577731638075,0.035605269036761235,0.03925768050569352,0.0478488873571443,-0.019020105008024712,0.022626574194328918,-0.019893008377958214,0.045482859801798226,0.07017683671439069,0.00978570619978083,0.07056734611672937,0.06080461105826258,0.03856854626627233,0.008499322286194617,-0.060505986221180065,0.002136316142205674,-0.06810943399612714,-0.07187670117162963,-0.004525314838865782,0.04973252094489553,-0.07683846769546215,0.053338990131199734,-0.06328549432017885,-0.02060511375869344,-0.00025268255445443457,0.04316277452908024,-0.08180023421929469,-0.00790207261202959,0.054211893501133236,-0.09636393781239573,-0.012680070005349807,-0.021294247998114624,-0.014586674734415087,0.02152395941125502,0.0005053651089088691,0.10562130776195365,-0.043300601376964475,0.003996978588642874,0.01304760826637444,-0.05368355725091033,-0.013690800223167546,0.029426032023284608,-0.024372380934195918,-0.020719969465263638,-0.04672330143275636,-0.037603758331082676,-0.020719969465263638,-0.007833159188087472,-0.030207050827961955,-0.04483966784500512,-0.027289715881078935,-0.08127189796907178,-0.053936239805364765,-0.08967933569001024,0.03817803686393366,-0.030115166262705793,-0.020696998323949597,-0.0911724598754228,-0.045207206106029754,0.017664807670496382,0.06659333866940054,0.010015417612921225,-0.0478488873571443,0.05361464382696821,0.12604265239013476,-0.016883788865819038,-0.11223699646039703,0.008591206851450777,-0.014173194190762376,-0.019249816421165106,0.056141469371512556,-0.014816386147555483,0.14467224799582082,-0.01899713386671067,-0.055038854588438664,-0.035467442188877,-0.057450824426412805,-0.07612636231472693,0.06863777024635005,-0.09046035449468758,-0.001539066468040647,0.13132601489236387,0.01072752299365645,0.07068220182329955,-0.0438978510511295,0.047917800781086414,-0.0344796831123733,0.039625218766718144,0.06859182796372196,0.10557536547932558,-0.01908901843196683,-0.061631572145568,-0.06725950176750768,0.015597404952232826,-0.03709839322217381,0.053178192142001465,0.08000848519679961,0.10049874324892284,0.04610308061727729,-0.033951346862150386,0.0035605269036761236,0.07631013144523924,-0.06698384807173921,-0.02423455408631168,-0.06470970508164929,0.09344660286551272,-0.013552973375283309,0.0014242107614704494,0.004088863153899032,0.010888320982854726,-0.13631075255751043,0.07610339117341289,-0.07582773747764442,0.03716730664611592,0.10079736808600537,0.06381383057040176,-0.0006431919567931062,-0.011072090113367043,-0.07010792329044858,0.02940306088197057,-0.07389816160726509,-0.03748890262451248,0.03388243343820827,0.1438452869085154,0.04307088996382408,-0.054142980077191115,0.021409103704684823,0.06346926345069116,0.08816324036328363,-0.0288976957730617,-0.05853046806817267,0.004732055110692138,-0.14915162055205852,0.09843134053065929,-0.04118725637607283,0.030207050827961955,0.022052295661477928,0.04217501545257654,0.07938826438132054,0.010337013591317779,-0.033767577731638077,0.02990842599087944,0.022649545335642954,-0.03505396164522429,0.07631013144523924,-0.1169231092884611,0.1404225868527235,-0.14942727424782698,0.0835000986765336,-0.04830831018342508,0.1478652366384723,0.0875659906891186,0.0497095498035815,-0.022695487618271032,0.03914282479912332,-0.057703506980867236,0.003445671197105926,0.006317063861360865,0.06606500241917763,-0.058025102959263795,0.03307844349221689,-0.0781478227503624,-0.020972652019718072,-0.0027795080989987805,0.09172376726695976,-0.07500077639033899,0.03068944479555678,-0.005467131632741404,0.02618710109800504,0.008568235710136736,-0.005650900763253719,0.02000786408452841,-0.0003905094023386716,-0.0270370333266245,-0.019984892943214372,0.028208561533640517,-0.041577765778411505,0.03739701805925632,-0.030046252838763676,-0.042818207409369646,-0.0420371886046923,-0.050168972629862287,-0.006960255818153971,0.031493434741548164,-0.0016768933159248842,0.12126465499681457,-0.01908901843196683,0.029219291751458255,0.003445671197105926,0.013874569353679863,-0.10031497411841052,0.03243525153542378,-0.03629440327618242,-0.015919000930629378,-0.008797947123277132,0.0590128620357675,0.042197986593890575,0.07088894209512592,-0.049594694097011296,0.17393748202990714,0.0037442960341884392,-0.04697598398721079,-0.05196072165235737,-0.053430874696455896,-0.01690676000713308,0.00464017054543598,0.01022215788474758,0.07102676894301015,-0.04580445578019478,-0.056577921056479304,-0.0698322695946801,0.031079954197895453
train -0.0009055290293695554,-0.10807611334313395,-0.012995565259330646,-0.0027900083607602516,0.03137535717977757,-0.04189907292650483,-0.05009778170593188,-0.02454717882318011,0.02386191361176531,0.07415548537810142,0.0024718495126033807,0.03869301068738559,0.005041594055408876,-0.022736120764441,0.032231938694046065,-0.11708245612172845,-0.07168363586549804,0.14047936834003372,0.03570721226622112,0.03609879238702957,0.027900083607602516,-0.14177647749021174,0.045227503953376706,-0.05389121412626381,-0.048971988858607575,0.03213404366384395,0.049241200191663385,0.042731180683222805,0.052765421278939496,0.0879586846365995,0.041629861593449016,0.028536401303916256,0.026749817002727674,0.031399830937328094,0.06184518533018557,0.0006607914538642702,0.01722952531557208,0.015198203438878214,0.027043502093334018,-0.03700432141639913,-0.03215851742139448,-0.018624529495952207,-0.14451753833587094,0.00976502926266088,-0.028291663728410972,-0.004747908964802533,0.05041594055408875,0.04980409661532554,-0.06191860660283716,0.06551624896276485,-0.013020039016881174,0.039084590808194056,0.02699455457823296,0.050978836977750915,-0.016005837438045654,-0.009887398050413523,0.09767476638415934,-0.13759146494907137,0.08433656851912129,0.03144877845242915,0.07667628240580587,-0.05090541570509933,0.01194319368465792,-0.054503058065027025,-0.01752321040617842,-0.1030589930452756,-0.028732191364320488,0.04373460474279447,0.08117945379510311,-0.03267246632995558,0.008737131445538683,0.02515902276194332,0.09821318905027096,-0.01275082768382536,-0.018306370647795337,-0.00944687041450401,-0.02506112773174121,-0.0021781644219970387,-0.004527645146847776,-0.07197732095610437,0.001590794240784354,0.03702879517394965,0.04104249141223633,-0.02070479888774713,-0.10506584116441896,0.054772269398082836,-0.031350883422227034,-0.05119910079570567,-0.06673993684029128,0.029906931726745856,-0.06309334696526253,0.03176693730058602,-0.08869289736311536,-0.05501700697358812,0.07378837901484349,0.007170810962304857,0.01622610125600041,0.02555060288275178,0.059911758483693824,0.007831602416169127,0.04405276359095134,-0.03881537947513824,-0.02550165536765072,0.09843345286822572,-0.05981386345349171,-0.010474768231626207,-0.08962290015003546,0.06128228890652342,-0.0007586864840663842,0.04118933395753951,0.04650013934600419,-0.018110580587391106,-0.05907965072697585,-0.004601066419499362,-0.10915295867535721,0.040846701351832104,0.049412516494517084,-0.12858512217047685,0.053450686490354296,-0.09581476081031917,-0.03279483511770822,-0.013044512774431702,0.02116980028120717,0.010205556898570394,-0.1270922229598946,0.0836513033077065,-0.011478192291197876,-0.031057198331620697,0.05384226661116275,0.004968172782757289,-0.06279966187465619,-0.03879090571758771,-0.07650496610295215,-0.028267189970860446,0.010230030656120923,-0.024596126338281166,-0.06975020901900629,-0.05587358848785662,-0.017278472830673137,-0.0887173711206659,-0.1496325536639314,-0.07506101440747097,-0.01852663446575009,-0.0022026381795475667,-0.026235868094166576,0.014586359500115,0.026725343245177148,-0.04946146400961814,0.013705304228295974,0.043073813288930195,-0.06833073108107564,-0.03778748165801604,-0.012677406411173774,0.011967667442208448,-0.050929889462649855,0.10712163679866334,-0.018624529495952207,0.02931956154553317,-0.057268592668236744,-0.028291663728410972,0.13844804646333986,0.02288296330974417,-0.04980409661532554,0.05878596563636951,-0.09253527729854834,-0.0032060622391192365,0.10509031492196948,0.03470378820664945,0.07452259174135935,0.06886915374718726,-0.09811529402006884,0.10690137298070859,-0.016788997679662566,-0.006020544357430017,-0.06835520483862616,0.005726859266823674,-0.023029805855047342,-0.009006342778594497,0.03874195820248665,0.005653437994172088,-0.03083693451366594,0.0010278978171221979,0.044689081287265085,-0.004160538783589849,-0.016984787740066797,0.03861958941473401,0.05159068091651412,-0.056681222487024056,0.0435877621974913,0.09583923456786969,0.031228514634474392,-0.07195284719855385,-0.09459107293279274,-0.03511984208500843,0.1607925871069724,-0.03844827311188031,0.062334660481196145,0.028903507667174186,0.04126275523019109,-0.019799269858377575,-0.01786584301188582,-0.012432668835668488,0.0030102721787150085,0.04192354668405536,-0.06191860660283716,-0.0447869763174672,0.007440022295360671,0.01916295216206383,-0.028732191364320488,-0.03284378263280928,0.0042584338137919625,0.1662991825558413,0.061967554117938216,0.022785068279542055,-0.003181588481568708,0.021928486765273557,-0.007929497446371241,-0.039671960989406736,-0.0368085313559949,-0.06571203902316909,-0.12623564144562613,0.08661262797132044,-0.0466714556488579,0.008810552718190267,0.032599045057303995,-0.016372943801303583,0.10636295031459696,-0.021585854159566157,-0.06808599350557035,-0.07692101998131115,-0.013436092895240158,-0.07437574919605618,0.07741049513232172,-0.02966219415124057,0.04498276637787142,-0.08137524385550735,0.05648543242661983,-0.04610855922519574,0.045912769164791506,0.04397934231829975,-0.04674487692150948,0.025428234094999138,0.06174729029998347,0.03590300232662534,-0.033235362753617735,-0.07045994798797162,0.07280942871282235,-0.1033037306207809,0.057415435213539916,0.0006607914538642702,0.06502677381175428,0.03485063075195262,0.10474768231626208,-0.08272130052078641,0.018355318162896393,0.05555542963969975,-0.004845803995004648,-0.01705820901271838,0.02175717046241986,0.05442963679237543,0.038888800747789824,0.028095873668006744,-0.012457142593219018,-0.041311702745292146,-0.07537917325562785,0.1014192512893902,0.026407184397020275,-0.08044524106858725,-0.026358236881919222,0.014831097075620286,-0.07310311380342871,0.009838450535312467,0.014855570833170812,0.09701397493029505,-0.0644394036305416,0.008272130052078639,-0.024816390156235924,0.023568228521158967,-0.0561183260633619,0.09319606875241263,-0.05533516582174499,0.0223934881587336,-0.02963772039369004,0.1157608732139999,0.04662250813375684,0.0225648044615873,0.07846286670699444,0.1579781049886616,0.03675958384089384,-0.05582464097275556,0.08250103670283165,-0.04840909243494542,-0.03176693730058602,-0.006142913145182659,-0.056779117517226176,0.054184899216870155,-0.0807389261591936,-0.0664217779921344,-0.04635329680070103,0.004845803995004648
truck -0.0608692883650293,-0.10616679492743866,-0.03544597113626204,-0.03600821757497516,0.015205099342589649,0.04629977195315884,0.02019198079900169,-0.016231810230674482,0.03696159197105394,-0.03400368679347621,0.0593536675302374,0.09343069081571967,0.030263525701167176,-0.037132710452401414,0.053682312148435475,-0.10873357214765073,-0.021340919173763285,0.0006844739253898878,0.06949854892440896,-0.12579652928772722,-0.075316577290223,-0.04959991409343151,0.01801633153615526,0.07998566728127544,-0.03427258726416509,0.07629439718363712,-0.013860596989145227,0.038672776784528656,-0.006918075745904936,0.016476265204028014,-0.018383013996185558,0.024372160843347073,-0.01801633153615526,-0.04331742127824575,0.0031045781615898476,-0.10386891817791546,-0.0006600284280545346,0.030605762663862123,0.03967504217527813,-0.02730562052358945,-0.005353563916442336,-0.09201285197026919,0.05446456806316678,0.02596111817014503,0.03850165830318118,0.07612327870228966,0.02825899491966822,-0.056835781304696034,-0.10756018827555379,-0.024616615816700604,0.09460407468781663,-0.024543279324694547,0.08910383778736217,0.10083767650833167,0.027158947539577333,-0.006966966740575643,0.09198840647293384,-0.11640945831095162,0.017918549546813847,0.011513829244951326,0.06211600872913231,-0.11836509809777987,0.046006425985134596,-0.10465117409264676,-0.04603087148246995,-0.11716726872834757,-0.04651978142917701,-0.04510194258372653,0.04145956348075892,0.012540540133036156,0.018383013996185558,-0.030239080203831828,0.0573246912514031,0.050308833516156753,0.05390232162445366,-0.020460881269690572,-0.06333828359589996,-0.04427079567432453,0.02950571528377123,-0.009949317415488726,0.032096938001318666,-0.026278909635504617,0.12503871887033127,0.0608692883650293,0.07472988535417453,-0.02808787643832075,-0.013078341074413927,-0.013762814999803814,0.047033136873219424,0.023614350425951128,0.11220483276927089,0.05431789507915467,-0.06898519348036654,0.018969705932234033,-0.00794478663398977,0.08555924067373596,0.05118887142022946,-0.0612848618197303,0.046788681899865896,0.03605710856964587,0.09208618846227525,-0.00327569664293732,-0.055320160469904144,-0.019849743836306742,-0.015205099342589649,-0.004669089991052448,-0.030776881145209597,0.02234318456451276,-0.12044296537128489,0.050211051526815334,0.02136536467109864,-0.04566418902243965,-0.004864653969735274,-0.05551572444858696,-0.09076613160616619,0.049111004146724445,0.03505484317889639,0.04018839761932055,-0.024934407282060193,0.024298824351341015,-0.07279869106468163,0.038306094324498365,0.023003212992567298,0.0044246350176989175,-0.00569580087913728,-0.08106126916403099,0.056151307379306147,0.014447288925193702,-0.024469942832688486,-0.009484852966117016,-0.05243559178433247,0.0007822559147313003,-0.015033980861242177,0.017429639600106784,-0.007847004644648355,0.10215773336444074,-0.015547336305284593,-0.0037401610923090294,0.016500710701363365,-0.06480501343602116,0.019214160905587564,-0.04776650179328002,0.07541435927956441,-0.02060755425370269,0.038281648827163006,0.08233243502546934,-0.022220957077835998,-0.029970179733142942,0.05348674816975266,0.007504767681953412,-0.02160981964445217,-0.02270986702454306,-0.03808608484848018,0.030996890621227773,-0.03158358255727625,0.02657225560352886,0.042559610860849806,0.07822559147313003,0.04896433116271233,-0.06270270066518079,0.14669742950945414,-0.006918075745904936,-0.07604994221028359,0.03769495689111453,-0.0038134975843150884,-0.11198482329325271,0.021316473676427933,-0.018651914466874444,-0.09470185667715804,0.06504946840937469,-0.10399114566459224,-0.01684294766405831,0.05165333586960117,0.000562246438713122,0.026474473614187442,0.04346409426225788,-0.04920878613606586,0.04079953505270438,-0.044466359653007353,0.006038037841832224,0.015571781802619948,0.011220483276927089,-0.04031062510599732,0.04893988566537697,0.03383256831212873,0.005964701349826165,0.0006355829307191814,0.04011506112731449,-0.041435117983423565,0.05825362015014652,0.03987060615396096,0.08326136392421278,-0.02021642629633704,-0.048402084723999206,-0.02334544995526224,0.060771506375687886,0.04043285259267408,-0.07981454879992798,-0.038990568249888245,0.15591338200488228,-0.06431610348931409,-0.007822559147313004,-0.05673799931535462,-0.07069637829384126,0.07230978111797456,0.05947589501691417,-0.03916168673123572,0.05209335482163753,-0.005426900408448396,0.06426721249464339,-0.03693714647371859,0.15645118294626006,0.05062662498151634,-0.011318265266268501,-0.04383077672228816,0.04361076724626999,0.0038623885789857955,-0.054537904555172836,-0.09057056762748336,-0.12599209326641003,-0.07979010330259263,0.13789705046872702,0.07399652043411394,0.02674337408487633,0.018089668028161317,0.14237057648109666,-0.04832874823199314,0.05360897565642942,0.05094441644687593,-0.01170939322363415,0.05778915570077481,0.021707601633793584,0.03290363941338532,0.06289826464386361,0.046128653471811366,-0.14017048172091487,-0.047595383311932554,-0.011244928774262442,0.0658806153187767,-0.09497075714784693,0.06162709878242525,0.11626278532693951,-0.00491354496440598,0.09861313625081454,-0.012076075683664448,0.01882303294822191,0.05571128842726979,0.007064748729917055,0.0698407858871039,0.10712016932351742,-0.049893260061455745,-0.013420578037108869,0.054489013560502134,-0.038183866837821594,0.026865601571553092,-0.03603266307231052,0.08553479517640061,-0.06856962002566555,-0.01114714678492103,-0.06473167694401509,0.08807712689927734,-0.0040335070603332674,0.08326136392421278,-0.020534217761696633,-0.04500416059438512,0.018896369440227972,0.006624729777880699,-0.06720067217488576,-0.007235867211264528,-0.021878720115141054,0.018236341012173436,-0.017918549546813847,-0.009778198934141254,0.04700869137588407,-0.023761023409963243,0.03647268202434687,-0.06096707035437072,-0.03363700433344591,-0.058498075123500054,-0.03525040715757922,-0.041801800443453864,-0.009142616003422073,-0.011880511704981622,0.07776112702375831,0.09382181877308532,-0.005500236900454454,-0.006624729777880699,0.19483061376276448,0.021438701163104697,0.03503039768156104,-0.06463389495467368,-0.042046255416807385,0.06382719354260703,-0.06465834045200904,-0.02285654000855518,0.11699615024700011,0.024372160843347073,0.010242663383512964,-0.017380748605436078,0.042021809919472033
boat 0.041111182869063206,-0.11864239058446907,0.028008293219395505,-0.09758995236427989,-0.10096388867618726,0.05331281555870085,0.0087814780720877,-0.0465649429348861,0.0701131696597739,-0.04917627720369112,0.06636948690272598,0.0772307887287292,-0.020289836177086844,0.020012526343231442,0.04048723574288855,-0.06075396276715412,-0.03417843702267818,-0.023756209100279358,0.0844639535617909,0.04661116124052866,-0.0644052089129169,-0.020844455844797646,-0.008689041460802566,0.009659625879296469,0.07399550733374952,0.13303939279212865,-0.07376441580553668,-0.04633385140667326,-0.043191006622978714,0.013796164234306203,-0.0872601610531662,0.02190747687457668,0.03729817265355144,-0.04048723574288855,0.01608397036361326,-0.0017100773087749732,0.021098656525831764,-0.031636430212337,0.02953349730560021,-0.007348710597168128,-0.10630210297790374,-0.07117619068955293,0.013033562191203848,0.004714267175541818,-0.012247850995280212,-0.0354032221222062,0.00972895333776032,0.004483175647328984,-0.09504794555393871,-0.019920089731946308,-0.014142801526625453,-0.03427087363396331,0.06840309235099892,0.041665802536774,0.13611291011735935,-0.053405252169985984,0.09368450553748299,-0.09049544244814588,0.08922443904297529,0.11184829965501175,0.11323484882428876,-0.107873525369751,0.026667962355761066,-0.07817826399440181,0.01904194192473754,-0.022531424000751334,0.024125955545419894,-0.02324780773821112,0.0528275233494539,0.03424776448114203,-0.015968424599506842,0.009682735032117753,0.11307308475453978,0.027268800329114436,-0.0932454316338786,-0.04272882356655305,-0.051325428416070476,-0.02655241659165465,0.027962074913752938,0.013218435413774116,0.038153211307938924,-0.045478812752285776,-0.046772925310277644,0.03119735630873262,0.08797654479062599,0.023686881641815503,0.019596561592448342,-0.009960044865973154,0.0087814780720877,0.04723510836670331,0.03459440177346128,0.059113212916842996,0.14329985664477848,-0.05622456881418256,0.02803140237221679,0.05259643182124107,0.05530020270133123,-0.047142671755418177,0.0381994296135815,0.007117619068955294,-0.0772307887287292,-0.007117619068955294,-0.029302405777387377,0.08374756982433111,-0.037829683168440965,-0.09192820992306544,-0.07346399681886,0.025096539963913797,-0.01647682596157508,0.0018487322257026736,0.007140728221776577,-0.051787611472496144,-0.019827653120661176,0.013403308636344384,-0.09174333670049518,0.03593473263709572,0.05696406170446363,-0.0018949505313452407,0.02107554737301048,-0.025420068103411762,-0.010422227922398823,0.0177016110611031,-0.023525117572066524,0.04413848188865133,0.05215735791763668,-0.0211910931371169,-0.012132305231173795,-0.02444948368491786,-0.026899053883973904,0.024218392156705026,0.002287806129307059,-0.13331670262598405,-0.1141592149371401,-0.009659625879296469,0.016777244948251762,0.03168264851797957,-0.013149107955310267,0.004113429202188449,-0.07563625718406063,-0.05758800883063828,-0.10401429684859667,0.00034663729231925133,0.021653276193542566,-0.019481015828341924,-0.001109239335421604,0.06604595876322801,-0.05791153697013625,-0.05807330103988524,0.04970778771858064,0.036096496706844707,-0.021630167040721283,-0.12548269981956897,-0.010376009616756256,0.0008319295015662031,0.05065526298425326,0.022462096542287483,0.01229406930092278,0.004044101743724599,-0.029810807139455612,-0.06583797638783646,0.13641332910403603,0.015020949333834225,0.008573495696696149,0.03750615502894299,0.14221372646217817,0.0444620100281493,-0.09234417467384855,-0.03630447908223625,-0.08876225598654962,0.0639661350093125,0.002079823753915508,0.04885274906419315,0.07284004969268534,0.05807330103988524,-0.045894777503068876,0.033277180062648126,0.07704591550615891,-0.000554619667710802,-0.003997883438082031,0.014004146609697753,0.015829769682579143,-0.005754179052499571,-0.08769923495677058,-0.022693188070500317,0.08268454879455209,0.07170770120444246,0.06371193432827839,0.05576238575775689,-0.0264830891331908,-0.0020567146010942246,0.010306682158292406,0.08656688646852768,-0.020405381941193262,-0.061562783115899036,0.07281694053986405,0.028909550179425557,0.016499935114396364,0.020128072107337858,-0.03838430283615176,0.0703904794936293,-0.05564683999365047,0.005176450231967486,0.030550300029736684,-0.03651246145762781,0.03445574685653358,0.047443090742094865,-0.05798086442860011,-0.09666558625142856,-0.06449764552420204,0.06923502185256512,-0.029464169847136363,0.14041121254211808,-0.033207852604184275,-0.02999568036202588,-0.09920759306176972,-0.010653319450611657,0.04644939717077968,-0.015922206293864278,0.0699745147428462,-0.022531424000751334,-0.022577642306393902,0.12425791472004094,-0.11168653558526277,-0.002287806129307059,0.03621204247095112,0.02823938474760834,0.110808387778054,0.02558183217316075,0.012270960148101497,-0.1293419283407233,0.005684851594035722,0.03586540517863187,0.03401667295292919,-0.03715951773662374,-0.10819705350924898,-0.14360027563145517,-0.03896203165668385,-0.09943868458998256,-0.05250399520995593,-0.05936741359787711,-0.06556066655398107,0.034109109564214334,-0.03598095094273829,-0.0066785451653509085,-0.014766748652800105,-0.026644853202939783,0.06521402926166181,0.13553518129682726,-0.013264653719416684,-0.024241501309526306,-0.06750183539096888,-0.01878774124370342,0.058882121388630165,0.020012526343231442,-0.00519955938478877,0.016800354101073046,0.07302492291525561,0.014558766277408555,0.03658178891609165,0.0440460452773662,0.0667623425006878,0.07184635612137016,-0.03390112718882278,-0.0008550386543874866,-0.033207852604184275,0.00871215061362385,0.11658567598337484,-0.014004146609697753,-0.0065629994012444915,0.027962074913752938,-0.1069260501040784,-0.017193209699034862,-0.03736750011201529,0.04480864732046855,0.054422054894122454,-0.09560256522164952,-0.05243466775149208,0.016661699184145347,-0.03367003566060994,-0.047327544977988446,-0.02223100501407465,0.012525160829135613,0.013819273387127485,0.07815515484158053,0.06780225437764556,0.029441060694315083,-0.08132110877809635,0.10512353618401829,0.047419981589273574,-0.02089067415044021,-0.04155025677266759,-0.059090103764021705,0.096457603876037,-0.04328344323426384,-0.01162390386910556,0.10845125419028309,0.07371819749989411,-0.00804198518180663,-0.05936741359787711,0.0710837540782678
stoplight 0.03330599693271875,0.010454727581958824,0.02017933302966495,0.02314642510715995,0.05252219012570993,-0.014369424982632856,-0.00462928502143199,-0.025709619833791757,-0.0314573898268449,-0.05301929455754155,0.002640867294105498,0.12783351154820083,0.04118199527455103,0.0612059831692686,-0.044211225406024984,0.03826150673754024,0.030649595125118514,-0.0028428159695370945,-0.03276228896040291,-0.10829109357182015,0.11880795920775793,0.0139810621452644,-0.038680938601898175,0.12264498404095826,0.026439741968044453,0.09378185796773465,0.014571373658064452,-0.059295238009415795,0.06911305053809036,-0.053547468016362655,-0.021282283487791365,-0.03375649782406616,-0.010004226690611415,0.011153780689222044,-0.04261117051606694,0.04567146967453037,0.08421259765497591,0.05923309995543684,0.12767816641325344,0.0608797583858791,0.01870355424766482,0.009584794826253483,-0.13845911877860176,0.003355454914863456,0.016559791385390946,0.02370566759297053,0.10184427047150378,-0.06853827353878503,0.039255715601203486,-0.04143054749046684,-0.0014757787820001312,0.04096451208562469,0.13042777530182212,-0.03431574030987673,-0.052133827288341476,0.0027806779155581415,0.02420277202480215,-0.04820359537417271,-0.027868917209560373,-0.11441169188874702,-0.039457664276635086,-0.06257302035680556,-0.04191211740880372,-0.053236777746467887,-0.012489748849769531,0.10021314655455628,-0.025554274698844377,-0.013779113469832804,0.011759626715516835,-0.05834763268623676,0.01031491696050618,0.08584372157192341,0.13690566742912794,0.011713023175032618,0.1370920815910648,-0.0508444626682782,-0.03764012619775071,-0.08425920119546011,0.07955224360655444,-0.022944476431728353,0.06372257435541619,-0.017647207330022622,0.07540452850345933,0.07976972679548076,-0.018579278139706914,0.024373651673244272,0.07535792496297511,-0.007176945234569058,0.011713023175032618,0.01763167281652788,0.020940524190907125,0.03579151909187686,0.05694952647171032,0.034952655363161,-0.04348110327177228,-0.08750591451586041,0.09404594469714521,0.03630415803720322,0.040156717383898304,0.004505008913474085,0.09378185796773465,0.07257724704741697,-0.015052943576401337,-0.009072155880927121,-0.03355454914863456,0.008870207205495525,0.041663565192887914,-0.04731812810497262,0.015581117035222436,0.07183159039966953,-0.019262796733475394,-0.015270426765327673,-0.11528162464445234,0.03725176336038226,-0.12971318768106416,0.09232161369922927,0.00672644434322165,-0.08272128435948103,-0.037080883711940134,-0.0749074240716277,-0.03297977214932924,0.01867248522067534,0.0021903664027580895,0.08432133924943906,0.04857642369804642,0.07512490726055404,-0.04388500062263547,0.0129247152276222,0.016124825007538274,0.005390476182674163,-0.019324934787454347,0.008419706314148116,0.05339212288141527,0.05590871406756286,-0.005561355831116283,0.02681257029191817,0.03161273496179228,0.02131335251478084,-0.003837024833200341,-0.10881926703064125,0.06128365573674229,-0.05620386982396289,0.04885604494095171,0.03892949081781398,-0.023084287053181,-0.0630390557616477,-0.011246987770190474,0.08756805256983935,-0.12427610795790578,-0.07232869483150116,-0.0414150129769721,0.06639451067651116,-0.07935029493112285,-0.042859722731982755,0.005048716885789922,-0.08623208440929188,-0.037220694333392784,-0.057741786659941965,-0.1223808973115477,-0.013918924091285447,0.039954768708466704,0.06358276373396354,-0.05159011931602564,0.0062448744248847655,0.07705118693390157,-0.05385815828625742,0.019511348949391206,-0.03311958277078189,0.037593522657266495,0.05584657601358391,0.030587457071139558,0.05351639898937317,0.01126252228368521,-0.035294414660045244,0.021748318892633515,0.06718677086474281,0.059932153062700055,0.030261232287750055,0.08150959230689146,-0.043263620082845955,-0.062215726546426584,-0.11804676804651576,0.009460518718295577,-0.041694634219877395,-0.042393687327140606,0.1496905720352975,-0.0068351859376848175,0.08172707549581779,-0.010718814311369375,0.045609331620551426,-0.028008727831013012,0.003510800049810838,-0.015084012603390814,0.07441031963979608,0.02087838613692817,0.046929765267604166,0.019977384354233352,0.004862302723853064,0.01834626043728584,-0.004147715103095106,0.03740710849532964,0.010812021392337803,-0.09124973226809233,0.032373926123034455,0.00908769039442186,-0.0779521887165964,0.04118199527455103,-0.03504586244412943,-0.08596799767988132,0.06715570183775334,0.15234697384289775,0.11655545475102087,0.024979497699539062,-0.07802986128407008,-0.018796761328633248,0.14002810464157034,0.06533816375886896,-0.0014136407280211784,-0.02314642510715995,-0.07456566477474347,-0.04211406608423532,-0.013126663903053799,0.042502428921603774,0.029997145558339506,0.03568277749741369,-0.06358276373396354,-0.012334403714822148,0.017942363086422646,-0.018563743626212176,0.015223823224843459,0.03886735276383503,0.10899014667908337,-0.019961849840738614,-0.058083545956826216,0.017802552464970003,-0.06401773011181622,-0.02370566759297053,0.011246987770190474,0.029127212802634167,0.06504300800246894,0.05826996011876307,0.01819091530233846,0.01186836830998,-0.027232002156276105,0.02699898445385503,-0.03981495808701406,0.08422813216847064,0.03329046241922401,0.05561355831116283,0.07152090012977477,-0.05216489631533095,-0.024249375565286363,-0.02963985174796053,-0.020148264002675477,0.06083315484539488,0.04018778641088778,-0.023363908296086287,-0.03493712084966626,-0.012536352390253745,-0.032218580988087074,0.004986578831810968,0.026936846399876077,0.006524495667790054,-0.0024544531321686394,-0.00506425139928466,-0.08554856581552338,0.0699519142668062,0.05826996011876307,-0.12935589387068516,-0.019076382571538538,-0.020847317109938698,0.06073994776442645,-0.008264361179200734,0.08020469317333344,-0.08213097284668097,0.08902829683834476,-0.00865272401656919,0.09283425264455562,-0.08764572513731306,-0.04922887326482543,-0.06526049119139526,0.05590871406756286,0.10507544927840934,-0.003914697400674032,0.038680938601898175,-0.018221984329327937,0.00323117880690555,0.13429586916201194,-0.0020350212678107073,-0.05149691223505721,-0.00020194867543159688,-0.1508245915204134,0.002858350483031833,-0.018113242734864768,-0.05221149985581516,0.02089392065042291,-0.007270152315537488,0.057586441524994585,0.004038973508631937,-0.0672644434322165
fireplug 0.01743011291785266,0.03516074502394416,0.023520635132826467,-0.07955744643309531,0.043695489969927184,0.05459431919672242,-0.01069848310130267,0.005769968414185709,0.032676453067836425,-0.007172391292633623,-0.07791460820405632,0.06659505211372671,-0.01787087439393629,-0.021657416165745663,-0.007773429669111302,0.043374936169139094,-0.05038705056137867,-0.05497497683515828,0.0012020767529553559,-0.05012660059823834,0.02087606627632468,-0.07855571580563252,-0.005168930037708031,0.06621439447529086,-0.027307176904635837,0.06058466834894994,0.10554233890948027,-0.005649760738890173,-0.05084784665001156,0.01837173970766769,-0.08805212215397983,-0.08596852244885721,0.013763778821338826,-0.03231583004194982,0.05088791587511007,-0.07553048931069486,-0.012782082806425284,0.10325839307886507,0.010578275426007132,0.02882980745837929,0.01757035520569745,-0.05753940724146304,-0.03231583004194982,-0.04904473152057852,0.06717605587765514,-0.060905222149738036,-0.013022498157016357,-0.04726165100369475,0.0705619053984794,-0.039828809747920794,-0.0783353350675907,-0.0054093453882991015,0.15624994327164704,0.09474368274543131,0.07362720111851555,0.04365542074482868,-0.033157283769018574,-0.05423369617083581,-0.020234958674748494,-0.09251984075246389,-0.024161742734402653,-0.07589111233658148,-0.05515528834810158,-0.05986342229717673,-0.005790003026734964,-0.07655225455070692,-0.06166653742660976,-0.03600219875101291,0.03474001816040979,0.00044076147608363054,-0.0052691031004543105,-0.03894728679575353,0.07098263226201378,0.027126865391692533,0.05876151860696765,0.09556510185995079,-0.01827156664492141,0.021256723914760543,0.02336035823243242,-0.037805313880445945,0.10109465492354544,0.08721066842691108,0.12764051655130954,0.035461264212183,0.022518904505363667,-0.009316094835404009,-0.00546944922594687,-0.0395082559471327,0.022739285243405485,0.018852570408849835,0.021937900741435246,0.027367280742283603,-0.033838460595693266,0.033097179931370804,-0.05934252237089608,0.06290868340466363,0.009636648636192104,-0.024943092623823635,0.0094563371232488,0.04403607838326454,0.02754759225522691,0.07641201226286214,-0.151161151684136,0.09237959846461911,0.04175213255264936,0.06352975639369056,0.018952743471596114,-0.013242878895058173,0.0716037052510407,0.02540388871245652,-0.047401893291539536,-0.018151358969625876,-0.04117112878872094,0.018511981995512482,-0.1418049876236335,0.03926784059654163,0.08049907322291033,0.07749388134052194,0.061165672112878364,-0.10029327042157521,-0.0643712101207593,0.06641474060078342,-0.028809772845830032,0.030212195724277944,0.022859492918701017,0.010718517713851924,-0.01005737549972648,-0.053512450119062596,-0.03467991432276202,0.05765961491675858,0.04998635831039355,0.0012621805906031238,0.05211002724061468,-0.008134052694997907,-0.05134871196374295,0.040750401925186565,0.07659232377580542,0.043374936169139094,0.006591387528705202,-0.09213918311402804,-0.05647757277635247,-0.10203628171336046,-0.02496312723637289,0.016167932327249536,0.015847378526461443,0.08053914244800886,0.05651764200145099,-0.02039523557514254,0.06549314842351765,-0.023520635132826467,0.028389045982295656,-0.07390768569420514,-0.004968583912215471,-0.009816960149135407,0.010878794614245972,0.09205904466383101,0.01360350192094478,-0.012381390555440167,0.05263092716689533,0.06933979403297479,0.10999002289541508,0.07126311683770335,-0.03520081424904267,0.041651959489903086,-0.05870141476931988,0.012942359706819333,-0.01931336649748272,-0.02742738457993137,-0.022939631368898043,0.10796652702794023,-0.08212187683940006,0.0491449045833248,0.06683546746431779,-0.011559971440920674,0.007713325831463534,0.036523098677293565,-0.04555870893700799,0.03209544930390801,0.03874694067026097,-0.021156550852014264,0.010718517713851924,-0.04932521609626811,-0.03722431011651752,0.017890909006485548,-0.09532468650935973,0.07086242458671824,-0.06731629816549994,0.01360350192094478,-0.008334398820490467,0.07557055853579338,0.048684108494691916,0.035240883474141185,0.039388048271837166,0.033417733732158894,-0.045879262737796085,0.04353521306953314,-0.03910756369614758,-0.07120301300005559,-0.14657322541035642,-0.02708679616659402,0.01049813697581011,-0.007412806643224695,-0.03660323712749059,0.025964857863835688,-0.04477735904758701,-0.04732175484134251,-0.11255445330171983,-0.0913778678371563,0.05343231166886557,0.06962027860866436,0.014404886422915016,0.08937440658223071,-0.04786268938017242,-0.02217831609202632,-0.06599401373724904,0.019613885685721557,-0.021857762291238224,0.1030580469533725,0.060624737574048446,0.07130318606280187,-0.00861488339618005,-0.04986615063509802,0.0491449045833248,-0.009516440960896568,0.05820054945558848,-0.1662071457086272,-0.008234225757744188,-0.11784359101472339,0.06903927484473595,-0.03926784059654163,0.04097078266322838,0.007452875868323206,-0.052590857941796826,0.02734724612973435,0.03754486391730562,-0.1262581282854109,0.05840089558108104,0.021857762291238224,0.017670528268443734,0.0106383792636549,-0.054574284584173155,0.16560610733214953,0.04359531690718091,0.0001803115129433034,-0.03143430708978256,-0.05190968111512212,0.08348423049274947,0.051028158162954855,-0.028088526794056816,0.0036062302588660677,0.059222314695600534,0.04345507461933612,0.01266187513112975,-0.04351517845698389,0.0898352026708636,-0.03644296022709654,0.07721339676483237,-0.09981243972039305,0.12814138186504093,0.04579912428759906,-0.007813498894209814,-0.019874335648861884,0.1232529364030225,-0.04688099336525889,-0.03233586465449907,-0.09808946304115704,-0.11249434946407207,-0.10373922378004723,-0.06427103705801303,-0.10301797772827401,-0.06639470598823416,-0.017810770556288526,0.004327476310639282,0.03423915284667839,-0.0380056600059385,0.07613152768717255,-0.041892374840494156,0.086108764736702,-0.0647919369842937,-0.018632189670808017,-0.05140881580139072,-0.026966588491298484,0.11543943750881269,0.03482015661060681,0.05575632672457926,0.037023963991024963,0.0006010383764776779,0.060805049086991754,0.042393240154225555,-0.03305711070627229,-0.022518904505363667,-0.058781553219516905,0.03099354561369893,-0.049485492996662155,-0.023220115944587626,-0.041671994102452335,-0.057058576540280896,-0.03275659151803345,-0.03369821830784848,0.0072925989679291595
street_sign -0.00610753521890647,-0.0520869041310514,-0.03643394437190432,-0.048399335696994665,0.13302134882435915,-0.020147183788153732,-0.026542810290970883,0.08790625376394627,0.07044792195895891,0.05527511433966296,0.0773237006016272,0.11110720516155323,-0.0017861659602462316,-0.1255309754426814,0.02613948249349593,0.009065272400389478,-0.04342495952813688,0.014923128506573357,0.04728538273254003,-0.004282957087472147,0.10384730480700402,0.06480133279430952,-0.09134414308528041,0.04156196922551447,-0.0288283344766623,-0.013002519947168804,-0.07820718053895329,-0.03591538006086509,0.027368671971514838,-0.09337998815824924,-0.12368719122565304,-0.0019014024738105049,0.024948705186665105,-0.00418692665950192,-0.12234276523406985,-0.012368719122565304,0.02016638987374778,-0.13265643319807227,-0.030883385635225167,-0.03948771198135755,-0.023853958307804516,0.018994818652511004,-0.03026879089621571,0.038777086814377866,0.0036107440916805546,-0.09074875443186499,0.02565933035364479,-0.10820708623685237,0.04816886266986613,-0.08752213205206535,-0.004071690145937647,0.06708685698000094,0.05813682109317574,-0.012637604320881941,-0.012695222577664079,-0.013885999884494899,0.08464121921295853,-0.02617789466468402,0.025774566867209067,-0.06113297044584684,5.7618256782136505e-05,-0.05784872980926506,0.03067211869369067,-0.044961446375660526,-0.026369955520624478,0.026062658151119744,0.029961493526710983,-0.06320722769000375,0.06637623181302126,-0.009218921085141841,0.02514076604260556,0.1352684608388625,-0.07488452773118343,-0.10830311666482258,0.09468600197864432,0.02007035944577755,-0.12334148168496022,0.008815593287666887,0.05708048638550324,0.10955151222843555,0.06430197456886434,0.012368719122565304,0.04300242564506788,0.028463418850375434,-0.014923128506573357,0.029827050927552664,-0.14873192684028838,0.07008300633267205,0.023008890541666514,-0.04219577005011797,-0.11335431717605654,0.008834799373260932,0.011177941815734484,-0.012579986064099805,-0.023969194821368785,-0.035492846177796085,0.06966047244960304,-0.01427012159637581,0.08571676000622508,-0.018879582138946728,-0.02965419615720626,0.0036875684340567363,-0.12451305290619699,-0.023911576564586652,0.06401388328495365,0.08212522200013857,0.0463442845384318,0.019878298589837095,0.008431471575785976,0.04221497613571201,-0.03537760966423182,0.017112622264294542,-0.10211875710353993,-0.03699092085413164,-0.09750929656096903,0.026504398119782797,0.03791281296264582,-0.0025736154696020977,0.042714334361157194,0.04615222368249135,-0.0777462344846962,-0.09599201579903943,0.0077976707511824735,0.010774614018259526,-0.022740005343349877,-0.018092132629590866,-0.04227259439249415,-0.00781687683677652,0.03432127495655931,0.06967967853519709,-0.015172807619295948,-0.02394998873577474,0.010063988851279845,-0.07603689286682615,-0.1446410306087567,0.05692683770075087,0.09685628965077146,-0.01884116996775864,-0.00649165693078738,-0.12226594089169368,0.01225348260900103,0.02627392509265425,0.019455764706768096,0.0416579996534847,-0.0474006192461043,0.021741288892459507,-0.003975659717967419,-0.01801530828721468,0.005435322223114877,0.016536439696473178,0.07530706161425242,0.060230284422926696,-0.07862971442202228,0.0572341350702556,-0.013040932118356897,0.030230378725027623,-0.01759277440414568,-0.04695887927744125,0.03366826804636177,-0.007624815980836064,0.06562719447485349,0.03633791394393409,-0.004129308402719783,-0.024391728704437787,-0.03606902874561745,-0.02429569827646756,0.028328976251217115,0.042311006563682245,-0.006779748214698062,-0.09835436432710702,0.012023009581872485,-0.008700356774102613,0.09259253864889336,-0.026965344174039885,0.029442929215671754,0.04457732466377961,0.03247749073953095,-0.013540290343802079,0.043463371699324974,0.03879629289997192,0.00478231531291733,-0.10217637536032208,0.07083204367083981,0.07121616538272073,-0.08279743499593016,0.01647882143969104,0.003169004123017508,-0.04937884606229099,-0.05120342419372531,0.0026696458975723246,-0.0027272641543544616,0.09994846943141279,-0.06397547111376557,0.019955122932213278,-0.02091542721191555,0.15397518820746278,-0.03215098728443217,0.08097285686449583,0.09107525788696377,0.020147183788153732,-0.003975659717967419,0.031747659486957215,-0.050800096396250355,0.06074884873396593,0.08400741838835503,0.07993572824241739,-0.0916322343691911,0.05971172011188747,-0.026850107660475613,-0.009046066314795433,0.013885999884494899,0.15303409001335455,0.12270768086035672,-0.004436605772224511,-0.07430834516336206,0.08984606840894487,0.06051837570683738,-0.023757927879834287,0.02297047837047842,-0.03798963730502201,-0.04121625968482165,-0.0010947468788605936,-0.003399477150146054,0.01123556007251662,0.07657466326345942,-0.06747097869188186,-0.00823941071984552,-0.021952555833994008,-0.05241340758615017,0.019532589049144275,0.0452495376595712,0.05884744626015542,-0.04027516149071342,-0.003111385866235371,0.03291923070819399,-0.06962206027841494,0.03528157923626159,0.054967816970158234,-0.06758621520544612,-0.01613311189899822,-0.016094699727810132,0.027080580687604158,-0.1317729532607462,0.060844879161936156,0.05884744626015542,-0.0663570257274272,0.07457723036167868,-0.044711767262937935,-0.031824483829333394,-0.01861069694063009,0.030230378725027623,-0.071331401896285,-0.058981888859313734,-0.027560732827455293,0.08304711410865276,-0.049801379945359985,-0.042637510018781015,-0.08410344881632525,-0.09218921085141842,0.029289280530919393,0.06637623181302126,-0.005224055281580376,0.058578561061838785,-0.09040304489117218,0.04670920016471866,-0.03480142709641045,0.008431471575785976,0.13715065722707892,-0.0339371532446784,-0.020492893328846552,0.010121607108061979,0.01657485186766127,0.024967911272259155,0.062074068639955064,-0.006568481273163562,0.020012741188995414,0.04069769537378242,-0.0008642738517320476,-0.002900118924700871,-0.10325191615358861,-0.07747734928637956,0.08573596609181913,-0.050569623369121804,-0.04970534951738976,0.008892417630043068,0.026158688579089973,0.0024199667848497333,0.0948012384922086,0.07000618199029586,-0.04380908124001779,-0.03822011033215055,-0.06633781964183316,-0.013463466001425896,0.026754077232505388,-0.041235465770415695,-0.0006338008246035016,-0.007029427327420654,-0.03362985587517368,0.037759164277893456,0.07759258579994384
stop_sign 0.004676491112874204,0.11609976006093103,0.05171224149525761,-0.026614470657824626,0.12877503713134683,-0.020818510629899454,-0.013975305487894342,-0.007529331251229897,-0.005073722018214871,-0.006301526634722384,0.038567509718530124,0.14217255221147293,0.047884380043793015,0.0024014413822867537,-0.0014444760194206039,-0.03631051593818543,-0.02119768558499736,-0.11804980268714886,0.05068305233142044,-0.1332890246920362,0.02888952038841208,-0.032139591432108434,-0.0057598481274396575,0.11131493324660029,0.012982228224542678,0.07487802565671556,0.006175134983023082,-0.028113114527973503,-0.08121566419192344,0.05983741910449851,-0.019464314361692638,-0.02215465094786351,-0.011393304603180013,0.031345129621427104,-0.04080644754863206,-0.029485366746423075,0.07733363488973058,0.06108327967124878,0.07500441730841485,0.017243432481833458,-0.01023772378764353,-0.012711388970901315,-0.051495570092344525,-0.03974114648430936,0.03269932588963392,0.09818825742011554,0.0042250923568052665,-0.03625634808745716,0.005037610117729356,-0.08544075654872872,0.0064820861371499595,-0.0037014697997652976,0.1228707414019651,0.05416785072827264,0.0022931056808302083,-0.0814503915450793,-0.09194089863612143,-0.034017410257355225,0.05611789335449046,-0.021468524838638727,0.058555446637262726,-0.04575377791514763,-0.03148957722336916,-0.06715007895281533,-0.019753209565576756,0.0727293675778274,-0.06565143508266644,-0.047776044342336475,0.0024736651832577843,-0.023942190021896508,0.035479942227018585,0.016882313476978307,0.018435125197855454,0.04066199994669,0.109473226321839,-0.014191976890807433,-0.018001782392029275,-0.05062888448069216,0.04698158253165514,-0.03600356478405855,0.07321687823438186,0.04755937293942338,0.0741377316967625,0.07040014999651169,-0.06789037291276838,0.019139307257323,-0.07433634714943282,-0.02320189606194345,-0.013668354333767464,0.007980730007298837,0.043334280582618116,0.0422328676178099,0.03394518645638419,0.03192292002919535,0.0817031748484779,-0.03280766159109046,0.07420995549773352,0.009714101230603562,0.0014083641189350886,0.0008666856116523622,0.03690636229619643,0.08531436489702941,-0.07310854253292531,0.02482693158379163,-0.058627670438233755,0.05546787914575118,0.054348410230700216,-0.060397153562024,0.029196471542538956,0.05192891289817071,-0.011826647409006194,0.026614470657824626,-0.09690628495287976,-0.06873900257417798,-0.15551589944087074,0.06772786936058356,-0.01966292981436297,-0.039199467977026635,-0.013632242433281948,-0.08426711978294947,-0.07892255851109324,0.00854046446482432,0.009407150076476682,0.02054767137625809,0.058826285890904086,-0.06585005053533678,-0.0057598481274396575,-0.0369605301469247,0.054510913782885036,0.03726748130105158,-0.09840492882302865,0.004441763759718356,0.06021659405959642,0.05436646618094297,-0.05507064824041052,-0.0002347273531558481,-0.0013541962682068161,0.0008847415618951198,0.027336708667534928,-0.08511574944435908,0.02753532412020526,-0.07610583027322307,0.03665357899279782,-0.02614501595151293,0.013144731776727496,-0.12924449183765852,0.01738788008377552,-0.0101654999866725,-0.07227796882175846,-0.025639449344715716,0.041943972413925786,0.17173014275886703,-0.05259698305715274,-0.025585281493987443,-0.057165138468570395,0.047053806332626166,-0.018272621645670638,-0.022569937803446936,0.009677989330118045,0.07567248746739688,0.07888644661060773,0.01921153105829403,-0.029846485751278226,0.05281365446006583,-0.08953945725383468,-0.08641577786183763,-0.01751427173547482,-0.08155872724653584,0.0011916927160219983,-0.0044598197099611145,-0.01818234189445685,0.05292199016152238,0.09551597678418744,-0.05767070507536761,0.01657536232285143,0.09697850875385079,-0.03334934009837319,0.02096295823184151,0.10169111176721052,-0.0235630150667986,-0.018362901396884426,-0.09398122101355302,-0.06321388179989418,-0.00861268826579535,-0.03398129835686971,0.06713202300257257,-0.07709890753657472,0.05886239779138961,-0.006789037291276838,0.1049231268606641,0.026776974210009442,0.017911502640815487,-0.08621716240916728,0.05734569797099797,-0.04873300970520262,0.1461809731653651,0.026289463553454993,-0.03898279657411355,-0.05559427079745049,-0.06498336492368441,0.08704773612033413,-0.05118861893821764,-0.05131501058991695,-0.040120321439407275,0.03490215181925034,0.004838994665059023,-0.06187774148193012,-0.03688830634595367,-0.01162803195633586,0.07700862778536094,0.10528424586551925,0.09217562598927727,0.048823289456416404,-0.06906400967854762,0.006409862336178929,0.030965954666329197,-0.04542877081077799,0.03186875217846707,-0.010634954692984196,0.06662645639577536,-0.11183855580364024,-0.05326505321613476,0.09614793504268394,-0.008883527519436713,-0.02773393957287559,-0.01915736320756576,0.07350577343826598,0.06148051057658945,0.03403546620759798,0.0184170692476127,0.04331622463237536,0.016160075467268005,-0.042449539020722994,0.04429124594548426,0.08063787378415521,-0.13030979290198122,-0.10163694391648223,0.08849221213975474,0.014679487547361886,0.06906400967854762,-0.055973445752548395,0.10869682046140043,-0.012801668722115103,-0.0016792033725764519,0.008251569260940199,0.04551905056199178,0.09356593415796961,0.009009919171136017,0.07303631873195429,0.029340919144481017,0.06348472105353554,-0.002961175839812238,0.0696237441360731,-0.05720125036905591,0.04629545642243035,0.003033399640783268,0.0048028827645735074,0.02385191027068272,0.0646944697198003,0.0325368223374491,-0.04369539958747327,0.012440549717259951,-0.0229671687087876,0.0472524217852965,-0.03728553725129433,-0.07204324146860262,-0.017785110989116185,-0.01751427173547482,-0.16391191630375304,0.009894660733031137,-0.011682199807064132,0.0184170692476127,0.031164570118999528,0.003936197152921145,-0.02446581257893648,-0.03873001327071494,0.04040921664329139,0.03430630546123934,-0.04770382054136544,-0.08793247768222925,-0.029485366746423075,0.016864257526735548,0.05801376812998,-0.007276547947831292,0.08457407093707635,0.07428217929870455,0.02300328060927312,0.08979224055723328,0.0654167077295106,0.011664143856821376,-0.011880815259734466,-0.11768868368229371,0.06236525213848457,-0.04086061539936033,-0.04681907897947032,0.05626234095643252,0.08934084180116435,0.06749314200742772,-0.07576276721861067,-0.017767055038873426
parking_meter 0.04991035260077742,0.014923467636806083,0.07810802052826188,-0.0410715606098794,0.020063417327165257,0.06481780793325216,-0.07490555966199447,0.02443477640962026,0.0029622763012973445,-0.13085255099568596,-0.03253700240127678,0.1738135635166631,0.03325755609618694,0.07088647127482889,0.056827668071915007,0.017069116417205238,-0.00661308168884218,-0.031320067272095166,-0.023233853584769985,-0.13279003981977772,0.13751366959752215,0.04417794765015877,-0.09112602394963885,-0.015964267418342986,0.027236929667604232,0.041215671348861435,-0.013626470985967785,-0.031608288750059235,-0.0033946085182434433,0.009030939642874066,0.06433743880331205,0.0031223993446107146,-0.03356178987848235,0.012521621987105533,-0.021664647760298958,-0.01162493294455066,-0.13001991117045641,0.06272019606584701,0.018686359154670276,0.020607835674430718,-0.014058803202913884,0.009191062686187437,-0.03557934022423081,-0.013354261812335056,-0.0032825223879240847,-0.013882667855269176,0.005428171168323242,-0.033081420748542235,0.06420934036866137,0.020815995630738097,0.006597069384510843,0.023746247323372764,0.16571133752500658,0.05761227098415052,-0.03629989391914098,0.07810802052826188,-0.09927628685428938,-0.0515436076425738,-0.021584586238642272,0.01910267906728504,-0.04603537495259386,0.010504071641357072,-0.03823738274323275,-0.04584322730061782,0.05325692420602685,-0.04930188503618662,-0.0015211689114770148,0.0326330762272648,0.04962213112281336,0.08680270178017786,0.06276823297884103,-0.11346318849185397,0.047284334690438155,-0.04960611881848202,0.05982196898187502,0.07693912231207427,-0.039294194829100994,-0.01157689603155665,0.0322007440103187,-0.07585028561754335,0.07091849588349157,-0.05050280786103689,0.056603495811276286,0.009159038077524762,0.06326461441311247,-0.018686359154670276,-0.08678668947584653,-0.0024018456497005495,0.009575357990139524,-0.05167170607722449,0.005396146559660568,0.010584133163013756,-0.007397684601077693,-0.009479284164151502,-0.0032504977792614104,0.02464293636592764,0.08994111342911991,-0.058621046157024743,-0.04549095660532841,0.06286430680482906,0.027973495666845732,-0.005492220385648589,-0.0458752519092805,0.08579392660730364,-0.08931663356019777,0.02517134240886176,-0.018478199198362896,0.004515469821437033,0.09183056534021768,-0.03823738274323275,-0.06151927324099674,-0.0014090827811576558,-0.023169804367444636,-0.00112086130319359,-0.06517007862854157,0.006148724863233406,-0.019150715980279048,0.05833282467906068,0.08723503399712396,-0.06874082249442973,0.016300525809301063,-0.07605844557385073,0.09532124768444915,0.04137579439217481,0.042112360391416304,-0.005748417254949983,-0.06342473745642585,0.0294306153609974,0.058204726244409984,-0.03658811539710504,-0.05950172289524828,0.022481275281197144,0.13242175682015697,-0.08797159999636546,0.010440022424031721,-0.025971957625428612,-0.021616610847304946,-0.0076218568617164115,-0.06158332245832209,-0.1174182276616942,-0.033097433052873576,-0.08917252282121572,0.020896057152394783,-0.022913607498143244,-0.03234485474930074,-0.071318803491775,-0.014202913941895916,0.03814130891724473,0.05112728772995903,-0.020848020239400772,0.09053356868937938,-0.04672390403884136,-0.06151927324099674,-0.03197657174967998,0.01812592850307348,0.030775648924829712,-0.024594899452933625,-0.006981364688462931,0.05365723181431028,0.14585608015414872,0.05250434590245402,0.012569658900099543,0.023874345758023465,-0.025027231669879725,0.021888820020937675,-0.0749215719663258,0.015019541462794102,-0.03735670600500922,-0.09514511233680444,0.028117606405827767,-0.015259726027764159,0.013258187986347033,0.08279962569734362,0.06560241084548768,-0.030903747359480406,0.014795369202155385,0.016476661156945772,-0.057644295592813186,0.030567488968522325,0.009575357990139524,0.0024498825626945607,0.005139949690359176,-0.024178579540318865,-0.11375140996981803,-0.023217841280438644,0.05131943538193508,0.06358486049973922,0.018510223807025567,-0.003923014561177564,0.1884327973711738,-0.009030939642874066,0.004179211430478957,-0.08259146574103624,0.0912381100799582,-0.07572218718289266,0.005011851255708481,0.04731635929910082,-0.061551297849659424,-0.020479737239780024,-0.029414603056666065,0.014699295376167364,-0.01708512872153658,0.06797223188652556,-0.0028341778666466488,-0.08161471517682468,-0.042416594173711714,0.09271124207844121,0.02366618580171608,-0.037741001308961304,-0.07287199701191467,0.12496002300175392,0.12363100174225296,-0.047284334690438155,-0.050807041643332294,-0.04161597895714486,0.11038882606023727,-0.032296817836306724,0.08142256752484862,-0.10809906654085608,0.048597343645607784,-0.010183825554730332,-0.010872354640977822,0.09962855754957879,0.11544871422893975,0.03913407178578762,-0.06585860771478907,-0.07360856301115618,-0.07471341201001844,0.12086087309293166,-0.019823232762195202,-4.8036912994010985e-05,0.03007110753425088,-0.0036508053875448357,0.020783971022075423,-0.011496834509899965,-0.09921223763696405,0.01673285802624716,0.07479347353167512,0.014443098506865973,0.0695894746239906,0.04878949129758384,0.035915598615188886,-0.012809843465069599,0.03197657174967998,0.0855217174336709,0.030903747359480406,0.11010060458227319,-0.04060720378427062,0.06198363006660552,0.027349015797923593,0.10145396024335122,-0.0032504977792614104,0.045811202691955155,-0.016348562722295075,0.04872544208025849,-0.021296364760678206,0.02019151576181595,-0.07833219278890059,-0.03404215900842246,-0.005748417254949983,0.00794210294834315,-0.10638574997740301,-0.03260105161860213,-0.005027863560039817,-0.08635435725890042,0.02690067127664616,-0.017885743938103424,0.03412222053007914,-0.09934033607161473,-0.10103764033073645,-0.04547494430099707,0.03473068809466995,0.05954975980824229,0.0365721030927737,-0.02806956949283376,0.023233853584769985,-0.04377764004187535,0.058284787766066666,0.0017293288677843958,-0.10462439650095594,0.015563959810059562,0.01740537480816332,0.06360087280407055,0.038813825699160885,-0.02763723727588766,0.1030071537634909,-0.05083906625199497,0.01758151015580802,0.05490619155215456,0.004227248343472967,-0.09938837298460874,-0.09139823312327158,-0.049526057296825333,-0.032665100835927476,-0.05421766246590708,0.06701149362664534,-0.02214501689023907,0.04001474852401116,0.04669187943017869,0.03023123057756425
