unlabeled 0.061167689347122765,0.0008121590246087829,-0.002656343311885729,0.023260951831341296,-0.021107160735712602,0.01924054174695914,-0.048244938656449146,-0.00997923586004143,0.008974132897849308,0.06346506737838224,0.015435508537250507,-0.0608805178283763,-0.0042716872217360286,-0.09476684231913174,-0.0689213409377845,0.012133027837863292,0.010122821913479048,0.0366144627407785,-0.15966777317253408,-0.027424950615740566,0.07811085306282242,0.013425302906930654,-0.039342598050157676,0.020102057773520476,-0.05571141578772053,0.007107513320967074,0.009476684231913174,0.013856061067243514,0.049680799190825346,-0.018522610009449096,-0.04365018259393018,0.0427886650970469,-0.0008794650404568379,0.05082948820645509,-0.040778461525177764,-0.07007002995341424,-0.022830194553221602,0.046809078122072946,-0.0551370727502276,-0.03446067046889225,-0.04623473214393613,0.11429455852548123,-0.04336301107518372,0.009333097884411166,-0.1188893145880002,-0.04594756062518966,0.021537919778218624,-0.03675804850015173,-0.041065633043924236,-0.020102057773520476,-0.09304381026600907,-0.032881222998885254,-0.013209923679742028,-0.09534118829726855,-0.04365018259393018,-0.0016153439098503,0.1573703951412746,-0.0565729332846038,0.09534118829726855,0.011845855436923661,-0.014789371443813407,0.1102741455004552,-0.007358788987999007,0.04594756062518966,-0.07351609700030345,-0.11774062263172656,-0.033455567212635734,0.12003800066298605,-0.019527713265705605,-0.014286819521620765,0.04537321758769673,0.09534118829726855,-0.003481963486732533,-0.07064437593155104,-0.043937354112676644,0.03962976956890415,0.04594756062518966,-0.06834699790029156,0.017302128114132738,-0.017804679742260996,-0.12405841368801208,-0.09132077821288641,0.06518810237214881,0.029865914406373283,-0.020389230762588882,0.009045926071600312,0.041065633043924236,0.03130177494074949,0.016584197552880247,0.0565729332846038,-0.14588350498497718,-0.01758930051507237,0.01802005896944962,-0.013138130505991023,0.08213126608784847,0.009548477405664177,0.0029973603725903203,0.05772162230023354,-0.04049128706578742,0.07265457950342018,0.037332391537644664,0.026850605813861308,0.04910645615333242,-0.020676402281335347,0.007789547442376258,-0.018379024250075864,-0.02168150553759186,-0.006138306798618261,0.0003051205326419671,0.09591553427540538,0.011415097276610801,-0.030871017662629792,0.019671299025078838,-0.14473481596934745,-0.03790673751578147,0.06576244540964173,-0.03575294524389522,-0.019384127506332376,0.13209923679742028,-0.055998590247110874,-0.07523913199407002,-0.006210099972369266,-0.06604961986903209,-0.05915748577525363,0.1051050464004433,-0.09591553427540538,0.029578742887626814,0.010625373247542915,0.04049128706578742,0.04250149357830044,-0.04451170009081346,0.03302480993451604,-0.03000950016574651,0.06949568397527743,0.04250149357830044,0.0855773301940938,-0.013138130505991023,0.0011935597124660708,0.052839694718968114,0.11486890156297416,0.041352804562670695,-0.06461375639401198,-0.02498398682510785,0.032594050892010014,-0.022830194553221602,-0.008076719549251498,0.011845855436923661,0.04623473214393613,-0.10797676746919571,0.04049128706578742,0.034747841987638715,-0.04537321758769673,-0.04910645615333242,-0.06432658487526553,-0.008579271177379754,-0.03058384496762577,-0.14416047293185452,-0.026276261600110824,-0.030296672860750534,0.08327995216283432,-0.08730036518786036,-0.016584197552880247,0.0348914289232695,0.01069716642129392,0.06691113442527147,-0.09017208625661277,0.04910645615333242,0.10280766836918381,-0.0427886650970469,-0.025127572584481082,-0.08155692010971165,-3.260134251257489e-06,-0.02254302185821758,0.11257152353171468,-0.048244938656449146,-0.07265457950342018,-0.031588947929817895,-0.13152489081928345,0.07638781806905587,-0.09361815624414589,-0.03905542653141121,0.02081998804070858,-0.018809782704453118,0.03647087698140526,-0.013281716853493034,0.07581347503156294,-0.08500298715660087,0.059731828812746565,-0.03144536187638027,0.1573703951412746,0.031588947929817895,-0.0427886650970469,0.017661093688823373,-0.05484990123148113,0.05140383418459191,0.029865914406373283,-0.03173253398325551,-0.11199718049422175,-0.025989088905106802,0.09591553427540538,0.0746647860159332,0.0009153615685194625,-0.005887031131586329,-0.014573991922560396,0.002656343311885729,0.0689213409377845,0.06317789585963579,0.038193909034527934,-0.09132077821288641,-0.04939362767207889,-0.09361815624414589,-0.06834699790029156,-0.10051029033792433,0.0855773301940938,0.024266055087597802,-0.06289072434088933,0.06863416941903804,0.08327995216283432,-0.0318761209188863,-0.047096249640819404,-0.09132077821288641,0.040778461525177764,-0.03302480993451604,-0.008220305896753509,0.043937354112676644,-0.023404538766972082,-0.01069716642129392,0.007825443882219566,0.002530705478369762,-0.03044025891418815,0.06920851245653095,0.09993594435978752,0.034604256228265476,-0.028286466936366286,0.006174203532525958,-0.1131458665692076,0.16541121825068278,-0.0025486536982914166,0.0884490542034901,0.014071440294432141,-0.010122821913479048,-0.034747841987638715,0.029578742887626814,0.06289072434088933,-0.04422452563142311,0.06461375639401198,-0.003481963486732533,0.04738342115956587,-0.033168395693889276,-0.03273763694544764,0.07523913199407002,-0.057147279262740616,0.06949568397527743,-0.03604011793889924,0.007645961388938638,-0.0499679736502157,-0.03704522001889819,-0.10740242443170278,0.06949568397527743,0.039916944028294495,0.005061410956739524,0.04422452563142311,-0.018953368757890734,0.012133027837863292,0.06461375639401198,-0.020963573800081813,0.05169100570333837,-0.011056131701920166,-0.07409044003779638,-0.039342598050157676,0.060306171850239496,0.01651240467319363,0.03647087698140526,-0.007251099374404695,-0.03876825501266475,0.04336301107518372,-0.04939362767207889,0.01069716642129392,-0.030296672860750534,-0.004810135289707591,-0.06317789585963579,0.025845502851669186,0.13209923679742028,0.03302480993451604,-0.025989088905106802,-0.07581347503156294,-0.015435508537250507,0.013568888960368272,-0.029004396909490006,-0.004630652502362274,-0.029578742887626814,-0.01069716642129392,0.0012384304093024,0.03101460342200302,0.05226535168147518,-0.06949568397527743,0.032019706678259534,-0.011199718049422174,0.030871017662629792,0.0275685363751138
person 0.12082629597654727,-0.10840089761618348,0.00755164360822049,0.07369547264286154,-0.0638408443902672,0.07026777624086798,0.0724100853952511,0.05334352470759335,0.07326701168947519,-0.13453708158452152,0.002236036304171808,-0.05334352470759335,0.05184390698328974,-0.10968628486379392,0.016924251533274627,0.10111704385881001,-0.08569241004983899,0.004311399312078596,-0.04884467372840823,-0.04348889820997958,-0.016281557909469408,-0.08783471920422212,0.011407802279835816,-0.11482782946678426,-0.022922719798018215,-0.07026777624086798,-0.08612087100322534,0.10625858846180035,-0.010711551036857305,-0.037490429945235985,-0.028492726231885177,0.002584161750163007,-0.12254014856499547,0.043917360040856196,-0.04798774962790984,0.0771231690448551,0.0040436107774669905,-0.007444527931128764,-0.06426930973110494,0.07626624275063101,-0.03449119449662877,-0.019495023396024658,0.04905890464384654,0.06426930973110494,0.07969393915262457,-0.04498851417930262,-0.00514154460299034,-0.005864574216810357,-0.037490429945235985,-0.051415446029903396,-0.012104052645324046,-0.045631208241852975,0.03706196723686908,-0.0038829374812019714,0.06941084994664388,0.009854627375104055,0.0024636567999015,0.017888290433374462,0.07283854634863746,-0.02131598683536802,0.053129294230900175,0.09811780841020279,-0.07669470809146875,0.01456770970847263,0.04048966363886264,-0.005650343301372045,-0.01253251491494581,0.05655699063289374,0.05484314243189696,-0.007498085989047197,0.03277734629563199,-0.04048966363886264,0.01301453480374087,-0.008462125766637314,-0.01970925431146297,-0.013925016084667412,0.01960213863437124,-0.03834735360698924,0.04991582830559979,0.0848354881430663,0.10882936295702123,-0.0895485674052189,0.04327466597830584,0.0026511089496276796,-0.0009707343264259789,0.01745982860249784,-0.03620504269762555,0.05120121555321023,0.062126996189270416,-0.027850032169334824,0.0646977706844913,0.048630442812969916,-0.05784237788050418,-0.06555469259126398,0.07326701168947519,-0.06983931528748163,0.050130058782292965,0.06941084994664388,0.03877581543786586,0.00297245545440869,-0.05077275284484332,-0.07283854634863746,0.024315221406484958,0.03470542497332194,-0.0017272376496646172,-0.01970925431146297,0.013550112311709219,-0.025600607776605114,0.05655699063289374,-0.1105432067705666,-0.03470542497332194,-0.08697779729744944,-0.0043917361795836754,-0.04027543272342433,0.08612087100322534,0.04263197454822633,-0.007123181777343866,-0.07412393359624787,-0.002637719544834356,0.054200449246836875,-0.003775821804110245,-0.02688599370798013,-0.06855392803987119,0.06855392803987119,-0.08226471364784543,-0.014032132200504279,0.09554703830243333,0.03941850862292594,0.03363427083487552,0.07669470809146875,-0.05355775518428652,-0.10540166655502765,-0.041560817777309064,0.016388673586561136,-0.011193570925652362,-0.12596784496698904,-0.02367252822142488,-0.02538637642242166,0.0027314455977601893,-0.02688599370798013,0.07926547819923822,-0.03727619946854281,-0.08654933195661169,0.07069623719425432,-0.048416210581296186,0.07069623719425432,-0.03449119449662877,-0.009319049428390564,-0.05869929978727686,0.0021824785533749724,0.06426930973110494,0.0032402442961418938,-0.0848354881430663,-0.0182096370259045,0.041989280924421106,-0.021423102512459748,-0.00330719153948108,-0.03556235126754603,-0.02592195349164487,0.05355775518428652,-0.050344291013966695,0.06084161332911138,0.080979326400235,0.0848354881430663,-0.1516755635944893,-0.02367252822142488,0.02131598683536802,0.03877581543786586,0.052272370130401785,0.02688599370798013,0.0040436107774669905,-0.024100990052301503,0.026778878030888402,-0.14224940068273273,-0.08312163555461813,-0.04306043550161267,0.027100224623418438,0.023565412983078293,-0.04348889820997958,-0.050130058782292965,0.05741391692711782,0.030849267617942037,-0.03599081222093238,-0.06855392803987119,-0.050344291013966695,0.06641161888548808,0.05869929978727686,0.07326701168947519,-0.04648813190360623,-0.012960977184567575,-0.013335881396270908,0.11911245216300191,-0.061270074282497734,0.07798009533907918,-0.007337412692782179,-0.0332058090039989,-0.037918890898622326,0.027314455977601893,-0.13368015967774882,-0.080979326400235,-0.023779644337261745,0.040061201807986016,-0.07626624275063101,-0.011354244221917381,-0.062126996189270416,-0.07069623719425432,-0.04713082552741145,0.00043850413675007295,0.04627390142691306,-0.11654167766778104,-0.020673293650307945,-0.05270083327751383,-0.03470542497332194,-0.018423868380087954,-0.08654933195661169,0.07755162999824143,-0.04498851417930262,0.059984687034887296,-0.09854627375104054,0.04498851417930262,0.0332058090039989,-0.048630442812969916,0.05912776074066321,-0.0646977706844913,0.04648813190360623,0.025493492538258524,0.1876663802028731,0.032991576772325164,-0.009908184994277348,-0.06426930973110494,0.039846969576312286,-0.030635037141248867,-0.037490429945235985,0.06812546708648486,-0.03020657443288196,-0.039846969576312286,-0.003963273909961911,-0.021958680020428098,0.02827849531644687,-0.018102521787557918,0.14996171978094394,-0.05441468147851061,-0.05184390698328974,-0.04927313687552027,0.08355010089545588,0.03491965720499568,-0.03620504269762555,-0.020459063173614775,0.003588369698258579,-0.06855392803987119,0.050130058782292965,-0.0018879109020551225,-0.024957914591545036,0.0028787294014828574,0.07498085989047197,-0.0004033568515468057,-0.027207340739255306,0.04327466597830584,0.01114001330647907,-0.08140779174107274,0.02602906960748174,-0.0724100853952511,-0.05270083327751383,-0.09083395465282934,0.047773519151216665,0.06041314798827364,0.06041314798827364,0.08526394909645266,-0.1362509341729697,-0.04027543272342433,-0.010068858290542366,0.028492726231885177,0.03620504269762555,0.08012240449346232,-0.050558521929405006,0.011032897629387344,0.011193570925652362,-0.06684007983887441,0.0038561584522427547,0.042846205024919495,0.010925782391040757,-0.06512623163787763,0.02024483181943132,0.08912010645183256,0.051415446029903396,0.018423868380087954,-0.018745214972617993,-0.08355010089545588,0.050344291013966695,0.06598315354465033,0.02367252822142488,0.02592195349164487,-0.08997702835860524,-0.04413159227252993,-0.022172911374611554,0.06426930973110494,0.004820198010460301,-0.05741391692711782,0.032563115818938816,-0.04048966363886264
bicycle 0.01782471532950725,0.003689301634973122,0.009824319893365754,0.031504149098270755,-0.015420451426612341,-0.006259376759547993,0.05272799633991581,-0.03929727957346302,0.023545206382653863,0.02487169683525668,0.07958942715616893,0.0068811692653248,-0.0007824220864539603,-0.022218715930051047,0.02089222479828512,-0.027193054278357717,-0.05936044860292988,0.023047771698869308,0.03714173267287883,0.10081327439781397,0.036312676224897464,0.03531780821565457,-0.043774184935892906,0.07229372796894566,-0.032333204867089016,-0.011026451844813207,-0.06731939131854678,0.049411768510500984,0.10147651792620759,0.02818792126885594,0.015254640204932376,-0.07362022181736404,0.047422034529504546,-0.010611923620822524,-0.11009870756603368,-0.06930912529954321,0.08754836987178581,-0.053391239868309424,-0.047422034529504546,0.0006528820122121017,-0.08821161340017944,0.09418082213479989,0.07129886267635523,0.09617055611579634,-0.042281883601191686,0.09617055611579634,-0.0009585966240976961,-0.012187131075736062,0.06499803217753795,0.02288195945844468,-0.04775365629370135,0.0868851263433922,0.039628902695986054,0.049411768510500984,-0.08191078629717774,-0.009824319893365754,-0.053391239868309424,-0.057702336386130246,-0.017078565001738193,-0.03117252563616616,0.057702336386130246,-0.08754836987178581,-0.08754836987178581,-0.04410580670008972,0.02503750771735509,0.005388867251460466,-0.1551993829545294,-0.036644298668257386,-0.025534940363650307,0.05571259900931825,0.06367154172493514,0.09617055611579634,-0.0686458817711496,-0.007171338988160123,-0.06433478525332877,0.020975130239334325,-0.08025267068456256,-0.0935175752105907,-0.05305961810411262,-0.11009870756603368,0.12203712163945901,-0.05305961810411262,-0.00017358371035070035,-0.015337545985563137,-0.08224240806137456,-0.008000395436141493,-0.057039089461921065,-0.047422034529504546,0.006632452263014077,0.03249901608876898,-0.06964074706374003,0.04195026047866865,0.010073036895676478,-0.0606869390555327,0.009036716165908986,-0.06930912529954321,-0.010860640623133248,-0.05803395815032707,0.03929727957346302,-0.047422034529504546,0.003088235489458617,-0.07759968977935693,0.0085807352213937,0.11208844154703011,0.09617055611579634,0.062013429508135515,0.04908014674630417,-0.13198580173188793,-0.015005923202621653,-0.04841689982209498,-0.14790368716312172,-0.011440980068803895,0.033991317763051754,-0.05272799633991581,0.07163048444055203,-0.06599290086594396,-0.0354836204560792,-0.015752074549135377,-0.0709672409121584,0.03332807219716879,-0.05007501543471018,0.00679826348469404,-0.0749467088741513,-0.06035531729133588,-0.01633241365522447,0.053722861632506246,0.019814451347993027,0.009865772613890357,-0.02321358292054927,0.09484406905900909,-0.057702336386130246,-0.08290565158976819,-0.11407817892384213,-0.07560995579836048,-0.06665614439433758,0.019980262230091434,0.05737071122611787,-0.06499803217753795,-0.0434425631716961,0.12270036516785264,0.005720490034401947,-0.005347414530935863,-0.0517331276515098,0.022218715930051047,0.02652980905205631,0.0606869390555327,-0.00507797116836284,-0.05305961810411262,0.021721281246266495,-0.04012633534228128,0.07428346534575767,-0.024540073373152085,-0.012767470521406709,0.11407817892384213,0.027358865500037678,-0.003108961849720918,-0.027193054278357717,-0.057702336386130246,-0.06798263484694039,-0.02603237504743486,0.013347809967077356,0.057039089461921065,0.0709672409121584,-0.024705884594832046,-0.04195026047866865,0.042779316247486904,0.0606869390555327,-0.10943546064182448,-0.11407817892384213,-0.10147651792620759,0.04045795880438587,-0.05803395815032707,-0.021721281246266495,0.0258665638257549,-0.04012633534228128,0.010694829061871726,0.07163048444055203,-0.10479274575562242,-0.0033162261315070386,0.06632452263014077,-0.024540073373152085,-0.04874852498210736,-0.045432297152692536,0.04178444925698869,0.0596920703671267,-0.008746546443073662,0.0016581130657535193,0.13861825059908642,-0.03332807219716879,0.045432297152692536,0.043110938011683725,0.042779316247486904,-0.10877221711343087,0.07594157756255729,0.03017765864566794,-0.03863403400758005,-0.06300829819654151,-0.01890248877979934,-0.008456376720238338,0.03283063955087357,-0.1213738781110654,-0.0868851263433922,-0.04195026047866865,-0.038302412243383245,-0.02006316767114064,-0.08058429584457492,-0.07859455846776292,-0.0379707891208602,-0.012684565080357507,0.028022110386757528,-0.015917885431233784,-0.018487960895390215,-0.06333991996073833,-0.010114489616201079,-0.007461508710995448,-0.011358074627754691,-0.03846822312548165,0.09086459430538507,-0.030011846405243306,-0.008207659717927614,0.047090412765307725,-0.1551993829545294,0.09617055611579634,-0.1114251980186365,0.015337545985563137,-0.03863403400758005,0.021140941800595843,0.0258665638257549,0.07859455846776292,0.009119621946539746,-0.006590999542489476,0.09882353702100197,0.03714173267287883,-0.024374262151472124,-0.06566127910174714,-0.00953415017053043,-0.0026737072654679315,-0.004953612667207479,-0.007751678433830771,-0.030509280409864753,0.03249901608876898,-0.0935175752105907,-0.045432297152692536,-0.055380977245121435,-0.0025182592239191195,-0.024374262151472124,-0.01906830034106086,-0.09749704996421472,0.009699961392210393,-0.16780104055634837,-0.019234111562740824,0.01840505545434101,0.03200158174456597,0.10081327439781397,0.04576391891688936,0.09152784122959426,0.07925780539197211,-0.025534940363650307,-0.05007501543471018,-0.03299645043297198,-0.040623770026065834,-0.05737071122611787,-0.0005103879203586106,-0.034654562649771604,0.04012633534228128,0.11009870756603368,-0.05471773032091224,-0.002083004469875355,-0.11739440335744138,0.018156338112448732,0.011026451844813207,-0.00013342628631697948,-0.00042748227556047344,0.03299645043297198,-0.03299645043297198,-0.049411768510500984,-0.09152784122959426,-0.03133833685784612,-0.034820373531870015,0.04609554407690173,-0.037307543554977236,0.0025182592239191195,0.015171734424301617,-0.016995658881525877,-0.011938414073425338,-0.023876828146850677,-0.08423214543818655,0.05504935548092462,0.047422034529504546,0.047422034529504546,-0.06964074706374003,-0.027193054278357717,0.010155942676307237,-0.014176866754640286,0.0424476944832901,-0.06135018258392632,0.05670746769772425,-0.02652980905205631,0.01608369631333219,-0.0344887517676732
car 0.04943276741643572,0.0031817733195668545,0.012634867450034216,-0.022226299189586785,0.01512495045764583,-0.053859578462259736,0.01862951228725457,-0.06381991275923539,0.07894486623892014,0.045190401227490545,0.06824672758260805,-0.09443871623195013,-0.039287981462993664,-0.04057913588091607,-0.007101348731940954,0.019643990731496832,-0.000818499598072582,0.024347481528549642,0.05459738282159617,-0.01715390734613035,0.060868702876986945,-0.006086870287698695,-0.011666501542153691,0.03190995675737256,0.06123760694542949,0.0168772313724502,-0.058655297354074945,0.09591432117307436,0.1283776298778072,0.0028589845828720494,-0.0966521255324108,-0.006547996784580656,-0.012450416549077538,0.06160650723632339,-0.047588258406868957,-0.03744347547546582,0.062344307818111164,0.026007536992875672,-0.07156683775575039,0.010698135634273168,-0.020197342678857134,-0.011574276091675353,0.041870290298838486,0.09111860605880781,-0.08853629646745326,0.046666006168614764,-0.001112467791776126,0.05607298776272039,0.12542641999555876,0.019828441254698643,-0.07562475228822915,0.14239587492971298,0.04629710512221115,0.0431614435834963,-0.06677112264148383,0.03781237652186944,0.0011470522695984013,0.10107893657823479,0.0759936563566717,0.014018246940680098,0.041870290298838486,-0.03707457367355246,-0.11804839528993767,0.013280444470117987,0.010698135634273168,0.0988655310553228,-0.0326477588501798,-0.00853084113670344,-0.02204184904413984,-0.0029742661504293098,0.04445259837917357,-0.01623165435236643,-0.0652955177003596,0.01660055539877005,-0.08706069152632903,0.06197540752721727,-0.043345895239962705,-0.022779651136947084,0.004519040273851,-0.0933320115817198,0.12321301447264678,-0.01696945682292854,-0.0431614435834963,0.0863228871669926,-0.006225208274538769,-0.05681078834450818,-0.04980166770732962,0.047588258406868957,-0.06603332205969605,0.008346390613501628,-0.03836572846922974,0.0030895478690885166,0.04076358640411788,-0.09296311129082592,-0.041316938351478184,-0.0354145185869813,-0.006132983201815297,-0.0763625566475656,0.08742959181722292,-0.02056624410301562,-0.020935145149419243,-0.07894486623892014,0.10107893657823479,0.10550575517915613,0.06455771711857183,-0.06640222235058994,-0.010467572574709622,-0.07710035722935338,0.009038080169947137,0.011804839528993766,-0.09591432117307436,-0.047219358115975066,-0.020750694248462563,-0.0656644179912535,0.10771916070206812,-0.08779849588566546,0.008853629646745326,-0.0759936563566717,-0.0509083685800113,0.09960333541465924,0.0029050972325602455,0.07746925752024728,-0.0064557717118571825,-0.049063863347993175,0.017799484366214122,0.08337167728474415,0.007931376652981404,-0.10993256622498011,-0.010928699071591582,0.0652955177003596,0.01613942927964296,-0.07488695170644137,-0.01512495045764583,-0.06418881682767794,0.03799682817833585,-0.035230068441534354,0.05976199822675662,-0.062344307818111164,-0.022871876587425424,0.07341134676531716,-0.02674533908568292,-0.026007536992875672,-0.03633677158074522,-0.027298691410798086,0.01844506176405276,0.0276675935904663,0.041685838642372075,0.01835283631357442,-0.06677112264148383,-0.12763982551847078,0.08521618629431092,0.06160650723632339,0.019275089307338344,-0.031172153909055582,0.03006545076984472,0.03301666065209316,-0.06381991275923539,-0.00816193971254495,-0.07267354240598072,0.014571599265795262,-0.019275089307338344,0.08300277699385025,0.030249901293046527,-0.08005156711160182,-0.02840539417225409,-0.05681078834450818,0.11509718540768922,-0.06455771711857183,0.046666006168614764,-0.08853629646745326,-0.04057913588091607,-0.025638635946472057,0.007193574182419293,-0.05349067817136584,-0.0859539868760987,-0.06160650723632339,0.05459738282159617,-0.057179692412950726,-0.11214597552544078,0.08447838193497448,-0.03855017861467669,-0.01724613279660869,-0.08189607612116859,-0.034123363791304026,0.0354145185869813,-0.0579174929947385,-0.005856307228135147,0.11509718540768922,-0.08964300111768359,0.033754463500410135,0.014018246940680098,0.011113149594793393,-0.10771916070206812,0.05976199822675662,-0.001158580441464322,0.022871876587425424,0.0018790906542275514,-0.05754859270384461,-0.003158716673631121,0.008300277699385026,-0.04574375317485085,-0.052383977298684166,-0.10329234587869546,-0.025823086469673864,0.031172153909055582,-0.09960333541465924,-0.06418881682767794,0.0557040874718265,0.03209440841383897,0.007839151202503065,0.05164617293934773,-0.01862951228725457,-0.0038042940714697587,-0.0013949078136137492,-0.040948038060584294,0.0557040874718265,-0.058655297354074945,0.060868702876986945,0.02121182112309939,-0.01890618826093472,-0.06197540752721727,-0.10181674093757123,0.1564141237591674,0.022964102037903764,-0.01770725929349065,-0.009499206666829097,0.04002578355580091,0.05017056799822351,-0.06308211217744761,-0.0185372872145311,0.017615034220767177,0.01945954020829502,-0.03006545076984472,-0.062344307818111164,-0.11288377610722856,0.022871876587425424,-0.0579174929947385,-0.002259520061374527,0.025085283999111755,-0.01706168227340688,0.09185640664059558,-0.02674533908568292,-0.13944466504746453,-0.08742959181722292,-0.045005950704288734,-0.03135660405450253,0.0557040874718265,-0.02176517307045969,0.08890519675834714,-0.04648155564541296,0.0553351871809326,0.05164617293934773,0.05828639706318105,0.00797748918934314,-0.03615232105754341,0.022134074116863314,0.01503272538492236,-0.030618803472714746,0.02111959567262105,-0.06271320810900506,0.10255454529690768,-0.0759936563566717,-0.0034584489154921394,0.0276675935904663,0.03947243311946007,0.1305910354007192,-0.09960333541465924,0.007931376652981404,-0.1512495045764583,-0.012911543423714365,-0.060130902295199164,-0.03320111117529497,0.030987703763608637,0.08816739617655936,0.00806971463982148,-0.0427925432926024,0.019828441254698643,-0.03947243311946007,-0.008991967633585401,-0.03154105571096894,-0.01512495045764583,0.007239686718781029,-0.0046343216147553415,-0.0689845319419445,-0.025638635946472057,-0.03209440841383897,-0.011482051018951882,-0.02038179320205894,0.016047204206919484,0.0483260627662054,-0.10403014646048324,0.10771916070206812,-0.017891709438937597,0.024531932051751453,-0.04242364300170851,-0.00972977010414751,-0.015586077332282658,0.0863228871669926,-0.05644188805361428,-0.05681078834450818
motorcycle 0.04451285066154498,-0.008878893144268133,0.014285152647569192,0.016731780887267116,-0.027938917007758222,-0.006037647467410586,0.010575748479652218,-0.08586876311889552,0.029990929103379072,0.06976836922592601,0.10923011617459479,-0.04230299521169142,-0.0757665556931431,0.007616117216049081,-0.04451285066154498,-0.00651118852131039,-0.0621917136566117,0.0902884804840154,0.026676141079539167,0.0026636679432804396,0.06818990012382879,-0.010062745779017643,-0.05682491676985733,0.03961959482869041,0.005958723850670406,-0.014521923174519094,-0.04293438155944776,0.06976836922592601,0.10354762611396225,-0.026833987666478255,-0.04703840251798308,-0.039303900361729684,0.04987965078100573,0.0902884804840154,-0.08965709090355267,-0.006629573461514703,0.12122648910902897,-0.01838917457591643,-0.03788327784657155,0.020520108025382996,-0.043565767907204095,-0.023361354672052456,0.012785605869129602,0.16542364659669578,-0.06566434826739069,0.007576655569314311,0.007103114515414507,0.026202601318721916,0.12627759282190518,0.03299002072063443,-0.07134683832802323,0.08965709090355267,0.10102207425752414,0.059981858206758144,-0.07260961748894866,0.07039975880638873,0.025097671977441952,0.03756758467269338,0.05461505808729739,-0.03251648095981718,0.03725188988246202,-0.06471726551304981,-0.06787420694995062,0.007971273006473935,0.052089506230859284,0.06755851377607246,-0.05177381305698112,-0.04956395437442118,0.011207136767032382,-0.0008336294370217799,0.017442092468116822,0.02809676359469731,-0.06092893772839265,0.019967644324554924,-0.012785605869129602,-0.023045659881821102,-0.04640701617022675,-0.11554399904839643,-0.025097671977441952,-0.09912790874884236,0.12564620647414884,-0.06976836922592601,-0.05082673030264023,0.018941638923285774,-0.08460598719067647,-0.05177381305698112,-0.12375204096546707,0.027307529366919332,-0.08208043533423837,-0.026360447905661003,-0.014758693701468997,-0.005761415293725912,0.07513516934538676,-0.06061324455451449,-0.026202601318721916,-0.06503296191963436,0.033305715187595154,-0.04167160563122871,0.044828547068129526,-0.12122648910902897,0.025097671977441952,-0.028412458384928663,0.026360447905661003,0.08144904575377564,0.1048104020421813,-0.0015587390222523015,0.06534865509351252,-0.11112428168327655,0.08208043533423837,-0.00327532508402258,-0.1149126094679337,-0.07355669701058316,-0.004459177395501452,-0.055877834015516444,0.053352282159078335,-0.032042939259376096,-0.048932568026664854,-0.03677834850529158,-0.021625037366662964,0.03172724479241538,-0.011522829940910551,0.0741880865910459,0.03898820718785152,-0.09155125317952806,0.05935046862629543,0.019494103270655122,-0.005011642066141435,-0.03393710347497531,-0.00876050820406382,0.04135591245735054,-0.01625824047990859,-0.13574841389990125,-0.056509223595979166,-0.05619352718939462,0.006866343988464605,-0.01507438784515908,0.034568491115814205,-0.08713153904711457,-0.03851466581068108,0.0476697920984458,-0.05461505808729739,-0.04640701617022675,-0.016968551414217017,0.0026636679432804396,0.01720532194116692,0.012075294934821172,0.005958723850670406,-0.027938917007758222,-0.01104928953355202,-0.08271182491470108,0.011917447701340811,-0.0193362563604454,0.03709404297225231,0.08460598719067647,-0.06029755138063632,0.01507438784515908,-0.01610039324642823,-0.003886982224764721,-0.026360447905661003,-0.07292531066282684,-0.03851466581068108,0.01752101640812764,0.05682491676985733,-0.04672270934410491,-0.04703840251798308,-0.021782883953602047,0.016810704504007297,-0.08839431497533362,-0.057140609943735494,-0.06250741006319625,0.04735409892456763,-0.10607317797040035,0.01720532194116692,-0.06408587916529347,-0.019967644324554924,-0.04135591245735054,0.03898820718785152,-0.055877834015516444,-0.020520108025382996,-0.03535772599013345,-0.03993528864910985,-0.043565767907204095,-0.026360447905661003,0.034884184936233645,0.051458119883102955,-0.06156032730885537,0.03914605377479061,0.08271182491470108,-0.0476697920984458,-0.012075294934821172,0.08271182491470108,0.08650014946665185,-0.13448563473897582,0.08208043533423837,0.0707154519802669,-0.04798548527232396,0.048932568026664854,0.013338070863040225,0.04798548527232396,-0.01838917457591643,0.005879800557200864,-0.08650014946665185,-0.026833987666478255,-0.013890535210409569,-0.005603568060245553,-0.05082673030264023,-0.04167160563122871,-0.052089506230859284,0.009312972551433166,0.027781070420819138,0.03141155161853721,0.02872815317516002,0.01712639864769738,-0.08208043533423837,-0.05051103712876207,-0.019099485510224862,-0.11364983353971465,0.08776292862757729,-0.014442999557778915,-0.033305715187595154,-0.034568491115814205,-0.16542364659669578,0.06440157233917164,-0.08081765940601932,0.09344541868820982,-0.09091986683177172,-0.007773964449529442,0.05903477545241727,0.08144904575377564,0.07260961748894866,0.03551557257707253,0.06913698287816968,0.01302237671935014,-0.058403385871954545,-0.11112428168327655,0.0009026874804429482,0.02746537724694097,0.04009313652913148,-0.055562140841638276,0.010575748479652218,0.044828547068129526,-0.09218264275999077,-0.05461505808729739,-0.09091986683177172,-0.02809676359469731,-0.049248261200543014,0.06818990012382879,-0.05903477545241727,0.07039975880638873,-0.11680677174390909,0.06945267605204784,0.010417901246171857,-0.012312065461771073,0.022887813294882015,0.032832174133695345,0.10102207425752414,0.08081765940601932,-0.010338977952702317,-0.05682491676985733,-0.05461505808729739,-0.03472633802602392,-0.12122648910902897,0.07166253473460778,-0.022256425654043125,-0.014442999557778915,0.14079951761277745,-0.07892349389733755,-0.02399274263616198,-0.055562140841638276,0.022887813294882015,0.009431357814908118,-0.03472633802602392,-0.06850559329770696,0.03740973679267175,-0.02115149760584571,-0.05871907904583272,-0.05808769269807638,-0.022887813294882015,-0.11806955090483454,0.055877834015516444,-0.09912790874884236,-0.03377925688803623,0.03425279664885348,-0.07260961748894866,0.024150589223101065,-0.00651118852131039,-0.024150589223101065,0.012627759282190518,0.027781070420819138,-0.00868158458732364,-1.0327879425171406e-05,-0.013495917773249946,-0.015153311138628622,-0.01925733274370522,0.025571211738259204,-0.026833987666478255,0.05682491676985733,0.036146960864452696,0.00753719392257954,-0.08144904575377564
airplane 0.05517051466989054,-0.06537546551128459,-0.05261927695954203,0.03810911370652896,-0.05230037306214454,-0.11671912688123666,-0.05708394458544407,-0.058040659543220824,0.1479717872002138,0.006059189725356934,0.08227741452594743,-0.10332512726911482,0.07876946512340643,-0.09439579528289502,-0.03763075622764058,0.12118379124155441,0.004225487416944923,0.05485161077249305,0.020409901682788112,0.02519347320608764,-0.014669616834503955,-0.0017838732478852256,-0.011719748272733291,-0.07494260855788366,0.0018137704882662407,0.008530701134797647,-0.04241432611814797,0.02471511540064084,0.04496556382849649,0.012437284001228219,-0.09120674977775152,-0.09375798748810003,-0.08482865223629595,0.015706057113513236,0.007215219292448703,0.028063614813833654,-0.0030096633690911236,0.041138707262973716,0.019453187378128206,0.09439579528289502,0.024236758248310883,0.020330175708438737,0.09312017642772076,0.023758401095980927,-0.006936177402550613,-0.09120674977775152,0.033644447386860635,0.012277831399412617,0.10842760268981184,-0.040819803365576224,-0.08674208215184948,0.048473516496621766,0.039065827358072014,-0.014270985983081805,-0.040819803365576224,-0.06633218046906136,0.06059189725356934,-0.02439621019700963,0.08163960673115245,0.027425805386246525,0.08801770100702373,-0.10332512726911482,-0.08546646329667522,0.012277831399412617,0.03492006624203489,0.00849083814762296,-0.021844972486661115,0.02168552053796237,-0.01235755770032042,0.017380306820109645,-0.05453270687509556,-0.07940727291820142,-0.058997371235413314,0.009607004400981613,-0.12564845560187216,0.0044646659931098995,0.031890471379356425,-0.1007738895587663,0.03492006624203489,-0.0282230667625324,-0.020409901682788112,0.02168552053796237,-0.007853028720035831,-0.041138707262973716,-0.020170723106623135,-0.09758484078803852,-0.003328567919605474,0.06346203886131535,0.06250532390353859,0.09056893871737225,-0.026947447907358143,0.009208373549559461,-0.04943023145439853,-0.006856451428201238,0.037471303952383406,-0.07845056122600894,0.04273323328112974,-0.05070585030957279,0.046241182683670744,-0.11161665146053963,0.05102475420697028,-0.11097884040016036,0.020330175708438737,0.020250449734089362,0.10778979162943257,0.05867846733801582,0.08132070283375495,0.013553450254586874,0.06665108436645885,0.0019831886735963014,-0.1511608327053573,-0.03109320967651212,-0.07653713131045542,-0.040819803365576224,-0.08737988994664446,-0.01793838994678897,0.0009567141413806927,0.09886046290879706,-0.03794966175783021,0.0057402848482841565,-0.031731019430657675,-0.06888341817940988,0.048154612599224274,-0.1243728400122822,-0.0036076094829451378,0.025831281000882635,-0.043052137178527246,-0.06920232207680736,0.041138707262973716,0.11225445925533462,0.044646659931098995,-0.019453187378128206,-0.06856451428201238,0.032209375276753924,0.06633218046906136,-0.05485161077249305,-0.035557875996180446,-0.0829152255863267,0.03794966175783021,0.00725508227962339,-0.017380306820109645,-0.03970363645910071,-0.06696998826385636,0.010444129417559034,0.06473765771648961,-0.006218642000614109,-0.06314313496391785,-0.06760779932423562,-0.022323329965549497,-0.05835956344061833,0.053575991917318794,-0.02997704309659504,0.015147974313392334,-0.009686730701889416,-0.05134365810436777,-0.06346203886131535,0.016503319142915966,-0.01658304511726534,-0.02519347320608764,0.04656008658106824,-0.011321117747869563,0.0282230667625324,-0.004484597486697242,-0.006059189725356934,0.013393997979329698,0.02933923366900791,0.05102475420697028,-0.058040659543220824,0.013234545704072523,-0.04273323328112974,-0.04592227878627325,-0.048473516496621766,-0.050068039249193515,-0.05995408619319008,-0.015227700287741711,-0.05230037306214454,-0.010444129417559034,-0.05453270687509556,-0.0564461335250648,-0.004105898128862435,-0.054213799712113785,-0.09949827070359205,-0.04496556382849649,-0.08227741452594743,0.09056893871737225,-0.025671829052183886,-0.01259673660304382,0.0368334948513547,-0.07972617681559893,0.028860876516677954,0.054213799712113785,0.09120674977775152,-0.014829069109761131,0.11671912688123666,-0.0532570880199213,0.051981469164747045,-0.013314271678421896,-0.08355303664670598,-0.05261927695954203,-0.0567650374224623,-0.03523897079254924,-0.009208373549559461,-0.1358534064432662,-0.10778979162943257,-0.001933359776348729,0.027585257661503697,0.036036231842276695,0.01817756852295395,-0.07589932351566042,0.005341653996862004,-0.03922528061300447,-0.002650895504843659,-0.009806319989971904,0.013393997979329698,-0.04496556382849649,0.04241432611814797,0.014829069109761131,0.19006720942096428,-0.0005829976732706416,-0.014191259355615575,-0.033325542183229424,-0.04337104107592474,0.053894895814716286,0.023758401095980927,0.14860959499500878,-0.005421379971211378,-0.005102475420697028,0.07717493910525042,-0.1007738895587663,-0.029498685617706657,0.055808325730269816,-0.020250449734089362,-0.08482865223629595,-0.13776683635881976,-0.06569437267426637,0.011081938845146163,-0.052938184122523796,0.019214008801963226,0.04400884887071973,-0.012995367127907548,0.04400884887071973,-0.01730058084576027,-0.07876946512340643,-0.08036398787597819,0.008650290422880135,-0.04496556382849649,-0.08100179893635745,-0.11799474247082663,0.026469092061261898,-0.06154860894576183,-0.04592227878627325,-0.012038652823247639,0.01164002164526706,-0.03029594862678467,-0.012198105425063244,-0.03587677989357794,0.03460116103840368,0.04241432611814797,0.01730058084576027,-0.08993112765699297,0.01722085454485247,0.06760779932423562,-0.005082543927109684,0.031571567481958926,-0.04177651832335299,0.048154612599224274,-0.0071354929915409026,-0.08227741452594743,-0.13266436093812273,0.057402848482841565,-0.013473724280237501,0.01761948539627462,0.08674208215184948,-0.006178778686880995,-0.07717493910525042,-0.08674208215184948,0.0015845578221741496,-0.022323329965549497,-0.06537546551128459,-0.07845056122600894,-0.014350711957431178,-0.04687899374405002,-0.03252828080694355,-0.03460116103840368,-0.0003512934643486436,-0.027106899856056892,-0.053575991917318794,0.023439496545466582,-0.045284470991478254,-0.01825729482386175,-0.10715198383463759,-0.04560337488887576,0.04177651832335299,0.001435071195743118,0.0564461335250648,-0.007813165406302718,-0.08355303664670598,0.05453270687509556,-0.00402617215451306,-0.06665108436645885
bus 0.01987519109757395,-0.05692647482225936,0.013004754850766718,-0.016603554709804895,0.012841172780116589,-0.05136469045043522,-0.055617816916996084,-0.14853229367979287,0.0801550906628029,0.003946411340400239,0.08440821712936375,0.049074547491613635,-0.015867436061910455,-0.08767985519221064,-0.010101177284421534,-0.01652176367447983,-0.05234618220430486,-0.054636328513282116,0.09160581885753351,-0.013740872828630025,0.01292296415045722,-0.0173396726876682,-0.014967736348412582,0.12105054467237715,0.06379691039903547,-0.03320710941960979,-0.025682345560233178,0.023065036450017937,0.06935869142070394,-0.009487745357022473,0.014476990806493333,-0.09095149325505754,-0.07688345595011169,0.012432218273522404,-0.05659930867086571,-0.03304352667892853,0.05300050780678084,0.07263032948355082,-0.035824418529825035,0.004478052232474237,-0.11319861734173142,-0.04383992927118315,0.09945774618817924,-0.04711156398387437,-0.030753382045029105,-0.03598800026545959,-0.011614309595349597,0.0251915993482828,0.021265635682959933,0.04024112840709827,-0.04482141767489712,0.1282481464005469,0.09618611147548801,0.032552782477071544,-0.06706854511172668,-0.017421463722993264,-0.042204108564681875,0.08571687503462705,-0.015949227432251085,0.022083546036210572,0.017585045458627827,-0.042858437517313525,-0.04318560031855151,-0.02241070883744856,0.013577291092995464,0.027154582856022062,-0.06706854511172668,0.06314258144640382,0.01431340940587434,0.07197600053091918,-0.03304352667892853,0.10272938090087044,-0.003987306858062771,0.07884643610769528,-0.022901454714383377,-0.008301777187394664,-0.015949227432251085,-0.042531271365919866,-0.01979339972723332,-0.0417133643628249,0.045802909428766754,0.05234618220430486,-0.03435218123403615,0.06968585422194193,-0.03222561833577128,-0.0036601432192858658,-0.017257881987358704,-0.05823512602721133,0.053981999560650466,-0.04383992927118315,0.03271636387769054,-0.01145072752469947,0.05201901940306687,0.030426217568713287,-0.021919964635591576,-0.02404652753385644,0.01635818193884527,0.032552782477071544,0.06543272775538107,-0.04940171029285163,-0.03157129072320191,-0.05692647482225936,0.04547574662752877,0.1498409448847448,0.02371936339255618,-0.031244127921963922,0.11974189346742521,-0.039913963930782455,-0.030099054767475295,-0.0500560358953276,-0.19891549237635847,-0.07361181788726479,-0.005439095641235362,-0.07459330964113442,0.06412407320027345,-0.03533367298790578,0.029771891966237304,-0.055617816916996084,0.01668534574512996,-0.010959981982780222,-0.04547574662752877,0.007197600053091918,-0.061833926891296194,-0.0850625460819954,-0.05823512602721133,0.02371936339255618,-0.1099269826290402,0.0533276739581745,0.04645723838139839,-0.04482141767489712,-0.028790400212367673,-0.096840437077964,-0.07066734597581156,-0.12497651168785569,-0.0044984999075516115,0.028790400212367673,0.04040470980771727,-0.06477840215290509,-0.05954378393247461,0.07655628979871802,-0.13610007373119262,-0.11319861734173142,0.016767136445439455,0.01693071851608958,0.02584592830091444,0.04318560031855151,-0.09749476268043997,-0.09422312796774875,0.03876889111130939,-0.05823512602721133,0.08277239977301815,-0.02584592830091444,0.015785645361600955,0.0019527579616211883,-0.04711156398387437,-0.02535518208896406,0.01881190931342595,-0.006911331931977545,-0.01325012695169521,-0.06085243513742657,-0.0834267287256498,0.07786494770398131,0.11581592645194666,0.0044371568823194886,0.024537273745806817,0.02617309110215243,0.04187694576344389,-0.10207505529839447,-0.030099054767475295,-0.12366785378259239,-0.03173487212382091,-0.011696100295659097,0.01251400930884747,-0.06314258144640382,-0.008997000150118789,0.04007754566641702,-0.03173487212382091,-0.011941472396587589,-0.03369785563156017,0.023882944793175178,-0.020120563868533572,-0.029935473366856303,-0.031080546521344926,0.02666383664407168,0.0749204724423724,-0.026009509701533436,-0.03173487212382091,0.05790796322597333,-0.07230316333215717,-0.009119686535598602,0.05659930867086571,0.025682345560233178,-0.055617816916996084,0.11385294629436307,-0.02584592830091444,-0.013986245599589652,-0.14526065561694598,-0.07295749228478882,-0.02584592830091444,0.07034018317457358,0.06019810953495059,0.010469236440860973,-0.021919964635591576,-0.04547574662752877,-0.02241070883744856,-0.12366785378259239,-0.004130441086127741,0.016767136445439455,0.06935869142070394,0.023228619190699195,0.05692647482225936,0.014558781506802832,-0.07426614683989644,-0.03304352667892853,-0.05954378393247461,0.02748174565726005,-0.02241070883744856,0.11188996613677948,-0.03157129072320191,-0.048420218538982,0.010878190947455157,-0.05725363762349736,0.16881643760888318,0.06608705335785706,0.00254574207993665,0.004416709207242114,-0.11058130823151618,0.05856229217860498,-0.027318164256641058,0.004048650050802677,0.020120563868533572,0.016603554709804895,0.04318560031855151,0.07001302037333558,-0.05627214586962773,-0.05136469045043522,0.0005853161815337217,0.01202326376692822,0.07099450877704955,-0.005316408920739983,-0.007729240945165916,-0.013577291092995464,0.008424463572874475,-0.1432976754593624,-0.096840437077964,-0.006788645546497732,0.01635818193884527,-0.015131318419062711,-0.04138620022152464,-0.045802909428766754,0.021592800159275755,0.07099450877704955,0.0013699977478475278,-0.029117563013605664,-0.005316408920739983,-0.07426614683989644,0.055617816916996084,-0.027318164256641058,-0.0035579045088834273,-0.12759382079807094,-0.0096513274276726,0.03909605525260965,-0.06216109304268985,-0.006052527233618858,0.01292296415045722,0.05103752764919724,-0.037950982098121026,0.07132167157828755,-0.08637120063710302,-0.025682345560233178,0.04711156398387437,0.03696949034425139,0.07950076506032693,0.1099269826290402,0.03598800026545959,-0.032389201076452545,0.03680590894363239,-0.04613007223000474,-0.034188599833417155,-0.06968585422194193,-0.04645723838139839,-0.0019118624774602131,-0.026009509701533436,-0.03696949034425139,-0.002126563635299107,-0.041222618485890074,-0.05201901940306687,0.096840437077964,0.04547574662752877,0.04547574662752877,-0.0037214862445179887,0.02666383664407168,0.04383992927118315,-0.07099450877704955,0.024700855146425817,0.027154582856022062,-0.05300050780678084,0.15900153012065385,0.02003877283320851,-0.08179090801914851
train -0.0009665537841942564,0.0827109399071868,0.020590853249952305,-0.010990476525210261,0.03284110769709529,-0.03909655644333673,-0.096611937911869,-0.10495253671467832,0.01329282947542693,-0.03492625704193207,0.02571684630866206,0.059774291420133435,0.010425748503511646,-0.09730698603277535,-0.0722851896243474,0.04257180630037283,-0.06985251408386414,0.04656834509501309,0.08340598802809317,-0.10217233711374188,0.035100019072158664,0.012684660234440566,-0.04622081747590442,0.07471786516483067,0.0670723144829277,-0.025369320468881133,0.0008579522306101978,0.010729832768139278,0.01911387243437079,-0.005951364837479355,0.025890608694754198,-0.08236341228807811,-0.09591688623230714,-0.07819311288667347,-0.06324954270063173,-0.0517812166777773,-0.09869708583324358,0.06776736616248957,-0.04187675604427317,0.012250254447142988,-0.12441393392123339,0.028670808295690634,0.02571684630866206,-0.03996537015312518,-0.0517812166777773,-0.06498716656155314,-0.023805458638186318,0.00894876733206458,-0.023110409093817758,0.07993074030625036,-0.007819311288667346,0.12024363096117321,0.035100019072158664,0.006993939509897744,-0.05907923974057158,-0.02033020949288132,0.037358932582415336,0.01833194116315784,-0.0535188405386987,0.011077357896189107,0.07888816456623532,-0.14735057884963126,0.013900998004682193,-0.027801996009364387,0.027975758039590976,0.03562130729803173,-0.04969606875640272,0.02363169660795973,0.04031289421357836,0.05212874429688597,-0.04222428152818855,0.1431802794482266,-0.06429211488199127,0.05838419161966521,-0.04239804391428069,-0.06533469062200631,0.004213739908961306,-0.05734161587965017,-0.09869708583324358,-0.04222428152818855,0.010816714139118123,0.02137278452116526,0.008384039310365963,0.015204216790037119,-0.06012181548058661,0.05873171568011839,-0.0483059689559345,-0.07541291328573703,0.048653493016387675,-0.025369320468881133,-0.059426767359680256,0.019722040963626057,-0.018158178421200145,0.032146057440995635,0.0483059689559345,0.021459665536278556,-0.004756747676881599,0.024326746508193837,0.06672479042247453,-0.09035648703043427,-0.03353615724146385,-0.06255449102106987,0.0792356886266885,0.1862733732627414,0.06151191528105483,-0.013119066733469239,0.06602974230156816,0.007906192659646191,0.0931366866313707,-0.053171316478245516,-0.11398818363839398,0.006125127223571494,0.012858422976398255,-0.03840150689896817,0.057689143498758845,0.02172030929334954,0.024674272347974764,0.02102525903724988,-0.01120767941885905,0.09035648703043427,-0.05282379241779234,-0.001672463811317528,-0.016420553848547646,-0.01485669166198729,-0.0500435928168559,-0.008557802052323654,-0.06672479042247453,-0.05108616855687094,-0.011989610690072004,0.014509166533937457,0.027280708495222416,-0.01468292927589515,-0.08861886316951285,-0.08827133910905967,-0.00040997084876587183,-0.037706456642868515,-0.031277245510534936,0.023805458638186318,-0.05039111687730907,0.11815848303979865,-0.09035648703043427,-0.12302383056210967,0.02554308392256992,-0.005516958694316229,0.02397922066841291,0.08549113950812323,-0.038227744512876034,-0.05734161587965017,0.015377978820263708,-0.031103483124442798,0.045178241735889385,0.01911387243437079,0.05247626835733916,0.034752495011705485,-0.0535188405386987,0.026064372148442986,-0.02345793457773314,-0.0483059689559345,-0.047610917276372636,-0.12719413352216982,0.059426767359680256,-0.01016510474644066,-0.015638622577334692,0.0016507435575392041,0.014074760034908785,-0.03996537015312518,0.07159014150344103,-0.15916642537428335,0.07298023774525378,-0.04291933178428821,-0.10773273631561475,-0.027975758039590976,-0.09730698603277535,0.0018788067560099283,0.03457873298147889,0.008036514538181685,-0.004517824351521713,-0.05108616855687094,-0.061164391220601654,0.007298023774525378,0.01911387243437079,-0.009079089210600072,-0.0517812166777773,-0.03996537015312518,0.06463963894244446,0.07159014150344103,0.004669866661768304,0.02033020949288132,-0.07680301308620524,0.05595151607918195,0.07993074030625036,0.02102525903724988,-0.0670723144829277,0.04222428152818855,0.04378814371474891,-0.03301487115078408,-0.042745569754061616,-0.07298023774525378,-0.09105153870999612,-0.010947036017653615,0.007080820880876589,0.0448307176754362,-0.09244163495180883,0.04934854469594953,-0.07610796496529888,-0.12302383056210967,-0.08722876336904464,0.07263271368480058,0.0448307176754362,0.012945304347377099,-0.019635159236781663,-0.06846241428339593,0.009339732967671058,0.020069565735810334,-0.06290201508152304,0.08236341228807811,0.0656822146824595,0.0361425948121737,0.008427479817922611,-0.04622081747590442,0.03544754491193959,0.030582195610300827,0.16681197605618633,0.0361425948121737,0.008688123574993597,-0.06950499002341097,-0.09244163495180883,0.0413554699535934,0.0827109399071868,0.015377978820263708,0.01346659186151907,-0.03596883278194712,0.0361425948121737,0.11259808383792577,0.005603839709429525,0.05560399201872877,-0.05629904013963514,0.013032185718355944,-0.010469189011068292,0.0027584793471581146,-0.0483059689559345,0.0045395447832328115,-0.0023023528078704465,-0.03857527035265696,-0.08688123574993596,-0.03961784431334425,-0.032667345311003154,-0.0172024851197606,-0.005212874251755823,-0.07819311288667347,-0.027106946109130278,0.09869708583324358,0.018679465935342116,0.055256467958275594,0.008470920681344809,-0.019635159236781663,0.01138144216081674,-0.010034782867905167,-0.10078223375461814,-0.13483968064541726,-0.07159014150344103,0.0011294560789837896,-0.04326685584474139,0.04239804391428069,-0.006081686716014847,0.0517812166777773,-0.01980892197873935,-0.054561416278713734,-0.15221592993059777,0.06985251408386414,0.060816867160148474,0.05629904013963514,0.0065595333667346194,0.048653493016387675,0.04344061787496798,-0.09174658683090248,-0.04795844133682582,-0.044135669554529834,-0.013032185718355944,-0.007602108395018559,-0.005364916562002413,0.034752495011705485,-0.04031289421357836,-0.016420553848547646,0.026064372148442986,0.007211142759412081,-0.11051293591655119,0.04326685584474139,0.08027826436670354,0.016246791462455508,-0.02971338332397458,0.04187675604427317,-0.027801996009364387,0.00916597058157892,-0.0025521364024657144,-0.04448319361498302,-0.08688123574993596,0.13066938124401262,0.0011566064495865268,-0.04118170649990461
truck 0.045614777952603415,-0.006582279517650707,-0.043602359560961625,-0.005953399199578205,0.06875756884933726,-0.07479482058973819,-0.012745305604403895,-0.06238491518850421,0.08217368001186769,-0.0160993333950365,0.12544064108692163,-0.06003709831095473,0.012242201006493448,-0.03773281221530124,-0.011152142360921852,-0.022639688016085638,-0.08418609840350948,-0.021465777860048666,0.04293155572009733,-0.058024679919312934,-0.008552770951976253,-0.05165202625847987,-0.024987506954349786,0.05970169295599812,0.1328195005090511,-0.07881965393849731,-0.027335326579518836,0.08452150032394162,0.08586311144019466,-0.024652104347012753,-0.015344677013349496,-0.06272032054346081,-0.00637265297392817,0.04460856875678251,-0.0034169158224398545,0.04963961130136254,0.09726680421108327,0.06976377804515817,-0.09324197429684863,-0.039242124291770354,-0.015847781267807497,0.026329118070602828,0.08385069304855287,0.010690963689970315,-0.15093124886120496,-0.017105541903952505,-0.08485690224437377,0.05299364080925737,0.06708055581265208,0.019285659882000584,-0.11537855599776158,0.07680723554685552,0.05534145768680685,0.035552694580705604,-0.09190035974607111,-0.006288802150367688,0.0872047225564477,0.12476983381153287,0.03203096582985693,-0.017944048765747542,0.055006055766374705,-0.008385069304855287,-0.128794667160292,0.05031041857675129,-0.016518586825934017,0.027167624245492978,-0.013835364593427935,-0.03354027790632604,-0.04142224364362822,0.016267034355252574,0.010313635499126813,-0.0077142640901812125,-0.06708055581265208,0.06204951326807206,-0.05903088911513383,0.018950256587758656,0.005261631021424675,-0.045950179873035554,0.04326695764052947,-0.10062083371897812,0.10799969314110762,0.030689354713603886,-0.03572039588437412,0.028341534401529946,-0.004968153654141655,-0.02196888211450667,-0.12946547100115627,0.018950256587758656,-0.03203096582985693,-0.0009380796332031564,0.006414578213982189,0.07580102635103463,0.028844638999440394,0.014254618024325457,-0.013751513769867454,-0.020962673605590666,0.027503027883187352,-0.06003709831095473,0.12007419662190946,-0.03655890205926427,-0.08921713751356503,-0.04460856875678251,0.06842216692890513,0.028173833441313873,0.08586311144019466,-0.03890672237133821,0.03706200700062716,-0.06808676500847298,-0.021633478820264736,0.003668467777942632,-0.11604935983862587,-0.14355238943907545,-0.0482980001851095,-0.06942837612472602,0.07378861139391729,-0.06909297420429387,-0.0019180847125317986,0.01417076754421742,-0.02045956935113266,0.06573894469639904,0.0062049513268072065,0.003773281221530124,-0.06204951326807206,-0.0794904577793616,-0.0005450295288572649,0.09391277813771291,-0.0160993333950365,-0.031192457594252106,-0.047627196344245205,-0.013499961642638452,-0.02850923536174602,-0.006163026086753188,-0.04041603444780732,-0.08787552983183647,0.06473273550057813,0.045950179873035554,0.03001854881202492,-0.10665808545937905,0.04326695764052947,0.10062083371897812,-0.04091913904571777,-0.05735387607844865,0.010355560739180831,-0.027838431520881727,-0.045950179873035554,0.027838431520881727,-0.038739021411122135,-0.002463114207043819,-0.007588488026566712,-0.05903088911513383,0.10464566706773724,0.011487545311711337,-0.02331049323075971,0.01827945137308458,-0.05399984657055381,0.04963961130136254,-0.08586311144019466,-0.0020438606731105653,-0.10665808545937905,-0.03152786123194648,-0.06473273550057813,0.026999923285276905,-0.025155209288375644,-0.03454648710214694,0.06137870942720777,-0.04494397411173912,0.10934130769188513,-0.0794904577793616,0.05299364080925737,-0.09391277813771291,0.0012682417744322868,-0.03001854881202492,-0.0067919060613732445,0.030689354713603886,-0.06808676500847298,-0.07747804282224427,0.033037173651868035,-0.016434736002373537,-0.13416111162530417,0.0493042093809304,-0.07345320947348515,-0.03354027790632604,0.009391277813771292,0.00926550175015679,0.008636621432084289,-0.018195600892976546,0.009223576510102773,0.07814884666310856,-0.0700991799655903,0.12007419662190946,0.09726680421108327,0.017608645471505615,-0.06037250023138687,0.03957752792946473,0.027335326579518836,-0.004066758588813143,-0.016015482914928464,-0.08452150032394162,0.014086916720656937,-0.02532291024859172,0.029347743597350845,-0.07076998724097906,-0.0482980001851095,-0.04896880402597379,-0.04041603444780732,-0.021633478820264736,0.030186250115693435,0.06204951326807206,0.10196244483523116,0.053329042729689524,0.0493042093809304,-0.01777634711862658,-0.10129164099436688,0.08485690224437377,-0.054670653845942566,0.06708055581265208,-0.07647183362642337,0.040080632527375176,-0.07881965393849731,-0.019704913312898104,-0.0700991799655903,0.015344677013349496,0.1281238633194277,0.0043602361278223855,0.06204951326807206,-0.07345320947348515,-0.06272032054346081,0.05098122241761558,-0.01936951036210862,-0.05031041857675129,0.02331049323075971,0.019704913312898104,-0.038739021411122135,-0.023813598172122603,-0.10464566706773724,-0.059366291035565975,0.01911795823487962,-0.027167624245492978,-0.028173833441313873,-0.011739097438940338,0.07445941866930604,-0.010649038449916296,-0.07311780411852854,-0.05869548719470169,-0.04460856875678251,-0.08586311144019466,0.0650681374210103,-0.010984441057253335,0.015931632434820427,-0.09458358197857719,0.04091913904571777,0.025658312169023863,-0.05701847072349204,-0.014757722278783457,-0.011235993184482335,-0.02616141676693431,-0.049975013221794685,-0.08653391528105894,0.0019180847125317986,-0.09257116702145987,0.004674676286858637,-0.11873258207113195,-0.01853100350031358,0.002662259612479074,0.09927922260272508,0.02985084647799906,-0.09458358197857719,0.0012944451353291597,-0.07345320947348515,0.06305572246389296,-0.002494558171429577,-0.06339112438432509,0.0798258631343182,0.012661454780843412,-0.027167624245492978,-0.01052326204284935,-0.014673871798675422,-0.010732888930024333,-0.00763041326662073,-0.010900589890240406,-0.08653391528105894,0.0016350884835360608,0.06607434661683118,-0.01500927440601246,-0.017105541903952505,-0.054335248490985956,0.036726604393290126,-0.0006760462303058954,0.0493042093809304,0.06942837612472602,-0.10062083371897812,-0.012409902653614413,0.0163508855222655,-0.03521729094301123,-0.03370797886654211,-0.040080632527375176,-0.07345320947348515,0.06339112438432509,-0.0024840768270708276,-0.10397486322687297
boat 0.07757314112468412,0.03676966956670821,-0.05616295453013965,-0.08874367685280708,-0.02078960304153538,-0.04468213020290808,-0.02528884460399746,-0.0831584089887456,0.12349644478840226,-0.023116796449152963,0.09370835798646353,-0.09929362267312908,-0.059576173603877444,-0.09557011182288673,0.03661452336071635,0.0738496334518377,-0.004305309519886329,-0.010084508155565181,0.04654388721672721,0.015669774748668285,0.07447021700484681,0.028081477582809416,-0.016445506096367208,0.0019684185092602416,0.09619069855329176,-0.012023837160291673,-0.020013870422878086,0.18245203166187468,0.14459633642904623,-0.03490791382384745,-0.09432894153947262,0.0459233004863222,-0.038010839850122324,0.028546916518524607,0.06360997623062432,-0.033666743540433336,-0.04437183842640354,0.0558526627536351,0.006205851417070567,-0.0558526627536351,-0.05988646538038199,0.0691952440946858,0.07478050878135135,0.03242557325701922,-0.024047674320583346,-0.07167758466151404,-0.06609231679745256,0.060196757156886535,0.035528499283294095,-0.015592201804542148,0.021720479959746984,0.05212915190339276,0.19982841562967227,-0.0831584089887456,-0.008998484395882526,-0.05461149247022099,0.05523207602323008,0.03273586630448214,0.03382188942868561,-0.014971616345095497,0.06360997623062432,-0.009114844129811324,-0.09619069855329176,-0.040958619352665745,0.029477795025434173,0.005119827339648319,-0.037700547438138596,0.004266522730083668,-0.059576173603877444,-0.020479309676332873,-0.009502710121400379,-0.06267909772371477,-0.0012799568507990595,0.060817343887291556,-0.08998484395882525,-0.0036847243781792717,-0.009192417391677053,-0.07447021700484681,0.020634455882324734,-0.059576173603877444,0.0558526627536351,-0.024668259780029997,-0.03490791382384745,-0.07447021700484681,-0.04530271375591718,-0.03909686392754457,-0.056473249484040124,-0.0325807191452715,0.0639202711845248,-0.007524594644610817,0.051198273396483196,0.09060543068923028,0.03289101251047401,0.04282037318908895,0.05988646538038199,-0.05554237097713056,0.022496210989706313,-0.04344095991949397,0.07633197401866594,-0.011092959606600885,0.020944748929787656,-0.057093833037049214,0.05864529509696787,0.050577689843474105,-0.051198273396483196,0.06950553587119035,0.08439957927215971,-0.0592658818273729,0.16011096656042062,0.03661452336071635,-0.10053479295654319,-0.050577689843474105,-0.02218591921320177,-0.00884333818989066,0.01342015364969765,-0.04282037318908895,0.031029257085352837,0.07571138728826092,-0.09370835798646353,0.018462408362959426,-0.065161438290543,0.03785569364413046,0.0912260174196353,0.010860240138743288,0.04002774084575617,-0.017919395847638915,-0.031184402973605106,0.02187562616573885,-0.13404639060872425,0.07571138728826092,0.003956230318099936,-0.010239654679296639,-0.06733348708086667,0.010317227941162367,-0.018074542371370374,-0.011325678438979294,0.08377899571915062,-0.057093833037049214,0.0812966551523224,0.06329968445411978,-0.0812966551523224,-0.005430120069371644,-0.08750250339199703,-0.006826436558777624,0.003956230318099936,0.025443990809989325,-0.08377899571915062,-0.004673781957704256,-0.011015386662474747,-0.08874367685280708,0.14149341230920892,0.0052749735456401855,-0.08874367685280708,0.05771441659005831,-0.009929362267312907,-0.029788086801938722,-0.015902494216525877,0.033977036587896255,-0.02420282052657521,0.036459377154724484,0.03413218279388812,0.0014544964199182967,0.06050705211078702,-0.056783541260544676,0.06950553587119035,-0.05461149247022099,0.04219978963607986,-0.11356708252108935,-0.028081477582809416,-0.05337032218680687,-0.04654388721672721,-0.01784182290351278,0.009076057657748255,-0.024668259780029997,-0.04654388721672721,-0.06857465736428078,0.033977036587896255,0.044992421979412625,-0.11667000664092667,0.011480824962710754,0.0047319616657988586,-0.08253782225834057,0.001822968857736224,0.031184402973605106,0.04716447076973631,-0.13218463359490512,0.08936426040581616,0.023427089496615882,0.0229616502431611,-0.05771441659005831,-0.019781151590499677,-0.029012355454239802,-0.0611276356637961,0.08874367685280708,-0.031029257085352837,-0.013109861237713922,-0.05026739488957363,0.05274973545640186,-0.014273458259262304,-0.06267909772371477,-0.056783541260544676,-0.0406483275761612,-0.10301713352337141,-0.07912460636199871,-0.035218206871310366,-0.0558526627536351,-0.02032416347034101,0.05988646538038199,0.009231203863740121,0.09494952509248171,0.02606457595169638,0.06360997623062432,-0.012877141769856324,0.0645408547375339,-0.05181886012688822,-0.05492178424672553,-0.0831584089887456,0.011248105494853156,0.015437055280810687,-0.0045380289877439235,-0.0072918754944928145,0.056473249484040124,0.09246718452565347,-0.018539981307085566,-0.0022981043479192633,-0.03940715729274708,0.07571138728826092,0.17996969109504646,-0.0325807191452715,0.053990908917211894,0.021410186594544474,0.03242557325701922,-0.023582235384868155,-0.10425830380678552,-0.004169556549925997,-0.03506305971209972,0.08005548169151235,0.016445506096367208,0.002501733802859761,0.0015708561538470946,0.06423056296102936,-0.049336519560059994,-0.0345976220473429,-0.037235108502423404,0.015281909074818821,-0.061437930617696576,0.009813002533384109,-0.06764377885737122,-0.002501733802859761,-0.07757314112468412,-0.006322211150999365,-0.03428732899987998,-0.023116796449152963,0.0558526627536351,-0.0558526627536351,-0.039252010133536436,0.03940715729274708,-0.027460892123362765,0.021720479959746984,-0.04530271375591718,0.07198787643801857,-0.0014641930697080231,-0.03832113289758524,0.0071755157605640175,-0.01714366449993999,0.04157920608307076,-0.09619069855329176,-0.047474762546240855,0.01675579882609053,-0.010317227941162367,0.04995710311306908,0.013342580705571516,0.027150600346858223,0.11729059019393574,3.590788162776196e-05,0.010472374147154233,-0.06267909772371477,-0.030563818149637642,-0.07633197401866594,-0.02870206240677688,-0.10115537968694821,-0.09308777125605851,0.031029257085352837,-0.009657856327392245,0.065161438290543,0.029167501660231666,-0.0325807191452715,0.08564074955557383,-0.015824921272399744,0.10487888735979461,-0.010162081735170504,-0.01303228797584819,-0.05523207602323008,-0.050577689843474105,0.027460892123362765,-0.05150856835038367,-0.06733348708086667,-0.00021211405528046758,0.006865223030840691,-0.04995710311306908
stoplight 0.027937327083270652,0.0016751760355107237,0.05360563209077805,0.02467560948305645,-0.11118205324979392,-0.0680706448468126,0.022973841909712377,-0.05445651587745009,0.02779551331244848,0.1077785210074533,0.026661002565001604,0.04594768381942475,0.004378502533916908,-0.09132811371729982,0.08055026306872826,0.017159474692090573,-0.073743198584047,0.0052471121343331175,0.05757642115901588,-0.138410311188519,0.0680706448468126,0.06636887727346853,-0.11288382082313801,-0.0020474373509189064,0.026944630977950204,-0.06126358036213135,0.040842386908087565,0.05445651587745009,0.02907183783071753,0.02113026259858939,0.02864639564694676,0.0011876909478095352,0.009076085979575014,0.009997875925571257,0.005566193336509067,-0.09132811371729982,0.16790759062213778,0.020137566493268942,-0.05360563209077805,-0.022548401468550118,0.05332200513000321,0.09529890278553765,0.016804940410252517,0.0033680788722437755,-0.017514009554798128,0.08679007072751231,-0.027511884899499885,0.033751695462631466,0.05502376979899977,0.13046873595639083,-0.11572009623958143,0.02127207724071582,-0.03290081167595943,-0.0782812415738345,-0.0666525071385909,0.012621431702303065,-0.005530739966412212,0.03488620621007834,-0.03247537007305816,-0.037722481626521774,0.010139689986828182,-0.09019360587420047,-0.0033680788722437755,-0.01871942733287347,0.0822520277377248,-0.013543222229168813,-0.09473164886398798,0.02467560948305645,-0.08395379531106889,0.02453379484093002,-0.03233355630223599,-0.00783521483140282,-0.06409985577857479,-0.04311140840298132,-0.028930024059895358,-0.048500335179440864,-0.013685035709556231,-0.047933078353543664,0.020704820414818623,-0.021697517681878078,0.07601222007894075,0.05445651587745009,-0.0333262532788607,0.07119055012837841,-0.06211446414880339,0.06211446414880339,-0.010848759131373793,0.051052983635109454,0.11401832866623736,-0.04254415448143164,-0.03545346013162802,-0.01871942733287347,0.0371552277049721,-0.04396229218965336,-0.11515284231803176,0.06268171807035307,0.011061479932824424,-0.0004010672730031719,-0.02935546595323138,-0.004750763791238141,-0.0027830966682545334,-0.06948878255503432,0.10153871334866924,0.02510104992421871,0.10891303175490018,-0.011416014214662477,0.04055875994731273,-0.047933078353543664,-0.023966539176771832,0.03446076402630757,0.012195990680271301,-0.06381622881779994,0.07033966634170637,-0.04254415448143164,0.08055026306872826,-0.1367085436151749,-0.007267959457679382,0.029922721036520068,-0.07601222007894075,-0.09019360587420047,0.026944630977950204,0.049634845926887744,-0.1225271607242627,-0.003864427215338752,0.016450405837979715,0.04991847288766258,-0.002224704637055309,0.04566405685864991,0.06183083428368103,0.016024963944643696,-0.09813517820198109,-0.0884918383008564,0.04226052461630928,-0.02935546595323138,0.1072112641815561,-0.004148055047417847,0.015528615891983472,-0.010636038329923159,0.01567042966280564,0.08905909222240607,-0.040275132986537884,-0.09643341353298453,-0.023399284093483144,0.0009084949467316604,0.07714673082638762,-0.016308592067157544,-0.059278185828012434,0.01758491658542659,0.012975966565010622,-0.03516983317085318,-0.006594343683230627,0.0012585978332206212,0.07317594175814979,0.045096802937100236,-0.06126358036213135,0.03516983317085318,-0.009359713521219358,0.024108352657159254,-0.012408711481721936,-0.009856062154749087,-0.12593069296660334,0.08395379531106889,0.05559102662489696,-0.06580162335191886,-0.006842517854778116,-0.017301288753347497,0.04396229218965336,-0.0353116466512406,0.043678662324531,-0.051052983635109454,-0.09359713521219358,0.0442459191504282,-0.0004343048873385302,0.039424249199865855,-0.07147417708915324,-0.028220955205784503,0.02495923644383129,-0.009430620551847818,0.029213652472843958,-0.01673403367005881,-0.1179891177344752,0.030489976700678257,0.02084663505694505,-0.03148267396773771,-0.08055026306872826,-0.018861241103695636,-0.011983269878820669,-0.019428496186984324,-0.10948028567644985,0.03545346013162802,0.07147417708915324,0.05020209984843742,-0.18492525183384093,-0.02198114580439193,0.09132811371729982,0.10097145652277204,-0.10040419969687484,0.01871942733287347,0.06495073956524682,0.001435865177443974,0.0391406193347435,-0.0024285619507643528,0.052754748304106015,0.07601222007894075,0.09529890278553765,-0.007019785286131894,0.036587970879074894,-0.020137566493268942,0.07998300624283106,0.038289738452418974,-0.00391760741570141,0.07544496325304355,-0.06381622881779994,-0.034744391567951914,-0.030348163220290835,0.07260868783660011,-0.07657947690483795,-0.0037935201847102908,-0.06268171807035307,0.0686378987683623,-0.052754748304106015,0.04821670531431851,0.10550949951255954,-0.02850458216655934,-0.03587890231539879,0.004998937962785628,0.04651494064532195,0.04736582443199399,-0.0029249105842940816,-0.030206348578164406,-0.00014846136629793126,0.026093747191278167,-0.027937327083270652,-0.01226689742046501,0.02198114580439193,-0.073743198584047,0.014606826236421979,-0.013543222229168813,0.11345107474468769,0.018293985439537447,0.026093747191278167,-0.051620240461006654,-0.06580162335191886,-0.1032404780176658,-0.1077785210074533,-0.030206348578164406,-0.002171524465736126,-0.008508830605851576,0.052754748304106015,-0.08622281680596264,-0.01801035847876261,0.033751695462631466,0.004006240986160924,0.03190811440889997,-0.01957030966737175,-0.06693613409936573,0.05332200513000321,0.06211446414880339,-0.027228257938725044,-0.01666312663943035,-0.0102815034672156,-0.07487770933149387,0.007551587289758478,-0.03800611149164413,0.05559102662489696,0.06211446414880339,-0.09132811371729982,-0.01467773297661569,-0.15429346165277524,0.07998300624283106,0.06154720732290619,0.052754748304106015,-0.07544496325304355,0.0218393311622655,-0.04736582443199399,0.025668305588376898,-0.09473164886398798,-0.09019360587420047,-0.011841455817563745,-0.011699642046741572,0.00538892619559004,-0.07544496325304355,0.038289738452418974,0.019144869226209487,-0.07657947690483795,0.03857336541319381,0.04594768381942475,0.023541098735609573,0.1072112641815561,0.019853938080320346,0.0075870406598553325,0.04396229218965336,-0.08508830605851576,0.027511884899499885,0.08055026306872826,0.0411260138688624,-0.03431894938418115,-0.02198114580439193,0.07657947690483795,-0.02779551331244848
fireplug -0.006844326480423712,0.06257669833418052,0.001129313861260095,0.014157977958059254,0.047245408043288036,0.0725889700676494,0.027377305921694847,0.005045246203070586,-0.005045246203070586,0.06288958102486968,0.07008590213428217,-0.059760747710124136,0.0026790647672725707,-0.034104299791146646,0.077907988625073,-0.05225154391002247,-0.04067485231525386,0.10137425130137244,-0.04067485231525386,-0.08635584370116911,-0.039736204243186364,0.06664418292492051,0.049435593285966084,0.049435593285966084,-0.05694479708606775,-0.006062117510951932,-0.06132516436749691,0.08447854435310719,0.08823314304923104,-0.010638038716810688,0.002385736603966089,0.030662582183748455,0.07696934055300551,-0.008134970783443466,0.0019457441988100176,0.020493868784542294,0.0362944850338247,0.096368115434638,-0.09323927891596548,-0.002346626203551404,0.0797852911770619,-0.08009817386775106,-0.005788344515813524,-0.03926687828479645,0.024248470684593126,0.04818405611535552,-0.17146015343565463,-0.0015741950424385492,0.04442945741923164,0.06852148547690941,-0.04442945741923164,0.04849694200997164,0.0007186542724346724,-0.05444172915270053,0.053503077876706086,-0.02158896012431054,0.025030679333672208,0.0244049123503304,-0.014940186927531034,-0.03175767448469479,-0.03207055781616934,-0.009464725743192064,0.0197898808081355,-0.06570553164892606,0.004458589876457622,0.07571780338239495,-0.06664418292492051,0.06257669833418052,0.0838527757678019,-0.027533747267039426,0.12014726080162659,0.010638038716810688,-0.0832270071824966,0.03817178598385011,-0.005045246203070586,0.03113190782174568,-0.019164113824793695,-0.009699388401994328,-0.0008213191776508454,-0.05131289263402802,0.03738957765516373,0.047245408043288036,-0.07227608737696024,-0.07102455341027662,-0.006375001162819184,0.014470861609926507,-0.025187120679016788,0.11326382238290325,0.1326626004684627,-0.11639265890157575,-0.08072393924912938,-0.0672699515102258,-0.11952149542024827,0.060386513091502454,-0.019164113824793695,-0.0785337572103783,-0.01822546350997734,-0.017677916878915127,-0.03379141710045748,-0.10200001988667773,-0.06946013675290386,0.03379141710045748,0.001129313861260095,-0.04818405611535552,0.05162577532471718,0.002366181435798016,0.032227000443084707,0.08072393924912938,-0.04693252535259886,0.01720859220209599,-0.05600614581007331,-0.09323927891596548,-0.00700076814616099,0.08260124180111827,0.0027377305921694843,-0.023779145366988597,-0.10512885320142326,0.0725889700676494,-0.010246934392271147,-0.09449081608657607,0.03582515971622017,-0.06570553164892606,-0.012906443991375643,0.020493868784542294,-0.006101228167680774,0.04380368883392636,0.04505522280060997,-0.005397240191273983,0.030193256545751227,-0.013062885657112921,-0.10763192113479049,-0.0488098247006608,0.05162577532471718,0.025812887982751286,-0.06351534961017496,0.0832270071824966,-0.0033048317506143756,0.06476688357685857,-0.008447854435310717,-0.01181135169042931,-0.04067485231525386,0.05850921374344053,-0.013453990302045159,0.06320246371555885,-0.006531442828556461,-0.02096319474293221,-0.02534356202436137,0.0009875385235899679,0.029411048217064844,-0.019868102121593182,0.049435593285966084,-0.13579143378320824,-0.11451535955351383,0.13954603888718603,-0.03754601900050831,0.0797852911770619,0.010794480382547966,-0.0037741570682189034,0.057570562467446074,-0.03551227638474562,0.08197547641973996,0.011576689031627048,0.07102455341027662,-0.0869816122864744,0.053815960567395245,-0.029098163924412203,0.0264386546457004,0.005240798525536705,0.005983896838279643,0.06507976626754773,-0.04098773820986998,-0.06257669833418052,-0.027533747267039426,0.0528773092914008,-0.07509203800101662,-0.05068712404872274,0.04286503755793191,0.009855830067731604,-0.12515339666836103,0.05444172915270053,0.021119636088276796,-0.07759510593438385,0.047871173424666354,-0.027533747267039426,-0.00930828375706209,-0.011342026372824783,0.05600614581007331,-0.09136197956790355,0.016113500221542353,-0.04599387407660442,0.07196320468627107,-0.021432518778965955,0.06695706881953663,0.0488098247006608,-0.015018407600203324,0.007196320468627107,-0.14017180426856435,-0.03801534431811284,-0.03723313630981914,0.04223927217655359,-0.06914725085828773,-0.06382823230086412,0.04286503755793191,0.02221472870961582,0.14955831062065492,0.010403376058008423,0.04536810549129913,-0.056319028500762466,0.029880373855062068,0.0528773092914008,-0.096368115434638,-0.10387731923473965,-0.01173313101775702,-0.023622704021644018,-0.14893254203534964,0.05444172915270053,-0.08823314304923104,0.020493868784542294,-0.050374241358033575,0.032539883133773866,-0.07321473544902772,0.08134970783443467,-0.04974847597665525,-0.039423319950533726,0.026125771955011236,0.08760737766785272,0.03848467027650276,-0.01861656815490957,0.058196327848824406,-0.030662582183748455,-0.022527611400304987,0.02346626267629943,0.032227000443084707,0.01603527890808467,-0.0330092084513784,0.03738957765516373,-0.10200001988667773,-0.1057546185828016,0.04974847597665525,0.02534356202436137,0.08948468021984163,0.04912270739134996,-0.07102455341027662,-0.03191411615043206,0.023935586712333177,0.016113500221542353,-0.06539264895823689,0.01830368418264963,-0.020806752116016847,-0.05944786501943497,0.029723932509717485,-0.06320246371555885,-0.017990800851175073,0.12265032873499382,0.008604296101047995,-0.05131289263402802,-0.03332209178285295,-0.007118099475562121,-0.1451779401352988,-0.004888804537333309,0.0851043097344855,0.023309820049384065,-0.12202456335361549,0.03754601900050831,-0.00100709372379731,0.12577916204973935,0.028315955916118508,0.008134970783443466,-0.023309820049384065,0.006844326480423712,-0.08260124180111827,-0.0068834368167598565,-0.053503077876706086,0.009425615086463222,-0.020806752116016847,0.05475461184338969,-0.02065031045027957,-0.030662582183748455,-0.021276077433621376,-0.0356687180504829,0.001711081540007754,0.004282592722159577,0.10700615575341217,-0.013610432288175132,-0.04442945741923164,-0.04036196962456469,-0.0725889700676494,-0.015878837242347395,0.04192638948586442,-0.05944786501943497,0.08009817386775106,-0.06257669833418052,-0.008682517094112982,0.015800616249282407,-0.06883436816759857,0.04442945741923164,-0.006218559497081906,0.011576689031627048,-0.08447854435310719,0.054128843258084404
street_sign 0.061167689347122765,0.0008121590246087829,-0.002656343311885729,0.023260951831341296,-0.021107160735712602,0.01924054174695914,-0.048244938656449146,-0.00997923586004143,0.008974132897849308,0.06346506737838224,0.015435508537250507,-0.0608805178283763,-0.0042716872217360286,-0.09476684231913174,-0.0689213409377845,0.012133027837863292,0.010122821913479048,0.0366144627407785,-0.15966777317253408,-0.027424950615740566,0.07811085306282242,0.013425302906930654,-0.039342598050157676,0.020102057773520476,-0.05571141578772053,0.007107513320967074,0.009476684231913174,0.013856061067243514,0.049680799190825346,-0.018522610009449096,-0.04365018259393018,0.0427886650970469,-0.0008794650404568379,0.05082948820645509,-0.040778461525177764,-0.07007002995341424,-0.022830194553221602,0.046809078122072946,-0.0551370727502276,-0.03446067046889225,-0.04623473214393613,0.11429455852548123,-0.04336301107518372,0.009333097884411166,-0.1188893145880002,-0.04594756062518966,0.021537919778218624,-0.03675804850015173,-0.041065633043924236,-0.020102057773520476,-0.09304381026600907,-0.032881222998885254,-0.013209923679742028,-0.09534118829726855,-0.04365018259393018,-0.0016153439098503,0.1573703951412746,-0.0565729332846038,0.09534118829726855,0.011845855436923661,-0.014789371443813407,0.1102741455004552,-0.007358788987999007,0.04594756062518966,-0.07351609700030345,-0.11774062263172656,-0.033455567212635734,0.12003800066298605,-0.019527713265705605,-0.014286819521620765,0.04537321758769673,0.09534118829726855,-0.003481963486732533,-0.07064437593155104,-0.043937354112676644,0.03962976956890415,0.04594756062518966,-0.06834699790029156,0.017302128114132738,-0.017804679742260996,-0.12405841368801208,-0.09132077821288641,0.06518810237214881,0.029865914406373283,-0.020389230762588882,0.009045926071600312,0.041065633043924236,0.03130177494074949,0.016584197552880247,0.0565729332846038,-0.14588350498497718,-0.01758930051507237,0.01802005896944962,-0.013138130505991023,0.08213126608784847,0.009548477405664177,0.0029973603725903203,0.05772162230023354,-0.04049128706578742,0.07265457950342018,0.037332391537644664,0.026850605813861308,0.04910645615333242,-0.020676402281335347,0.007789547442376258,-0.018379024250075864,-0.02168150553759186,-0.006138306798618261,0.0003051205326419671,0.09591553427540538,0.011415097276610801,-0.030871017662629792,0.019671299025078838,-0.14473481596934745,-0.03790673751578147,0.06576244540964173,-0.03575294524389522,-0.019384127506332376,0.13209923679742028,-0.055998590247110874,-0.07523913199407002,-0.006210099972369266,-0.06604961986903209,-0.05915748577525363,0.1051050464004433,-0.09591553427540538,0.029578742887626814,0.010625373247542915,0.04049128706578742,0.04250149357830044,-0.04451170009081346,0.03302480993451604,-0.03000950016574651,0.06949568397527743,0.04250149357830044,0.0855773301940938,-0.013138130505991023,0.0011935597124660708,0.052839694718968114,0.11486890156297416,0.041352804562670695,-0.06461375639401198,-0.02498398682510785,0.032594050892010014,-0.022830194553221602,-0.008076719549251498,0.011845855436923661,0.04623473214393613,-0.10797676746919571,0.04049128706578742,0.034747841987638715,-0.04537321758769673,-0.04910645615333242,-0.06432658487526553,-0.008579271177379754,-0.03058384496762577,-0.14416047293185452,-0.026276261600110824,-0.030296672860750534,0.08327995216283432,-0.08730036518786036,-0.016584197552880247,0.0348914289232695,0.01069716642129392,0.06691113442527147,-0.09017208625661277,0.04910645615333242,0.10280766836918381,-0.0427886650970469,-0.025127572584481082,-0.08155692010971165,-3.260134251257489e-06,-0.02254302185821758,0.11257152353171468,-0.048244938656449146,-0.07265457950342018,-0.031588947929817895,-0.13152489081928345,0.07638781806905587,-0.09361815624414589,-0.03905542653141121,0.02081998804070858,-0.018809782704453118,0.03647087698140526,-0.013281716853493034,0.07581347503156294,-0.08500298715660087,0.059731828812746565,-0.03144536187638027,0.1573703951412746,0.031588947929817895,-0.0427886650970469,0.017661093688823373,-0.05484990123148113,0.05140383418459191,0.029865914406373283,-0.03173253398325551,-0.11199718049422175,-0.025989088905106802,0.09591553427540538,0.0746647860159332,0.0009153615685194625,-0.005887031131586329,-0.014573991922560396,0.002656343311885729,0.0689213409377845,0.06317789585963579,0.038193909034527934,-0.09132077821288641,-0.04939362767207889,-0.09361815624414589,-0.06834699790029156,-0.10051029033792433,0.0855773301940938,0.024266055087597802,-0.06289072434088933,0.06863416941903804,0.08327995216283432,-0.0318761209188863,-0.047096249640819404,-0.09132077821288641,0.040778461525177764,-0.03302480993451604,-0.008220305896753509,0.043937354112676644,-0.023404538766972082,-0.01069716642129392,0.007825443882219566,0.002530705478369762,-0.03044025891418815,0.06920851245653095,0.09993594435978752,0.034604256228265476,-0.028286466936366286,0.006174203532525958,-0.1131458665692076,0.16541121825068278,-0.0025486536982914166,0.0884490542034901,0.014071440294432141,-0.010122821913479048,-0.034747841987638715,0.029578742887626814,0.06289072434088933,-0.04422452563142311,0.06461375639401198,-0.003481963486732533,0.04738342115956587,-0.033168395693889276,-0.03273763694544764,0.07523913199407002,-0.057147279262740616,0.06949568397527743,-0.03604011793889924,0.007645961388938638,-0.0499679736502157,-0.03704522001889819,-0.10740242443170278,0.06949568397527743,0.039916944028294495,0.005061410956739524,0.04422452563142311,-0.018953368757890734,0.012133027837863292,0.06461375639401198,-0.020963573800081813,0.05169100570333837,-0.011056131701920166,-0.07409044003779638,-0.039342598050157676,0.060306171850239496,0.01651240467319363,0.03647087698140526,-0.007251099374404695,-0.03876825501266475,0.04336301107518372,-0.04939362767207889,0.01069716642129392,-0.030296672860750534,-0.004810135289707591,-0.06317789585963579,0.025845502851669186,0.13209923679742028,0.03302480993451604,-0.025989088905106802,-0.07581347503156294,-0.015435508537250507,0.013568888960368272,-0.029004396909490006,-0.004630652502362274,-0.029578742887626814,-0.01069716642129392,0.0012384304093024,0.03101460342200302,0.05226535168147518,-0.06949568397527743,0.032019706678259534,-0.011199718049422174,0.030871017662629792,0.0275685363751138
stop_sign -0.02550683424659911,0.014470223400085065,0.004292015691963773,0.03212880145771134,-0.16334184113115402,0.026794439582048784,0.005273047527227215,-0.01397970660344859,0.02679443958204878,0.03372297803304931,0.032803261048509634,-0.10558357672997287,-0.048783353367888894,0.0019007495732357566,-0.08240669525824329,0.029621612383499252,-0.02085842894202653,-0.05640934371271927,0.10619672272576847,-0.08976443716202179,0.0976126913418409,0.1312130421848848,-0.11355446211810483,0.03942522574817972,0.027844449833272195,0.00453727308570515,-0.009565063470335202,0.03366166343346974,0.06842698865479468,-0.017903835953656085,-0.047120198577506336,-0.038750766157381426,-0.11232817389367686,-0.0721058570952418,0.01729069146472578,0.007189125687571809,0.10963033628391633,-0.0132439334176476,0.035179197575551956,0.08068988847916936,0.05898455388133018,-0.03681935915878378,0.04918956135321822,-0.02636523663155922,-0.07419055247636996,0.07627524534605595,-0.025138947653698618,0.03361184606532609,-0.053834136055550506,0.09197175872857849,0.013550505662112751,0.09638640186169188,-0.02121481855463534,-0.08755711308402296,0.012630788426428868,0.05211733028105343,-0.08731185569028158,-0.05420202465760472,0.025813406742208476,-0.11281868993688068,-0.004414644388834462,-0.041877807722208366,-0.009749006515641239,0.07382266387431574,-0.038804418221416066,-0.022625052838099912,-0.02639589405692111,0.02820467260979228,-0.09773532255015376,0.10595146533202708,-0.015205997339318702,0.054447279539903956,0.06143713535307039,-0.04292015440819558,-0.017229376111713574,-0.039873589294426,0.01471548129611487,0.10080104750624741,0.011281868993688068,0.09540536977528423,0.002268636417280468,0.03087185404991199,0.029553592293677294,-0.11159240045673165,0.05015526610823811,0.032619318254347815,-0.0008584031383927544,-0.033477719885875286,0.09466959508261794,-0.01845566609415104,0.03455072374608017,-0.038934710207264314,0.030235715801313682,-0.09295279081498614,-0.0358383283280972,-0.07443580886553447,0.0625407936249066,0.0727496607675435,0.014671411363311359,-0.09647837288205646,-0.016324986709705884,0.0014715468738904173,0.009626377818770548,0.09099072664217082,0.06241816743947806,-0.14347594200925948,0.10619672272576847,-0.14126862044270277,-0.04034494574644996,0.05953638603097886,-0.02703969622235751,-0.029185704696199938,-0.043104097202357396,-0.04003837174397531,0.00974900626449702,-0.08584030630494903,0.06388971582023376,0.03059210634315608,0.025016318203395282,0.012140272132080823,0.06523863374610926,0.03963982837868788,-0.0334777202625916,0.0523012723217826,0.03677337590889942,0.007641320137431441,-0.00864534523007446,-0.0061927647629111005,0.14224965252911043,0.00833877147874402,0.02587472159293225,-0.10963033628391634,0.08951917725683828,-0.06217290853887139,0.05303704651216045,-0.007817599517043592,-0.06787515750972288,0.07860519560948334,-0.001594177077626391,0.006621967211112228,0.009810320864076582,-0.038382879112421345,-0.0018394354759446248,-0.025200261750989744,0.027468898921702855,-0.0013489181770197259,0.006928538953288951,-0.09663165925543327,-0.03924128345630633,-0.10484780454874873,0.08976443716202179,0.02811270083599505,0.03087185404991199,-0.017842520851788096,0.0021460077204097797,0.10098499055155344,0.0007357734369452086,-0.07983148508963236,-0.0471508539937145,-0.026119980242394706,0.028603217381487307,-0.026089322063600175,-0.04647639565863729,-0.11404498192847187,0.023667398770654484,-0.07848256565689159,0.013151961392706153,-0.13979707105737021,0.013611820512836527,-0.018179750772759348,-0.05150418328068098,-0.046476395156348854,0.061682391742234915,-0.02575209214262892,-0.00840008758518887,0.029308333895359053,0.047488085170406834,0.03602059598281651,0.06315394062527906,-0.07652050273979734,-0.06560652008786555,-0.037401846975784844,0.024771060809653904,-0.026855753428195694,-0.01577315631806671,0.04920489119604813,-0.018639607130303364,0.04708954014756759,-0.03157697056378374,0.0003678875974773515,0.06082398935727481,0.055796199223788964,-0.03826024885845652,0.0668941249210268,-0.005456990823677465,0.03531715636639676,-0.0022073225711335552,-0.020571017142631577,-0.07394529257118643,-0.07553947316483181,-0.007480369344928124,-0.09025495194950454,-0.024832374906945034,0.04589390784163623,0.07823730951887127,0.006867224604853607,0.007848256691261265,-0.031147768115582612,0.07872782430635404,-0.023115569132447954,0.06462548749916946,0.09883898333343209,-0.14126862044270277,0.012561809407722783,-0.06697076986572469,0.06186633478754095,0.12949623540581087,-0.047886628686380786,-0.08485927672998349,0.037769736582415905,0.03635950229895134,0.015941771027408125,0.045985878359712386,-0.052362586670217946,0.0450048475290258,-0.01566585620830486,0.06021084336147921,0.03559307043206739,0.07167665615390596,-0.03617555850021266,0.05996558496316098,0.0011036612855667776,-0.016524259346697615,0.04549536332108541,0.004169385739372012,-0.04546470639801196,-0.03427480867583269,0.010730037848616253,0.052607844063959325,0.02264804544250453,-0.006775252831056375,0.02691706777663104,-0.017045433066407545,-0.06689412667903628,0.023077246961472064,-0.005763562816998401,0.02360608442221914,0.04764137003691833,-0.0045985879364289235,-0.06858027553045991,0.030411994678637404,-0.0022073220688451204,-0.02170533560241603,0.05303704651216045,0.014746138470332544,-0.042674897014454205,0.06413497271168671,0.07264236028106531,-0.01778120625220854,-0.00994827839920032,-0.010791352950484244,0.05027789580968566,0.0022073240779988392,-0.04790004064130514,0.017413319408163822,-0.010668723249036692,-0.08093514838435287,0.034397437623847595,0.05196404214966714,-0.13538242792425684,0.0811804032666521,0.13636345749922232,0.08731185569028158,-0.02624260693011168,0.08866077487187816,0.05343559203728813,-0.12311952809988218,-0.11257343003169715,0.02118416138041767,-0.058432722233969926,0.048315830632293486,0.023054254030579965,0.0652386324903882,0.024019958032167218,-0.04666033795051067,0.07210585960668395,-0.0567657342796761,0.03850550876364005,0.028695187899563466,-0.09540536977528423,0.009994264411671044,0.06523863374610926,0.0017168067790739366,0.013182618566923826,-0.0019620641728153162,0.019160782859167006,-0.04143327701338588,0.020471380196275177,0.03228208657536706,-0.07210585960668395
parking_meter -0.024374696934479932,0.043532226624761604,0.018715398659590394,-0.04934510874910845,0.007942873541047281,-0.06255013561713296,-0.02015504342773717,0.06726621893623737,-0.024821482484578602,0.05758584156026832,0.02874327733122154,0.01643182176673194,0.029190063898008156,-0.07297516106671471,0.10842023872977374,-0.03435293398723677,0.023108801085794696,-0.04457938401446731,0.036537222965582025,-0.07049301220824408,-0.04016116037215067,-0.02395273117713048,-0.0495436792913575,0.00853858984455898,0.005510369758189982,-0.08419447031199337,-0.07242908638207732,-0.0015885749115470446,-0.03792722448815378,-0.10196665218576033,-0.049245822257958385,-0.0013403601070350168,0.01717646577359284,-0.033980609645424036,0.07426587813151228,-0.10067593552763793,0.04031008888885023,0.061954420533646797,0.008935733369108155,0.020601831824562083,-0.040880981942873706,-0.012013596701052185,0.12450455920084359,-0.07719481315009435,-0.06642228721820087,0.02263719350623333,-0.05947227228518894,-0.053167615477900616,0.026112199549376176,-0.037182581904655995,0.008141445913334633,0.01015819163208723,0.002879291773007031,-0.0519265428787036,0.08121589184449869,0.042494378883883445,-0.00640394289176321,-0.01648146521564456,0.02060183040119896,-0.05967084567416424,-0.05351511657022512,-0.08618018793473922,-0.03132471146081669,-0.07888267190940279,-0.008848858746707313,-0.07684731185443226,-0.08975448453578393,0.02626112887942609,0.034129539585486715,0.04775653302421105,0.012708599292376357,0.0462672437904637,0.06910300661892056,-0.10643451907365199,-0.005063582581390601,-0.051653505638053696,0.029190063491332973,0.010325736925055791,-0.00032267926619939454,0.0027303631953061996,0.06701800331837499,0.08816590962423687,0.01811968255941628,0.06344371159743245,0.012112883700546216,-0.02040325965561232,0.07287587254218876,0.0009432163791482556,0.03618972309328306,0.028495062730047097,-0.03544507766305904,-0.023133621081881498,-0.003971439312243498,-0.010325736925055787,-0.06205370722813445,-0.11060452974149491,-0.061160132061185334,-0.06940086690572109,0.0955130660484221,0.09749878570454383,0.006453585323987884,-0.032789179071776524,0.05689083896894414,-0.040012231855451115,0.16878608536856143,0.0057585855793899545,-0.023431480962006854,-0.11517168108716073,-0.11298739058378356,-0.03187078512876613,-0.050884041228430814,-0.05033796756048138,0.0473345690968999,0.03852294262170378,0.02710505998744982,0.029984351963794443,0.04745867558413675,-0.008340019302309933,0.05267118627555173,0.0044678668878916665,-0.09859092938036611,-0.04835224912438516,-0.05708940991786837,0.009332878113682861,0.017275750638042195,-0.058677986049440946,0.010946273834667062,-0.010822166534079844,0.10281058248043369,0.035345790765233795,-0.020825223989598653,-0.001985717622745857,0.006155728290588773,-0.042494379087221035,0.020452901477824227,0.01886432758296513,0.07803874202140461,-0.06721657670735029,0.01777218187376696,0.1668003657124397,-0.06592585882920235,0.005100814710565491,-0.01107038133859187,0.08578304522354041,-0.039714372788676115,-0.03331042969357532,-0.0639401391730806,0.05748655466244308,-0.09700235446881907,0.038622228096165896,-0.03286364353346389,0.032478910515302085,0.06632300154040116,0.03197007060322824,0.055972444212583405,0.044777956590092254,0.09749878570454383,0.014396459881723105,0.012510027123426594,-0.020353615596686934,-0.030877923877342135,0.05927370092958953,0.12390884310066949,-0.12132740937774951,-0.008637875522358682,0.029934708514881826,0.16203464097779857,-0.07327301728676347,-0.049196178199033,-0.1382060173045929,-0.03375721585368676,-0.004865010412440837,0.02377898042763064,-0.02665827281065044,-0.1449574596619799,-0.045175099301291065,0.06567764300800238,-0.03107649726631743,-0.11537025244276015,0.017331600560174035,-0.022438620117258033,0.015563069849271052,-0.07084051248721822,0.011045560122479536,0.004802956863816023,-0.12390884310066949,0.033062216109088834,0.06394013917308061,0.005758583546014062,-0.008340017268934036,0.007545730829848462,0.03331043071026327,-0.0744644490804365,0.057982982238091244,-0.044480097523317254,0.08479018641216748,0.008141445913334629,0.039118656688502,-0.04358652438974402,-0.013056100588038444,0.05651851686384489,0.024424339366704607,-0.08369803988961895,-0.06801086334977345,0.012112883192202242,-0.11874597565482953,-0.01931111374307656,0.02829649015442216,0.01193913325605276,0.03951580143307671,-0.021445759272509208,-0.03107649645296708,0.033943377516249144,0.04757037156498624,-0.023630051504255904,0.09660521175762025,-0.0024325054095580088,0.015290033015296332,-0.04368580966086855,0.058777271727240656,-0.06691871764057529,0.03306221488906329,0.08248178687983357,-0.12708599292376357,-0.00436857999006643,-0.014297174203923402,-0.07026961943319475,0.05008975214595658,0.010772524101855169,-0.09193877351412919,0.03683508121900667,-0.006950013712986407,0.007148589135337587,0.06523085705122854,-0.011616453583178189,0.0037852760229804003,0.11755454345448131,0.04229580691827127,0.09511592333722327,0.014793603812947458,0.1068813058437762,-0.054309404025998625,0.04021080239770017,-0.11934168972162776,-0.14773746677387517,0.010127165569456384,-0.014892890304097519,-0.005671708984614501,-0.039689550759213425,-0.07525873694288521,0.03241685676333968,0.07883302947717813,0.04626724419713889,0.1378088725600182,-0.022587549243970356,-0.03201971364546569,0.08012374816867641,0.046341707642138304,-0.011368238982003752,0.06920229433009616,0.019857187411026003,-0.05699012546009421,-0.08866233801323539,0.01042502341620585,-0.0424943778671955,0.02228969160055848,0.015389319506446394,0.03539543421414641,0.016481465215644562,0.08379732760079456,-0.117951688199056,0.003524651118756176,-0.03445221742832298,0.07704588321003167,0.007347158864236286,0.03762936745475466,-0.03623936511883256,-0.09154162876955448,0.10861881008537315,-0.05790851980977976,-0.020850046222398937,0.0022339335456146273,0.06617407465040233,-0.012038419137190054,0.049121714754033576,-0.00819108936224725,-0.0051628694792158385,0.03869669255785326,0.014098602238311227,0.05818155664375448,-0.02011781150189987,0.04996564626873248,-0.055699406768595916,0.02683202335681269,0.06704282555117527,-0.006354299646188178,-0.012534848949551697,-0.0056468873618269865,-0.0205521877656367,-0.061557277822447985
